{"learner":{"attributes":{},"feature_names":["wc_track_length","wc_reco_pdg","wc_reco_larpid_pidScore_mu","wc_reco_larpid_pidScore_pi","wc_n_pion_candidate_daughters","wc_pion_candidate_daughters_total_energy","wc_n_blips_25cm","wc_n_blips_50cm"],"feature_types":["float","float","float","float","float","float","float","float"],"gradient_booster":{"gbtree":{"model":{"gbtree_model_param":{"num_parallel_tree":"1","num_trees":"50"},"iteration_indptr":[0,1,2,3,4,5,6,7,8,9,10,11,12,13,14,15,16,17,18,19,20,21,22,23,24,25,26,27,28,29,30,31,32,33,34,35,36,37,38,39,40,41,42,43,44,45,46,47,48,49,50],"tree_info":[0,0,0,0,0,0,0,0,0,0,0,0,0,0,0,0,0,0,0,0,0,0,0,0,0,0,0,0,0,0,0,0,0,0,0,0,0,0,0,0,0,0,0,0,0,0,0,0,0,0],"trees":[{"base_weights":[-8.200071E-2,-1.166839E0,1.169994E0,-1.5518067E0,-2.0684448E-1,6.5545344E-1,9.150602E-2,-8.926396E-2,-4.839815E-2,-6.5346085E-2,2.2389408E-2,4.8645273E-2,2.492843E-3],"categories":[],"categories_nodes":[],"categories_segments":[],"categories_sizes":[],"default_left":[0,0,0,0,0,0,0,0,0,0,0,0,0],"id":0,"left_children":[1,3,5,7,9,11,-1,-1,-1,-1,-1,-1,-1],"loss_changes":[2.229488E2,3.2166702E1,2.469497E1,6.8039246E0,1.9536222E1,8.487371E0,0E0,0E0,0E0,0E0,0E0,0E0,0E0],"parents":[2147483647,0,0,1,1,2,2,3,3,4,4,5,5],"right_children":[2,4,6,8,10,12,-1,-1,-1,-1,-1,-1,-1],"split_conditions":[-6.512652E-1,-1.4238548E0,-1.4403777E-1,3E0,-7.489184E-1,-1.4830434E0,9.150602E-2,-8.926396E-2,-4.839815E-2,-6.5346085E-2,2.2389408E-2,4.8645273E-2,2.492843E-3],"split_indices":[3,3,3,7,2,2,0,0,0,0,0,0,0],"split_type":[0,0,0,0,0,0,0,0,0,0,0,0,0],"sum_hessian":[1.6214365E2,8.6907425E1,7.523622E1,6.1591946E1,2.5315477E1,4.3400383E1,3.1835836E1,4.252777E1,1.9064173E1,9.072753E0,1.6242723E1,2.8076328E1,1.5324057E1],"tree_param":{"num_deleted":"0","num_feature":"8","num_nodes":"13","size_leaf_vector":"1"}},{"base_weights":[8.667413E-2,-1.4444135E0,1.2104117E0,-9.319098E-2,-1.1515115E0,1.4962268E0,2.3628596E-2,-7.402624E-2,-3.933643E-2,8.9581735E-2,4.7062457E-2,-3.1394597E-2,6.8388216E-2],"categories":[],"categories_nodes":[],"categories_segments":[],"categories_sizes":[],"default_left":[0,0,0,0,0,0,0,0,0,0,0,0,0],"id":1,"left_children":[1,3,5,-1,7,9,11,-1,-1,-1,-1,-1,-1],"loss_changes":[3.0710776E2,7.138321E0,3.4868195E1,0E0,4.490219E0,1.190657E1,1.92384E1,0E0,0E0,0E0,0E0,0E0,0E0],"parents":[2147483647,0,0,1,1,2,2,4,4,5,5,6,6],"right_children":[2,4,6,-1,8,10,12,-1,-1,-1,-1,-1,-1],"split_conditions":[-9.631282E-1,-3.3375921E0,6.85338E1,-9.319098E-2,8.0437454E1,-2.0789838E0,4E0,-7.402624E-2,-3.933643E-2,8.9581735E-2,4.7062457E-2,-3.1394597E-2,6.8388216E-2],"split_indices":[3,3,0,0,0,2,7,0,0,0,0,0,0],"split_type":[0,0,0,0,0,0,0,0,0,0,0,0,0],"sum_hessian":[1.7647874E2,7.457934E1,1.018994E2,2.8461733E1,4.6117607E1,8.191171E1,1.998769E1,2.2639463E1,2.3478142E1,5.2002895E1,2.9908815E1,1.3821223E1,6.166466E0],"tree_param":{"num_deleted":"0","num_feature":"8","num_nodes":"13","size_leaf_vector":"1"}},{"base_weights":[3.87917E-2,-1.0982474E0,1.1702437E0,-1.3218809E0,2.0115589E-1,1.6074482E0,6.9417596E-1,-7.778545E-2,-2.2231711E-2,5.583614E-2,-2.6895482E-2,5.422565E-2,8.7096624E-2,5.9876222E-2,-4.369601E-4],"categories":[],"categories_nodes":[],"categories_segments":[],"categories_sizes":[],"default_left":[0,0,0,0,0,0,0,0,0,0,0,0,0,0,0],"id":2,"left_children":[1,3,5,7,9,11,13,-1,-1,-1,-1,-1,-1,-1,-1],"loss_changes":[2.2075418E2,2.5141106E1,1.6782173E1,1.4316254E1,9.693207E0,1.2097855E0,1.519812E1,0E0,0E0,0E0,0E0,0E0,0E0,0E0,0E0],"parents":[2147483647,0,0,1,1,2,2,3,3,4,4,5,5,6,6],"right_children":[2,4,6,8,10,12,14,-1,-1,-1,-1,-1,-1,-1,-1],"split_conditions":[-7.506456E-1,5E0,-2.2604096E0,1.984758E-2,-3.1444705E-1,3E0,4.2963787E1,-7.778545E-2,-2.2231711E-2,5.583614E-2,-2.6895482E-2,5.422565E-2,8.7096624E-2,5.9876222E-2,-4.369601E-4],"split_indices":[3,7,2,5,2,7,0,0,0,0,0,0,0,0,0],"split_type":[0,0,0,0,0,0,0,0,0,0,0,0,0,0,0],"sum_hessian":[1.6959315E2,8.460237E1,8.499078E1,7.216511E1,1.2437263E1,4.306492E1,4.192587E1,5.636718E1,1.5797927E1,5.327041E0,7.110222E0,1.0663742E1,3.2401176E1,2.402105E1,1.7904818E1],"tree_param":{"num_deleted":"0","num_feature":"8","num_nodes":"15","size_leaf_vector":"1"}},{"base_weights":[4.0388007E-2,-1.0624645E0,1.1571842E0,-2.4495162E-1,-1.4891989E0,1.4031078E0,2.075747E-1,-6.1921753E-2,1.232525E-2,-8.1228614E-2,-2.063476E-2,4.8552707E-2,7.640947E-2,4.2841006E-2,-5.140804E-2],"categories":[],"categories_nodes":[],"categories_segments":[],"categories_sizes":[],"default_left":[0,0,0,0,0,0,0,0,0,0,0,0,0,0,0],"id":3,"left_children":[1,3,5,7,9,11,13,-1,-1,-1,-1,-1,-1,-1,-1],"loss_changes":[2.0883861E2,2.9403847E1,1.9378944E1,1.5178698E1,7.471222E0,2.1222382E0,1.5723228E1,0E0,0E0,0E0,0E0,0E0,0E0,0E0,0E0],"parents":[2147483647,0,0,1,1,2,2,3,3,4,4,5,5,6,6],"right_children":[2,4,6,8,10,12,14,-1,-1,-1,-1,-1,-1,-1,-1],"split_conditions":[-6.512652E-1,-2.7289665E-1,-1.5785589E0,-6.707196E-1,3.5334613E-2,2E0,3.7545097E1,-6.1921753E-2,1.232525E-2,-8.1228614E-2,-2.063476E-2,4.8552707E-2,7.640947E-2,4.2841006E-2,-5.140804E-2],"split_indices":[3,2,2,2,5,7,0,0,0,0,0,0,0,0,0],"split_type":[0,0,0,0,0,0,0,0,0,0,0,0,0,0,0],"sum_hessian":[1.6756023E2,8.4330894E1,8.322933E1,2.9462458E1,5.4868435E1,6.572957E1,1.7499763E1,9.247876E0,2.021458E1,4.8287086E1,6.5813518E0,1.6724289E1,4.900528E1,1.1673325E1,5.8264384E0],"tree_param":{"num_deleted":"0","num_feature":"8","num_nodes":"15","size_leaf_vector":"1"}},{"base_weights":[-3.1767741E-3,-9.882047E-1,1.1034281E0,-1.79063E-1,-1.435337E0,1.3433754E0,6.688909E-2,-6.041648E-2,1.6042918E-2,-7.829756E-2,-1.9893387E-2,3.9757576E-2,7.820714E-2,3.295822E-2,-4.523402E-2],"categories":[],"categories_nodes":[],"categories_segments":[],"categories_sizes":[],"default_left":[0,0,0,0,0,0,0,0,0,0,0,0,0,0,0],"id":4,"left_children":[1,3,5,7,9,11,13,-1,-1,-1,-1,-1,-1,-1,-1],"loss_changes":[1.7859131E2,3.1103157E1,1.9100876E1,1.685006E1,6.922905E0,6.33313E0,9.548093E0,0E0,0E0,0E0,0E0,0E0,0E0,0E0,0E0],"parents":[2147483647,0,0,1,1,2,2,3,3,4,4,5,5,6,6],"right_children":[2,4,6,8,10,12,14,-1,-1,-1,-1,-1,-1,-1,-1],"split_conditions":[-6.512652E-1,-2.7289665E-1,-1.5785589E0,-7.489184E-1,3.5334613E-2,3E0,3.7545097E1,-6.041648E-2,1.6042918E-2,-7.829756E-2,-1.9893387E-2,3.9757576E-2,7.820714E-2,3.295822E-2,-4.523402E-2],"split_indices":[3,2,2,2,5,7,0,0,0,0,0,0,0,0,0],"split_type":[0,0,0,0,0,0,0,0,0,0,0,0,0,0,0],"sum_hessian":[1.6183937E2,8.567979E1,7.615959E1,3.099355E1,5.4686234E1,6.160313E1,1.4556464E1,9.669138E0,2.1324411E1,4.8118824E1,6.5674095E0,1.9006557E1,4.259657E1,9.243258E0,5.313206E0],"tree_param":{"num_deleted":"0","num_feature":"8","num_nodes":"15","size_leaf_vector":"1"}},{"base_weights":[-2.505092E-2,-1.1806227E0,9.515197E-1,-1.4010503E0,-8.0552265E-2,1.088651E0,-4.7064506E-2,-7.5288385E-2,-3.097695E-2,-4.9679223E-2,4.868504E-2,7.23058E-2,2.8517673E-2],"categories":[],"categories_nodes":[],"categories_segments":[],"categories_sizes":[],"default_left":[0,0,0,0,0,0,0,0,0,0,0,0,0],"id":5,"left_children":[1,3,5,7,9,11,-1,-1,-1,-1,-1,-1,-1],"loss_changes":[1.7764198E2,1.736792E1,2.3173088E1,3.9769897E0,1.3572068E1,1.4002365E1,0E0,0E0,0E0,0E0,0E0,0E0,0E0],"parents":[2147483647,0,0,1,1,2,2,3,3,4,4,5,5],"right_children":[2,4,6,8,10,12,-1,-1,-1,-1,-1,-1,-1],"split_conditions":[-9.631282E-1,3.457711E-2,1.1227991E2,5E0,-1.4238548E0,-2.0789838E0,-4.7064506E-2,-7.5288385E-2,-3.097695E-2,-4.9679223E-2,4.868504E-2,7.23058E-2,2.8517673E-2],"split_indices":[3,5,0,7,3,2,0,0,0,0,0,0,0],"split_type":[0,0,0,0,0,0,0,0,0,0,0,0,0],"sum_hessian":[1.5541914E2,7.108987E1,8.432928E1,5.8995075E1,1.2094791E1,7.902862E1,5.3006577E0,5.120694E1,7.7881336E0,6.512345E0,5.582447E0,4.5711617E1,3.3317005E1],"tree_param":{"num_deleted":"0","num_feature":"8","num_nodes":"13","size_leaf_vector":"1"}},{"base_weights":[1.0142389E-1,7.3591983E-1,-1.2496457E0,1.04003E0,-1.8895702E-2,-1.3727357E0,-1.710477E-2,1.8901918E-4,6.0962487E-2,-2.9437283E-2,4.959718E-2,-7.680465E-2,-4.491565E-2],"categories":[],"categories_nodes":[],"categories_segments":[],"categories_sizes":[],"default_left":[0,0,0,0,0,0,0,0,0,0,0,0,0],"id":6,"left_children":[1,3,5,7,9,11,-1,-1,-1,-1,-1,-1,-1],"loss_changes":[1.3858318E2,2.5247017E1,5.3043823E0,1.4547447E1,1.9330347E1,2.1217346E0,0E0,0E0,0E0,0E0,0E0,0E0,0E0],"parents":[2147483647,0,0,1,1,2,2,3,3,4,4,5,5],"right_children":[2,4,6,8,10,12,-1,-1,-1,-1,-1,-1,-1],"split_conditions":[-2.7289665E-1,6.85338E1,3.5334613E-2,-7.239233E-1,6.367362E-2,3E0,-1.710477E-2,1.8901918E-4,6.0962487E-2,-2.9437283E-2,4.959718E-2,-7.680465E-2,-4.491565E-2],"split_indices":[2,0,5,3,5,7,0,0,0,0,0,0,0],"split_type":[0,0,0,0,0,0,0,0,0,0,0,0,0],"sum_hessian":[1.5958772E2,1.089006E2,5.0687126E1,7.735637E1,3.154423E1,4.418218E1,6.5049467E0,1.1556676E1,6.579969E1,2.0439337E1,1.1104893E1,3.1200975E1,1.2981202E1],"tree_param":{"num_deleted":"0","num_feature":"8","num_nodes":"13","size_leaf_vector":"1"}},{"base_weights":[-3.9398436E-2,-1.2507613E0,6.8409127E-1,-1.3426195E0,-2.6874457E-2,1.7012636E-1,1.1862887E0,-7.79086E-2,-5.070081E-2,3.9512582E-2,-2.4736067E-2,3.990325E-2,7.739603E-2],"categories":[],"categories_nodes":[],"categories_segments":[],"categories_sizes":[],"default_left":[0,0,0,0,0,0,0,0,0,0,0,0,0],"id":7,"left_children":[1,3,5,7,-1,9,11,-1,-1,-1,-1,-1,-1],"loss_changes":[1.450393E2,3.3321E0,2.6550472E1,2.2550735E0,0E0,2.1990915E1,6.1010513E0,0E0,0E0,0E0,0E0,0E0,0E0],"parents":[2147483647,0,0,1,1,2,2,3,3,5,5,6,6],"right_children":[2,4,6,8,-1,10,12,-1,-1,-1,-1,-1,-1],"split_conditions":[-1.4238548E0,3.5334613E-2,-3.312097E-1,9.917385E1,-2.6874457E-2,3.903377E1,7.096382E-2,-7.79086E-2,-5.070081E-2,3.9512582E-2,-2.4736067E-2,3.990325E-2,7.739603E-2],"split_indices":[3,5,3,0,0,0,5,0,0,0,0,0,0],"split_type":[0,0,0,0,0,0,0,0,0,0,0,0,0],"sum_hessian":[1.6351651E2,6.087039E1,1.0264612E2,5.314395E1,7.7264404E0,5.1390358E1,5.125576E1,2.983284E1,2.3311113E1,2.6491886E1,2.4898472E1,2.6265606E1,2.4990154E1],"tree_param":{"num_deleted":"0","num_feature":"8","num_nodes":"13","size_leaf_vector":"1"}},{"base_weights":[-9.5065586E-2,-9.907632E-1,8.5627955E-1,-1.3898323E0,-1.4904268E-1,1.2659062E0,3.3971083E-1,-7.278367E-2,-3.220415E-2,-6.695645E-2,1.30041195E-2,7.309904E-2,3.319352E-2,-6.9319905E-4,6.344905E-2],"categories":[],"categories_nodes":[],"categories_segments":[],"categories_sizes":[],"default_left":[0,0,0,0,0,0,0,0,0,0,0,0,0,0,0],"id":8,"left_children":[1,3,5,7,9,11,13,-1,-1,-1,-1,-1,-1,-1,-1],"loss_changes":[1.2714779E2,2.5592178E1,1.4892532E1,1.6148224E0,1.2921205E1,3.7535706E0,1.09893E1,0E0,0E0,0E0,0E0,0E0,0E0,0E0,0E0],"parents":[2147483647,0,0,1,1,2,2,3,3,4,4,5,5,6,6],"right_children":[2,4,6,8,10,12,14,-1,-1,-1,-1,-1,-1,-1,-1],"split_conditions":[-6.512652E-1,3E0,-2.2604096E0,1.4073524E2,-3.3375921E0,4.475616E1,2.11E2,-7.278367E-2,-3.220415E-2,-6.695645E-2,1.30041195E-2,7.309904E-2,3.319352E-2,-6.9319905E-4,6.344905E-2],"split_indices":[3,7,2,0,3,0,1,0,0,0,0,0,0,0,0],"split_type":[0,0,0,0,0,0,0,0,0,0,0,0,0,0,0],"sum_hessian":[1.472183E2,7.58055E1,7.14128E1,5.09828E1,2.4822699E1,3.9020145E1,3.2392654E1,4.5972042E1,5.010758E0,5.768834E0,1.9053865E1,2.8356453E1,1.0663692E1,2.417824E1,8.2144165E0],"tree_param":{"num_deleted":"0","num_feature":"8","num_nodes":"15","size_leaf_vector":"1"}},{"base_weights":[-9.84084E-2,-1.3213974E0,5.499716E-1,-7.2789505E-2,-8.979178E-1,1.0703075E0,3.2917093E-2,-7.0670106E-2,-3.3923772E-3,6.099837E-2,7.3839775E-3,-1.430717E-2,6.3533686E-2],"categories":[],"categories_nodes":[],"categories_segments":[],"categories_sizes":[],"default_left":[0,0,0,0,0,0,0,0,0,0,0,0,0],"id":9,"left_children":[1,3,5,-1,7,9,11,-1,-1,-1,-1,-1,-1],"loss_changes":[1.1638964E2,1.5857544E0,2.5801065E1,0E0,6.26033E0,6.424473E0,1.979322E1,0E0,0E0,0E0,0E0,0E0,0E0],"parents":[2147483647,0,0,1,1,2,2,4,4,5,5,6,6],"right_children":[2,4,6,-1,8,10,12,-1,-1,-1,-1,-1,-1],"split_conditions":[-1.4238548E0,3E0,-2.0789838E0,-7.2789505E-2,9.40879E1,6.697259E1,-4.235273E-1,-7.0670106E-2,-3.3923772E-3,6.099837E-2,7.3839775E-3,-1.430717E-2,6.3533686E-2],"split_indices":[3,7,2,0,0,0,2,0,0,0,0,0,0],"split_type":[0,0,0,0,0,0,0,0,0,0,0,0,0],"sum_hessian":[1.4486194E2,4.9831196E1,9.503073E1,3.597632E1,1.385488E1,4.683176E1,4.8198975E1,8.113526E0,5.7413535E0,4.0018124E1,6.813634E0,3.8932137E1,9.26684E0],"tree_param":{"num_deleted":"0","num_feature":"8","num_nodes":"13","size_leaf_vector":"1"}},{"base_weights":[-4.912057E-2,-1.0677031E0,5.3121156E-1,-7.065647E-2,-6.3022465E-1,2.4502312E-1,1.2660229E0,-6.723106E-2,-1.204448E-2,3.574205E-2,-1.3188267E-2,7.2844505E-2,3.855207E-2],"categories":[],"categories_nodes":[],"categories_segments":[],"categories_sizes":[],"default_left":[0,0,0,0,0,0,0,0,0,0,0,0,0],"id":10,"left_children":[1,3,5,-1,7,9,11,-1,-1,-1,-1,-1,-1],"loss_changes":[8.7550575E1,7.23061E0,1.9543669E1,0E0,6.7731695E0,1.6726751E1,1.3541412E0,0E0,0E0,0E0,0E0,0E0,0E0],"parents":[2147483647,0,0,1,1,2,2,4,4,5,5,6,6],"right_children":[2,4,6,-1,8,10,12,-1,-1,-1,-1,-1,-1],"split_conditions":[-1.4238548E0,-2.9689157E0,-1.4403777E-1,-7.065647E-2,6.467607E1,3.976355E1,-3.044188E0,-6.723106E-2,-1.204448E-2,3.574205E-2,-1.3188267E-2,7.2844505E-2,3.855207E-2],"split_indices":[3,3,3,0,0,0,2,0,0,0,0,0,0],"split_type":[0,0,0,0,0,0,0,0,0,0,0,0,0],"sum_hessian":[1.4615111E2,5.274128E1,9.340982E1,2.8225048E1,2.451623E1,6.818653E1,2.5223291E1,7.7824554E0,1.6733774E1,3.524039E1,3.294614E1,1.6801308E1,8.421983E0],"tree_param":{"num_deleted":"0","num_feature":"8","num_nodes":"13","size_leaf_vector":"1"}},{"base_weights":[9.803384E-2,-1.1177442E0,7.2366476E-1,-7.161016E-2,-8.6245626E-1,4.2074722E-1,1.3658242E0,-6.2113892E-2,-1.5789276E-2,3.6580976E-2,5.455611E-3,3.454262E-2,7.470576E-2],"categories":[],"categories_nodes":[],"categories_segments":[],"categories_sizes":[],"default_left":[0,0,0,0,0,0,0,0,0,0,0,0,0],"id":11,"left_children":[1,3,5,-1,7,9,11,-1,-1,-1,-1,-1,-1],"loss_changes":[1.230396E2,3.1793213E0,2.0181965E1,0E0,6.431654E0,7.084326E0,1.8908386E0,0E0,0E0,0E0,0E0,0E0,0E0],"parents":[2147483647,0,0,1,1,2,2,4,4,5,5,6,6],"right_children":[2,4,6,-1,8,10,12,-1,-1,-1,-1,-1,-1],"split_conditions":[-1.4238548E0,-3.3375921E0,-1.4403777E-1,-7.161016E-2,8.9743256E1,3.976355E1,3E0,-6.2113892E-2,-1.5789276E-2,3.6580976E-2,5.455611E-3,3.454262E-2,7.470576E-2],"split_indices":[3,3,3,0,0,0,7,0,0,0,0,0,0],"split_type":[0,0,0,0,0,0,0,0,0,0,0,0,0],"sum_hessian":[1.5969705E2,5.3990887E1,1.0570616E2,2.212615E1,3.1864735E1,7.294974E1,3.2756424E1,1.8050781E1,1.3813953E1,3.5844894E1,3.7104843E1,6.2513695E0,2.6505056E1],"tree_param":{"num_deleted":"0","num_feature":"8","num_nodes":"13","size_leaf_vector":"1"}},{"base_weights":[-1.4177576E-3,-1.1111977E0,6.1779827E-1,-5.3687996E-1,-1.2965605E0,8.9647573E-1,-1.8618824E-1,-6.390041E-2,1.1610815E-2,-6.908957E-2,-3.023429E-2,2.0205688E-3,5.5494577E-2,-3.9434385E-2,3.8092677E-2],"categories":[],"categories_nodes":[],"categories_segments":[],"categories_sizes":[],"default_left":[0,0,0,0,0,0,0,0,0,0,0,0,0,0,0],"id":12,"left_children":[1,3,5,7,9,11,13,-1,-1,-1,-1,-1,-1,-1,-1],"loss_changes":[1.0286923E2,5.0111465E0,2.169505E1,8.725788E0,1.512764E0,1.302256E1,1.5200772E1,0E0,0E0,0E0,0E0,0E0,0E0,0E0,0E0],"parents":[2147483647,0,0,1,1,2,2,3,3,4,4,5,5,6,6],"right_children":[2,4,6,8,10,12,14,-1,-1,-1,-1,-1,-1,-1,-1],"split_conditions":[-1.4238548E0,-1.3927875E-1,6.85338E1,2E0,3.1758904E-2,-5.5484986E-1,-6.707196E-1,-6.390041E-2,1.1610815E-2,-6.908957E-2,-3.023429E-2,2.0205688E-3,5.5494577E-2,-3.9434385E-2,3.8092677E-2],"split_indices":[3,2,0,7,5,3,2,0,0,0,0,0,0,0,0],"split_type":[0,0,0,0,0,0,0,0,0,0,0,0,0,0,0],"sum_hessian":[1.4769572E2,5.2610638E1,9.508508E1,1.378777E1,3.8822865E1,7.052478E1,2.4560305E1,6.684576E0,7.103194E0,3.3677074E1,5.14579E0,1.4310623E1,5.6214153E1,1.511959E1,9.440714E0],"tree_param":{"num_deleted":"0","num_feature":"8","num_nodes":"15","size_leaf_vector":"1"}},{"base_weights":[-2.9350923E-2,-1.0998658E0,5.771008E-1,-6.875742E-2,-3.8144487E-1,6.876423E-1,-4.4362243E-2,-3.7954163E-2,1.2788169E-5,1.9269893E-2,5.3714078E-2],"categories":[],"categories_nodes":[],"categories_segments":[],"categories_sizes":[],"default_left":[0,0,0,0,0,0,0,0,0,0,0],"id":13,"left_children":[1,3,5,-1,7,9,-1,-1,-1,-1,-1],"loss_changes":[9.6629105E1,1.0118668E1,1.5995228E1,0E0,2.3486671E0,9.97921E0,0E0,0E0,0E0,0E0,0E0],"parents":[2147483647,0,0,1,1,2,2,4,4,5,5],"right_children":[2,4,6,-1,8,10,-1,-1,-1,-1,-1],"split_conditions":[-1.3286467E0,3E0,1.1738991E2,-6.875742E-2,-2.716434E0,4E0,-4.4362243E-2,-3.7954163E-2,1.2788169E-5,1.9269893E-2,5.3714078E-2],"split_indices":[3,7,0,0,3,7,0,0,0,0,0],"split_type":[0,0,0,0,0,0,0,0,0,0,0],"sum_hessian":[1.4686208E2,5.281641E1,9.404567E1,3.752395E1,1.5292458E1,8.793778E1,6.1078916E0,7.190146E0,8.102312E0,5.047621E1,3.7461567E1],"tree_param":{"num_deleted":"0","num_feature":"8","num_nodes":"11","size_leaf_vector":"1"}},{"base_weights":[-5.6677643E-2,-7.9066336E-1,7.257827E-1,-9.946279E-1,1.2454714E-1,3.8921577E-1,6.4723484E-2,-6.200396E-2,-1.0364231E-2,-3.9980114E-2,3.63326E-2,4.6226036E-2,-2.0848174E-2],"categories":[],"categories_nodes":[],"categories_segments":[],"categories_sizes":[],"default_left":[0,0,0,0,0,0,0,0,0,0,0,0,0],"id":14,"left_children":[1,3,5,7,9,11,-1,-1,-1,-1,-1,-1,-1],"loss_changes":[8.253479E1,1.395895E1,1.2816906E1,1.1477196E1,8.591373E0,1.98703E1,0E0,0E0,0E0,0E0,0E0,0E0,0E0],"parents":[2147483647,0,0,1,1,2,2,3,3,4,4,5,5],"right_children":[2,4,6,8,10,12,-1,-1,-1,-1,-1,-1,-1],"split_conditions":[-6.512652E-1,5E0,2.11E2,1.984758E-2,5.729868E1,-2.0789838E0,6.4723484E-2,-6.200396E-2,-1.0364231E-2,-3.9980114E-2,3.63326E-2,4.6226036E-2,-2.0848174E-2],"split_indices":[3,7,1,5,0,2,0,0,0,0,0,0,0],"split_type":[0,0,0,0,0,0,0,0,0,0,0,0,0],"sum_hessian":[1.4171085E2,7.3114975E1,6.859588E1,5.9719147E1,1.3395828E1,4.415058E1,2.4445295E1,4.5088085E1,1.463106E1,5.155233E0,8.240596E0,2.6444546E1,1.7706034E1],"tree_param":{"num_deleted":"0","num_feature":"8","num_nodes":"13","size_leaf_vector":"1"}},{"base_weights":[-5.108602E-2,-9.3035084E-1,6.668983E-1,-1.1667624E0,8.4064506E-2,9.109019E-1,-2.4293801E-1,-6.995192E-2,-4.100845E-2,3.149861E-2,-2.9857172E-2,5.7832427E-2,2.910005E-2,-5.3825486E-2,7.211179E-2],"categories":[],"categories_nodes":[],"categories_segments":[],"categories_sizes":[],"default_left":[0,0,0,0,0,0,0,0,0,0,0,0,0,0,0],"id":15,"left_children":[1,3,5,7,9,11,13,-1,-1,-1,-1,-1,-1,-1,-1],"loss_changes":[8.940285E1,1.535891E1,1.7537548E1,3.0126343E0,5.1957083E0,4.31509E0,2.5831903E1,0E0,0E0,0E0,0E0,0E0,0E0,0E0,0E0],"parents":[2147483647,0,0,1,1,2,2,3,3,4,4,5,5,6,6],"right_children":[2,4,6,8,10,12,14,-1,-1,-1,-1,-1,-1,-1,-1],"split_conditions":[-8.6670405E-1,3.457711E-2,6.700251E1,9.917385E1,-1.7087905E-1,-2.2604096E0,5E0,-6.995192E-2,-4.100845E-2,3.149861E-2,-2.9857172E-2,5.7832427E-2,2.910005E-2,-5.3825486E-2,7.211179E-2],"split_indices":[3,5,0,0,2,2,7,0,0,0,0,0,0,0,0],"split_type":[0,0,0,0,0,0,0,0,0,0,0,0,0,0,0],"sum_hessian":[1.3963461E2,6.2634624E1,7.699999E1,5.0674618E1,1.1960006E1,6.071581E1,1.6284185E1,2.8522917E1,2.2151701E1,6.681103E0,5.2789025E0,3.33104E1,2.740541E1,1.1136633E1,5.1475515E0],"tree_param":{"num_deleted":"0","num_feature":"8","num_nodes":"15","size_leaf_vector":"1"}},{"base_weights":[-3.4823928E-2,-1.0520598E0,5.056941E-1,-1.2394279E0,-5.64726E-1,2.6070067E-1,5.6735158E-2,-2.777113E-2,-6.710197E-2,-6.408533E-2,4.2637596E-3,-2.5685564E-2,2.1366537E-2],"categories":[],"categories_nodes":[],"categories_segments":[],"categories_sizes":[],"default_left":[0,0,0,0,0,0,0,0,0,0,0,0,0],"id":16,"left_children":[1,3,5,7,9,11,-1,-1,-1,-1,-1,-1,-1],"loss_changes":[7.858392E1,3.8273506E0,1.4093439E1,1.7093887E0,7.3822513E0,9.058605E0,0E0,0E0,0E0,0E0,0E0,0E0,0E0],"parents":[2147483647,0,0,1,1,2,2,3,3,4,4,5,5],"right_children":[2,4,6,8,10,12,-1,-1,-1,-1,-1,-1,-1],"split_conditions":[-1.4238548E0,3E0,-1.4403777E-1,-2.191319E-1,7.77454E1,1E0,5.6735158E-2,-2.777113E-2,-6.710197E-2,-6.408533E-2,4.2637596E-3,-2.5685564E-2,2.1366537E-2],"split_indices":[3,7,3,2,0,7,0,0,0,0,0,0,0],"split_type":[0,0,0,0,0,0,0,0,0,0,0,0,0],"sum_hessian":[1.409553E2,4.8581066E1,9.2374245E1,3.397515E1,1.4605915E1,6.74986E1,2.4875643E1,5.2684765E0,2.8706675E1,6.48301E0,8.122906E0,1.1583133E1,5.5915466E1],"tree_param":{"num_deleted":"0","num_feature":"8","num_nodes":"13","size_leaf_vector":"1"}},{"base_weights":[5.438479E-2,-8.5318774E-1,7.34354E-1,-6.227733E-2,-4.397787E-1,8.822108E-1,-3.2435647E-1,-3.589065E-2,2.4965059E-2,3.2489594E-2,6.224811E-2,-7.525013E-2,4.7128122E-2],"categories":[],"categories_nodes":[],"categories_segments":[],"categories_sizes":[],"default_left":[0,0,0,0,0,0,0,0,0,0,0,0,0],"id":17,"left_children":[1,3,5,-1,7,9,11,-1,-1,-1,-1,-1,-1],"loss_changes":[9.518912E1,1.0173019E1,1.4082993E1,0E0,9.165064E0,5.7339935E0,1.8667706E1,0E0,0E0,0E0,0E0,0E0,0E0],"parents":[2147483647,0,0,1,1,2,2,4,4,5,5,6,6],"right_children":[2,4,6,-1,8,10,12,-1,-1,-1,-1,-1,-1],"split_conditions":[-9.440444E-1,-2.6592202E0,9.4207184E1,-6.227733E-2,5E0,-1.5317272E-1,5.8303304E-2,-3.589065E-2,2.4965059E-2,3.2489594E-2,6.224811E-2,-7.525013E-2,4.7128122E-2],"split_indices":[3,3,0,0,7,3,5,0,0,0,0,0,0],"split_type":[0,0,0,0,0,0,0,0,0,0,0,0,0],"sum_hessian":[1.5223174E2,6.509415E1,8.713759E1,3.236462E1,3.2729527E1,7.6605736E1,1.0531852E1,2.5434677E1,7.294849E0,4.8391827E1,2.8213913E1,5.354268E0,5.1775837E0],"tree_param":{"num_deleted":"0","num_feature":"8","num_nodes":"13","size_leaf_vector":"1"}},{"base_weights":[-1.1000516E-1,-8.358264E-1,6.016508E-1,-1.0323794E0,1.12696886E-1,-3.8487963E-2,8.95505E-1,-5.7085842E-2,1.450972E-3,-3.5989612E-2,5.4406464E-2,3.6512222E-2,-8.1477806E-2,3.2868598E-2,5.7379395E-2],"categories":[],"categories_nodes":[],"categories_segments":[],"categories_sizes":[],"default_left":[0,0,0,0,0,0,0,0,0,0,0,0,0,0,0],"id":18,"left_children":[1,3,5,7,9,11,13,-1,-1,-1,-1,-1,-1,-1,-1],"loss_changes":[6.9145035E1,1.2459953E1,1.27657795E1,6.409218E0,1.0743939E1,2.840738E1,2.0326653E0,0E0,0E0,0E0,0E0,0E0,0E0,0E0,0E0],"parents":[2147483647,0,0,1,1,2,2,3,3,4,4,5,5,6,6],"right_children":[2,4,6,8,10,12,14,-1,-1,-1,-1,-1,-1,-1,-1],"split_conditions":[-7.506456E-1,5E0,2E0,2.11E2,-1.3286467E0,3.976355E1,-1.4403777E-1,-5.7085842E-2,1.450972E-3,-3.5989612E-2,5.4406464E-2,3.6512222E-2,-8.1477806E-2,3.2868598E-2,5.7379395E-2],"split_indices":[3,7,7,1,3,0,3,0,0,0,0,0,0,0,0],"split_type":[0,0,0,0,0,0,0,0,0,0,0,0,0,0,0],"sum_hessian":[1.3188966E2,6.520861E1,6.668105E1,5.3942284E1,1.1266329E1,2.1252705E1,4.542835E1,4.8835903E1,5.106383E0,6.2199507E0,5.046378E0,1.4694177E1,6.5585284E0,2.5215746E1,2.02126E1],"tree_param":{"num_deleted":"0","num_feature":"8","num_nodes":"15","size_leaf_vector":"1"}},{"base_weights":[7.6728806E-2,-8.615429E-1,5.6447464E-1,-1.1376779E0,-2.536627E-1,2.2349401E-1,9.9926287E-1,-6.2316585E-2,-2.3296954E-2,-5.867625E-2,1.5463225E-2,3.089065E-2,-2.7216876E-2,6.092844E-2,3.4160476E-2],"categories":[],"categories_nodes":[],"categories_segments":[],"categories_sizes":[],"default_left":[0,0,0,0,0,0,0,0,0,0,0,0,0,0,0],"id":19,"left_children":[1,3,5,7,9,11,13,-1,-1,-1,-1,-1,-1,-1,-1],"loss_changes":[6.2193832E1,7.5193367E0,1.301931E1,1.732872E0,8.553054E0,1.5883743E1,1.8687859E0,0E0,0E0,0E0,0E0,0E0,0E0,0E0,0E0],"parents":[2147483647,0,0,1,1,2,2,3,3,4,4,5,5,6,6],"right_children":[2,4,6,8,10,12,14,-1,-1,-1,-1,-1,-1,-1,-1],"split_conditions":[-1.4238548E0,3E0,4E0,1.4677023E-2,6.4390625E1,-1.3060288E0,-2.3979108E0,-6.2316585E-2,-2.3296954E-2,-5.867625E-2,1.5463225E-2,3.089065E-2,-2.7216876E-2,6.092844E-2,3.4160476E-2],"split_indices":[3,7,7,5,0,2,2,0,0,0,0,0,0,0,0],"split_type":[0,0,0,0,0,0,0,0,0,0,0,0,0,0,0],"sum_hessian":[1.338391E2,4.5515335E1,8.832376E1,3.0698648E1,1.4816687E1,5.0350582E1,3.797318E1,2.5688202E1,5.010448E0,5.213227E0,9.603459E0,3.339566E1,1.6954924E1,2.0731937E1,1.7241241E1],"tree_param":{"num_deleted":"0","num_feature":"8","num_nodes":"15","size_leaf_vector":"1"}},{"base_weights":[-4.219398E-2,-7.055159E-1,6.26809E-1,-9.700404E-1,8.1751324E-2,7.590153E-1,-2.4025735E-2,-5.6245368E-2,-7.7674324E-3,2.2591012E-2,-3.35277E-2,4.9527068E-2,2.6367402E-2],"categories":[],"categories_nodes":[],"categories_segments":[],"categories_sizes":[],"default_left":[0,0,0,0,0,0,0,0,0,0,0,0,0],"id":20,"left_children":[1,3,5,7,9,11,-1,-1,-1,-1,-1,-1,-1],"loss_changes":[5.9207657E1,1.4024902E1,1.0094086E1,6.1590805E0,5.248539E0,2.6829262E0,0E0,0E0,0E0,0E0,0E0,0E0,0E0],"parents":[2147483647,0,0,1,1,2,2,3,3,4,4,5,5],"right_children":[2,4,6,8,10,12,-1,-1,-1,-1,-1,-1,-1],"split_conditions":[-7.506456E-1,1.984758E-2,8.85178E1,5E0,9.4207184E1,-2.3961022E0,-2.4025735E-2,-5.6245368E-2,-7.7674324E-3,2.2591012E-2,-3.35277E-2,4.9527068E-2,2.6367402E-2],"split_indices":[3,5,0,7,0,2,0,0,0,0,0,0,0],"split_type":[0,0,0,0,0,0,0,0,0,0,0,0,0],"sum_hessian":[1.3142485E2,6.596522E1,6.545963E1,4.9201263E1,1.6763952E1,5.8758816E1,6.7008214E0,4.1022427E1,8.178839E0,1.150427E1,5.259683E0,2.7750008E1,3.1008806E1],"tree_param":{"num_deleted":"0","num_feature":"8","num_nodes":"13","size_leaf_vector":"1"}},{"base_weights":[2.6120739E-2,4.8292384E-1,-9.489703E-1,7.5560987E-1,-2.3075426E-1,-1.1350884E0,-4.878513E-1,-9.382506E-3,4.377493E-2,-5.9683617E-2,4.8251506E-2,-6.151093E-2,-2.706785E-2,7.3909387E-3,-4.3341193E-2],"categories":[],"categories_nodes":[],"categories_segments":[],"categories_sizes":[],"default_left":[0,0,0,0,0,0,0,0,0,0,0,0,0,0,0],"id":21,"left_children":[1,3,5,7,9,11,13,-1,-1,-1,-1,-1,-1,-1,-1],"loss_changes":[6.285021E1,1.8866571E1,3.3102684E0,8.049797E0,3.2608772E1,1.1031799E0,3.6695209E0,0E0,0E0,0E0,0E0,0E0,0E0,0E0,0E0],"parents":[2147483647,0,0,1,1,2,2,3,3,4,4,5,5,6,6],"right_children":[2,4,6,8,10,12,14,-1,-1,-1,-1,-1,-1,-1,-1],"split_conditions":[-3.1444705E-1,6.700251E1,3E0,-7.239233E-1,-6.707196E-1,5.4080397E-2,4E0,-9.382506E-3,4.377493E-2,-5.9683617E-2,4.8251506E-2,-6.151093E-2,-2.706785E-2,7.3909387E-3,-4.3341193E-2],"split_indices":[2,0,7,3,2,5,7,0,0,0,0,0,0,0,0],"split_type":[0,0,0,0,0,0,0,0,0,0,0,0,0,0,0],"sum_hessian":[1.3907292E2,9.504957E1,4.4023346E1,6.873006E1,2.6319515E1,3.0322784E1,1.37005625E1,7.686782E0,6.1043274E1,1.4580323E1,1.1739192E1,2.5211306E1,5.111477E0,5.345026E0,8.355536E0],"tree_param":{"num_deleted":"0","num_feature":"8","num_nodes":"15","size_leaf_vector":"1"}},{"base_weights":[3.216801E-2,4.6016085E-1,-9.602988E-1,2.3678349E-1,1.1520141E0,-1.12067E0,-4.005879E-3,2.678146E-2,-3.9122436E-2,6.749865E-2,2.065717E-2,-6.083673E-2,-2.5994709E-2],"categories":[],"categories_nodes":[],"categories_segments":[],"categories_sizes":[],"default_left":[0,0,0,0,0,0,0,0,0,0,0,0,0],"id":22,"left_children":[1,3,5,7,9,11,-1,-1,-1,-1,-1,-1,-1],"loss_changes":[5.6269012E1,1.40233555E1,5.5457726E0,2.2101978E1,2.7067337E0,1.3120308E0,0E0,0E0,0E0,0E0,0E0,0E0,0E0],"parents":[2147483647,0,0,1,1,2,2,3,3,4,4,5,5],"right_children":[2,4,6,8,10,12,-1,-1,-1,-1,-1,-1,-1],"split_conditions":[-2.7289665E-1,1.6210027E-1,3.4835976E-2,7.3550934E1,1.0289404E0,5E0,-4.005879E-3,2.678146E-2,-3.9122436E-2,6.749865E-2,2.065717E-2,-6.083673E-2,-2.5994709E-2],"split_indices":[2,5,5,0,5,7,0,0,0,0,0,0,0],"split_type":[0,0,0,0,0,0,0,0,0,0,0,0,0],"sum_hessian":[1.3042947E2,9.150504E1,3.8924423E1,7.0186356E1,2.131869E1,3.269423E1,6.2301955E0,5.4640015E1,1.5546341E1,1.6161587E1,5.1571016E0,2.730316E1,5.3910685E0],"tree_param":{"num_deleted":"0","num_feature":"8","num_nodes":"13","size_leaf_vector":"1"}},{"base_weights":[6.489719E-2,4.7777012E-1,-8.472505E-1,9.964992E-1,1.4956565E-1,-1.0681691E0,-3.0652595E-1,2.6268845E-2,5.6897618E-2,-1.2211963E-2,3.7841823E-2,-5.890888E-2,-2.342086E-2,-3.4117136E-2,1.2210895E-2],"categories":[],"categories_nodes":[],"categories_segments":[],"categories_sizes":[],"default_left":[0,0,0,0,0,0,0,0,0,0,0,0,0,0,0],"id":23,"left_children":[1,3,5,7,9,11,13,-1,-1,-1,-1,-1,-1,-1,-1],"loss_changes":[4.8679993E1,1.4983282E1,4.4870358E0,1.6857948E0,1.3485162E1,1.3093948E0,2.8765302E0,0E0,0E0,0E0,0E0,0E0,0E0,0E0,0E0],"parents":[2147483647,0,0,1,1,2,2,3,3,4,4,5,5,6,6],"right_children":[2,4,6,8,10,12,14,-1,-1,-1,-1,-1,-1,-1,-1],"split_conditions":[-2.7289665E-1,-2.3961022E0,3E0,3E0,5.3827288E-3,2.7012808E-2,8.597421E1,2.6268845E-2,5.6897618E-2,-1.2211963E-2,3.7841823E-2,-5.890888E-2,-2.342086E-2,-3.4117136E-2,1.2210895E-2],"split_indices":[2,2,7,7,5,5,0,0,0,0,0,0,0,0,0],"split_type":[0,0,0,0,0,0,0,0,0,0,0,0,0,0,0],"sum_hessian":[1.2718656E2,8.788339E1,3.930317E1,3.3267574E1,5.4615818E1,2.7210571E1,1.2092599E1,8.770563E0,2.4497013E1,3.349359E1,2.1122225E1,2.2178143E1,5.0324287E0,7.045762E0,5.046837E0],"tree_param":{"num_deleted":"0","num_feature":"8","num_nodes":"15","size_leaf_vector":"1"}},{"base_weights":[-3.2147575E-2,3.7533507E-1,-9.3275887E-1,8.427959E-2,5.208227E-2,-6.0031798E-2,-3.6193097E-1,-6.2370496E-3,3.097334E-2,-5.6681365E-2,1.0324541E-2],"categories":[],"categories_nodes":[],"categories_segments":[],"categories_sizes":[],"default_left":[0,0,0,0,0,0,0,0,0,0,0],"id":24,"left_children":[1,3,5,7,-1,-1,9,-1,-1,-1,-1],"loss_changes":[4.621255E1,1.673686E1,5.562134E0,6.9533906E0,0E0,0E0,6.3563423E0,0E0,0E0,0E0,0E0],"parents":[2147483647,0,0,1,1,2,2,3,3,6,6],"right_children":[2,4,6,8,-1,-1,10,-1,-1,-1,-1],"split_conditions":[-2.7289665E-1,-1.4403777E-1,3E0,-5.600798E-1,5.208227E-2,-6.0031798E-2,7.858023E1,-6.2370496E-3,3.097334E-2,-5.6681365E-2,1.0324541E-2],"split_indices":[2,3,7,2,0,0,0,0,0,0,0],"split_type":[0,0,0,0,0,0,0,0,0,0,0],"sum_hessian":[1.2397146E2,8.575483E1,3.821663E1,6.0467922E1,2.5286907E1,2.525955E1,1.2957079E1,4.403623E1,1.6431694E1,5.0740905E0,7.8829885E0],"tree_param":{"num_deleted":"0","num_feature":"8","num_nodes":"11","size_leaf_vector":"1"}},{"base_weights":[9.9537514E-2,-6.582812E-1,7.2670823E-1,-7.738715E-1,2.3518605E-2,4.8312622E-1,6.2320124E-2,-5.9367508E-2,-2.8000602E-2,5.8310557E-2,8.7329345E-3],"categories":[],"categories_nodes":[],"categories_segments":[],"categories_sizes":[],"default_left":[0,0,0,0,0,0,0,0,0,0,0],"id":25,"left_children":[1,3,5,7,-1,9,-1,-1,-1,-1,-1],"loss_changes":[6.315588E1,8.223255E0,8.592243E0,4.2005997E0,0E0,1.0560713E1,0E0,0E0,0E0,0E0,0E0],"parents":[2147483647,0,0,1,1,2,2,3,3,5,5],"right_children":[2,4,6,8,-1,10,-1,-1,-1,-1,-1],"split_conditions":[-6.8706656E-1,1.9973688E-1,2.11E2,-3.3375921E0,2.3518605E-2,-3.0575285E0,6.2320124E-2,-5.9367508E-2,-2.8000602E-2,5.8310557E-2,8.7329345E-3],"split_indices":[3,5,1,3,0,2,0,0,0,0,0],"split_type":[0,0,0,0,0,0,0,0,0,0,0],"sum_hessian":[1.3087442E2,5.9241962E1,7.1632454E1,5.402352E1,5.2184434E0,5.0086445E1,2.154601E1,1.6864828E1,3.715869E1,1.4716619E1,3.5369827E1],"tree_param":{"num_deleted":"0","num_feature":"8","num_nodes":"11","size_leaf_vector":"1"}},{"base_weights":[4.4448555E-2,-5.0662583E-1,5.21779E-1,-8.641619E-1,1.0900547E-1,1.086901E-1,9.7706324E-1,-5.453364E-2,-6.3580647E-3,2.316554E-2,-2.9868767E-2,2.5923029E-2,-1.8482966E-2,1.784952E-2,5.5749983E-2],"categories":[],"categories_nodes":[],"categories_segments":[],"categories_sizes":[],"default_left":[0,0,0,0,0,0,0,0,0,0,0,0,0,0,0],"id":26,"left_children":[1,3,5,7,9,11,13,-1,-1,-1,-1,-1,-1,-1,-1],"loss_changes":[3.2414192E1,1.2692501E1,1.2303928E1,5.92453E0,5.761853E0,7.1934896E0,2.2760296E0,0E0,0E0,0E0,0E0,0E0,0E0,0E0,0E0],"parents":[2147483647,0,0,1,1,2,2,3,3,4,4,5,5,6,6],"right_children":[2,4,6,8,10,12,14,-1,-1,-1,-1,-1,-1,-1,-1],"split_conditions":[-7.506456E-1,3E0,4E0,3.457711E-2,-1.3927875E-1,5.0898716E1,1.5272492E1,-5.453364E-2,-6.3580647E-3,2.316554E-2,-2.9868767E-2,2.5923029E-2,-1.8482966E-2,1.784952E-2,5.5749983E-2],"split_indices":[3,7,7,5,2,0,0,0,0,0,0,0,0,0,0],"split_type":[0,0,0,0,0,0,0,0,0,0,0,0,0,0,0],"sum_hessian":[1.2122202E2,5.6236286E1,6.498574E1,3.5320015E1,2.091627E1,3.4721195E1,3.0264542E1,2.6649603E1,8.670413E0,1.4158685E1,6.7575846E0,1.8655985E1,1.606521E1,6.1602283E0,2.4104313E1],"tree_param":{"num_deleted":"0","num_feature":"8","num_nodes":"15","size_leaf_vector":"1"}},{"base_weights":[-6.6844234E-3,-6.46567E-1,6.268099E-1,-8.6858064E-1,2.1927404E-1,3.9504704E-1,9.740947E-1,-5.134157E-2,4.314806E-3,-1.2308771E-2,4.0560458E-2,3.0454502E-2,-1.9665329E-2,3.672284E-2,7.390805E-2],"categories":[],"categories_nodes":[],"categories_segments":[],"categories_sizes":[],"default_left":[0,0,0,0,0,0,0,0,0,0,0,0,0,0,0],"id":27,"left_children":[1,3,5,7,9,11,13,-1,-1,-1,-1,-1,-1,-1,-1],"loss_changes":[5.0659065E1,1.2140839E1,4.6702213E0,7.5960197E0,3.9152627E0,6.8794823E0,1.8684025E0,0E0,0E0,0E0,0E0,0E0,0E0,0E0,0E0],"parents":[2147483647,0,0,1,1,2,2,3,3,4,4,5,5,6,6],"right_children":[2,4,6,8,10,12,14,-1,-1,-1,-1,-1,-1,-1,-1],"split_conditions":[-6.3517785E-1,5E0,6.3857354E-2,1.4849381E-1,-1.3286467E0,6.697259E1,6.93715E1,-5.134157E-2,4.314806E-3,-1.2308771E-2,4.0560458E-2,3.0454502E-2,-1.9665329E-2,3.672284E-2,7.390805E-2],"split_indices":[3,7,5,5,3,0,0,0,0,0,0,0,0,0,0],"split_type":[0,0,0,0,0,0,0,0,0,0,0,0,0,0,0],"sum_hessian":[1.2297263E2,6.116759E1,6.1805046E1,4.868175E1,1.2485839E1,3.8349663E1,2.3455381E1,4.1696136E1,6.9856133E0,7.3167005E0,5.1691384E0,3.0339647E1,8.010016E0,1.7562887E1,5.892495E0],"tree_param":{"num_deleted":"0","num_feature":"8","num_nodes":"15","size_leaf_vector":"1"}},{"base_weights":[4.8501145E-2,-5.7250388E-2,2.2208957E-1,-1.7689878E-1,6.1165E-1,-1.9352093E-2,3.1753484E-2,2.3173453E-2,5.1461726E-2],"categories":[],"categories_nodes":[],"categories_segments":[],"categories_sizes":[],"default_left":[0,0,0,0,0,0,0,0,0],"id":28,"left_children":[1,-1,3,5,7,-1,-1,-1,-1],"loss_changes":[2.635386E1,0E0,1.7332552E1,9.719474E0,3.0064373E0,0E0,0E0,0E0,0E0],"parents":[2147483647,0,0,2,2,3,3,4,4],"right_children":[2,-1,4,6,8,-1,-1,-1,-1],"split_conditions":[-3.3375921E0,-5.7250388E-2,3E0,2.11E2,-1.4403777E-1,-1.9352093E-2,3.1753484E-2,2.3173453E-2,5.1461726E-2],"split_indices":[3,0,7,1,3,0,0,0,0],"split_type":[0,0,0,0,0,0,0,0,0],"sum_hessian":[1.2497572E2,1.5158336E1,1.0981739E2,5.452189E1,5.52955E1,4.3728085E1,1.0793804E1,4.237021E1,1.2925291E1],"tree_param":{"num_deleted":"0","num_feature":"8","num_nodes":"9","size_leaf_vector":"1"}},{"base_weights":[-4.2785853E-2,-7.274192E-1,4.5114475E-1,-9.931585E-1,1.7142188E-2,1.775906E-1,9.7305363E-1,-6.262844E-2,-4.0273394E-2,-9.137123E-3,2.2309769E-2,1.5398443E-2,5.8912367E-2],"categories":[],"categories_nodes":[],"categories_segments":[],"categories_sizes":[],"default_left":[0,0,0,0,0,0,0,0,0,0,0,0,0],"id":29,"left_children":[1,3,5,7,-1,9,11,-1,-1,-1,-1,-1,-1],"loss_changes":[4.1209576E1,1.4859264E1,9.941706E0,9.947014E-1,0E0,4.698762E0,2.9315147E0,0E0,0E0,0E0,0E0,0E0,0E0],"parents":[2147483647,0,0,1,1,2,2,3,3,5,5,6,6],"right_children":[2,4,6,8,-1,10,12,-1,-1,-1,-1,-1,-1],"split_conditions":[-8.6670405E-1,3.457711E-2,-1.4403777E-1,7.2375465E1,1.7142188E-2,2E0,3E0,-6.262844E-2,-4.0273394E-2,-9.137123E-3,2.2309769E-2,1.5398443E-2,5.8912367E-2],"split_indices":[3,5,3,0,0,7,7,0,0,0,0,0,0],"split_type":[0,0,0,0,0,0,0,0,0,0,0,0,0],"sum_hessian":[1.1989317E2,5.004855E1,6.984462E1,4.015129E1,9.897262E0,4.6704906E1,2.3139713E1,1.4473558E1,2.5677732E1,2.0083103E1,2.6621803E1,6.04552E0,1.7094193E1],"tree_param":{"num_deleted":"0","num_feature":"8","num_nodes":"13","size_leaf_vector":"1"}},{"base_weights":[-8.9822784E-2,-5.824943E-1,4.065577E-1,-7.221514E-2,-4.1321653E-1,6.074939E-1,-3.0952355E-1,1.9378284E-2,-3.7461106E-2,4.3315426E-2,9.122808E-3,-7.3534116E-2,5.226471E-2],"categories":[],"categories_nodes":[],"categories_segments":[],"categories_sizes":[],"default_left":[0,0,0,0,0,0,0,0,0,0,0,0,0],"id":30,"left_children":[1,3,5,-1,7,9,11,-1,-1,-1,-1,-1,-1],"loss_changes":[2.8650599E1,7.969898E0,8.600293E0,0E0,1.3873531E1,4.9012585E0,2.2732716E1,0E0,0E0,0E0,0E0,0E0,0E0],"parents":[2147483647,0,0,1,1,2,2,4,4,5,5,6,6],"right_children":[2,4,6,-1,8,10,12,-1,-1,-1,-1,-1,-1],"split_conditions":[-6.512652E-1,-7.3212516E-1,-1.4830434E0,-7.221514E-2,-3.0432868E-1,4.475616E1,-9.556422E-1,1.9378284E-2,-3.7461106E-2,4.3315426E-2,9.122808E-3,-7.3534116E-2,5.226471E-2],"split_indices":[3,2,2,0,2,0,2,0,0,0,0,0,0],"split_type":[0,0,0,0,0,0,0,0,0,0,0,0,0],"sum_hessian":[1.1518682E2,5.772232E1,5.74645E1,8.239931E0,4.9482388E1,4.4991337E1,1.2473164E1,1.45803795E1,3.4902008E1,2.7318386E1,1.767295E1,6.670571E0,5.8025928E0],"tree_param":{"num_deleted":"0","num_feature":"8","num_nodes":"13","size_leaf_vector":"1"}},{"base_weights":[-4.5160614E-2,-8.784653E-1,3.1693977E-1,-1.058553E0,5.493184E-3,-2.6536914E-2,7.355432E-1,-5.768293E-2,-2.3950992E-2,2.2132477E-2,-3.095609E-2,2.8872166E-2,6.982299E-2],"categories":[],"categories_nodes":[],"categories_segments":[],"categories_sizes":[],"default_left":[0,0,0,0,0,0,0,0,0,0,0,0,0],"id":31,"left_children":[1,3,5,7,-1,9,11,-1,-1,-1,-1,-1,-1],"loss_changes":[3.7010586E1,6.7266483E0,1.2326377E1,1.1840744E0,0E0,1.3614504E1,3.2283478E0,0E0,0E0,0E0,0E0,0E0,0E0],"parents":[2147483647,0,0,1,1,2,2,3,3,5,5,6,6],"right_children":[2,4,6,8,-1,10,12,-1,-1,-1,-1,-1,-1],"split_conditions":[-1.4238548E0,5E0,1.6185543E-2,3.5334613E-2,5.493184E-3,4.475616E1,-4.235273E-1,-5.768293E-2,-2.3950992E-2,2.2132477E-2,-3.095609E-2,2.8872166E-2,6.982299E-2],"split_indices":[3,7,5,5,0,0,2,0,0,0,0,0,0],"split_type":[0,0,0,0,0,0,0,0,0,0,0,0,0],"sum_hessian":[1.2073451E2,3.6139755E1,8.459476E1,3.0509447E1,5.63031E0,4.698157E1,3.7613186E1,2.5357435E1,5.152011E0,2.6362082E1,2.0619488E1,3.1864483E1,5.748701E0],"tree_param":{"num_deleted":"0","num_feature":"8","num_nodes":"13","size_leaf_vector":"1"}},{"base_weights":[-3.8082704E-3,-7.770801E-1,4.9855033E-1,-9.1012317E-1,-2.1011145E-3,6.287356E-1,-1.7039208E-2,-5.1678278E-2,-6.8849013E-3,4.8599433E-2,2.0196596E-2],"categories":[],"categories_nodes":[],"categories_segments":[],"categories_sizes":[],"default_left":[0,0,0,0,0,0,0,0,0,0,0],"id":32,"left_children":[1,3,5,7,-1,9,-1,-1,-1,-1,-1],"loss_changes":[4.9283947E1,4.847666E0,8.618332E0,3.8867645E0,0E0,4.7724457E0,0E0,0E0,0E0,0E0,0E0],"parents":[2147483647,0,0,1,1,2,2,3,3,5,5],"right_children":[2,4,6,8,-1,10,-1,-1,-1,-1,-1],"split_conditions":[-9.631282E-1,1.4849381E-1,9.4207184E1,5E0,-2.1011145E-3,-2.8436322E0,-1.7039208E-2,-5.1678278E-2,-6.8849013E-3,4.8599433E-2,2.0196596E-2],"split_indices":[3,5,0,7,0,2,0,0,0,0,0],"split_type":[0,0,0,0,0,0,0,0,0,0,0],"sum_hessian":[1.2487285E2,4.8961067E1,7.591178E1,4.1255745E1,7.7053204E0,6.5935715E1,9.976069E0,3.5279587E1,5.976159E0,2.477817E1,4.1157543E1],"tree_param":{"num_deleted":"0","num_feature":"8","num_nodes":"11","size_leaf_vector":"1"}},{"base_weights":[4.442716E-3,-5.5337036E-1,5.141484E-1,-7.175599E-1,6.82341E-2,2.2728594E-1,5.0068766E-2,-1.1622886E-3,-4.6599828E-2,-9.37458E-3,1.792085E-2,3.378397E-2,-1.0723874E-2],"categories":[],"categories_nodes":[],"categories_segments":[],"categories_sizes":[],"default_left":[0,0,0,0,0,0,0,0,0,0,0,0,0],"id":33,"left_children":[1,3,5,7,9,11,-1,-1,-1,-1,-1,-1,-1],"loss_changes":[3.3284214E1,5.7540627E0,8.321421E0,6.574877E0,1.0016997E0,8.027227E0,0E0,0E0,0E0,0E0,0E0,0E0,0E0],"parents":[2147483647,0,0,1,1,2,2,3,3,4,4,5,5],"right_children":[2,4,6,8,10,12,-1,-1,-1,-1,-1,-1,-1],"split_conditions":[-6.512652E-1,3.4835976E-2,-1.4403777E-1,1.3E1,3E0,3.0975464E1,5.0068766E-2,-1.1622886E-3,-4.6599828E-2,-9.37458E-3,1.792085E-2,3.378397E-2,-1.0723874E-2],"split_indices":[3,5,3,1,7,0,0,0,0,0,0,0,0],"split_type":[0,0,0,0,0,0,0,0,0,0,0,0,0],"sum_hessian":[1.15065155E2,5.4898987E1,6.016617E1,4.330588E1,1.1593107E1,3.8792797E1,2.1373373E1,1.0480377E1,3.2825504E1,6.350537E0,5.2425704E0,1.8989151E1,1.9803646E1],"tree_param":{"num_deleted":"0","num_feature":"8","num_nodes":"13","size_leaf_vector":"1"}},{"base_weights":[1.1732797E-2,5.239217E-1,-4.1729474E-1,-1.4464252E-2,6.618054E-1,-6.571642E-1,3.8463598E-1,1.2954359E-2,4.1044615E-2,-4.0398087E-2,-6.1630597E-3,-1.3728916E-2,4.8690405E-2],"categories":[],"categories_nodes":[],"categories_segments":[],"categories_sizes":[],"default_left":[0,0,0,0,0,0,0,0,0,0,0,0,0],"id":34,"left_children":[1,3,5,-1,7,9,11,-1,-1,-1,-1,-1,-1],"loss_changes":[2.4477648E1,5.883607E0,1.1915919E1,0E0,2.587656E0,3.6877556E0,5.934431E0,0E0,0E0,0E0,0E0,0E0,0E0],"parents":[2147483647,0,0,1,1,2,2,4,4,5,5,6,6],"right_children":[2,4,6,-1,8,10,12,-1,-1,-1,-1,-1,-1],"split_conditions":[-1.4830434E0,-5.5484986E-1,5E0,-1.4464252E-2,2E0,3.457711E-2,7.083248E1,1.2954359E-2,4.1044615E-2,-4.0398087E-2,-6.1630597E-3,-1.3728916E-2,4.8690405E-2],"split_indices":[2,3,7,0,7,5,0,0,0,0,0,0,0],"split_type":[0,0,0,0,0,0,0,0,0,0,0,0,0],"sum_hessian":[1.09397156E2,4.976485E1,5.9632305E1,7.0554376E0,4.2709415E1,4.604121E1,1.3591092E1,1.2838407E1,2.9871008E1,3.5500896E1,1.0540314E1,6.666274E0,6.924818E0],"tree_param":{"num_deleted":"0","num_feature":"8","num_nodes":"13","size_leaf_vector":"1"}},{"base_weights":[1.296275E-1,-5.4298945E-2,2.8598538E-1,-1.9014676E-1,5.770745E-1,-2.6342222E-2,4.7910854E-2,2.1359382E-2,4.8381664E-2],"categories":[],"categories_nodes":[],"categories_segments":[],"categories_sizes":[],"default_left":[0,0,0,0,0,0,0,0,0],"id":35,"left_children":[1,-1,3,5,7,-1,-1,-1,-1],"loss_changes":[2.2477734E1,0E0,1.4541345E1,1.6070839E1,3.3839893E0,0E0,0E0,0E0,0E0],"parents":[2147483647,0,0,2,2,3,3,4,4],"right_children":[2,-1,4,6,8,-1,-1,-1,-1],"split_conditions":[-3.3375921E0,-5.4298945E-2,2E0,2.11E2,-1.4403777E-1,-2.6342222E-2,4.7910854E-2,2.1359382E-2,4.8381664E-2],"split_indices":[3,0,7,1,3,0,0,0,0],"split_type":[0,0,0,0,0,0,0,0,0],"sum_hessian":[1.156265E2,1.2499957E1,1.0312654E2,3.92585E1,6.3868042E1,3.0776207E1,8.482293E0,4.766801E1,1.6200031E1],"tree_param":{"num_deleted":"0","num_feature":"8","num_nodes":"9","size_leaf_vector":"1"}},{"base_weights":[3.993939E-2,2.2693674E-1,-6.1905522E-2,-5.235651E-2,3.4956425E-1,1.0081474E-2,4.453757E-2],"categories":[],"categories_nodes":[],"categories_segments":[],"categories_sizes":[],"default_left":[0,0,0,0,0,0,0],"id":36,"left_children":[1,3,-1,-1,5,-1,-1],"loss_changes":[2.7485727E1,1.601258E1,0E0,0E0,7.1942835E0,0E0,0E0],"parents":[2147483647,0,0,1,1,4,4],"right_children":[2,4,-1,-1,6,-1,-1],"split_conditions":[1.1227991E2,-3.3375921E0,-6.1905522E-2,-5.235651E-2,-1.4403777E-1,1.0081474E-2,4.453757E-2],"split_indices":[0,3,0,0,3,0,0],"split_type":[0,0,0,0,0,0,0],"sum_hessian":[1.12831276E2,9.914705E1,1.3684226E1,8.04303E0,9.110402E1,7.2624504E1,1.8479511E1],"tree_param":{"num_deleted":"0","num_feature":"8","num_nodes":"7","size_leaf_vector":"1"}},{"base_weights":[1.162025E-1,-6.9314533E-1,4.40736E-1,-9.426019E-1,-2.0949751E-1,3.1583038E-1,6.782722E-2,-5.4082125E-2,-2.0223422E-2,-2.8590262E-2,1.3341546E-2,3.815093E-2,-2.476455E-3],"categories":[],"categories_nodes":[],"categories_segments":[],"categories_sizes":[],"default_left":[0,0,0,0,0,0,0,0,0,0,0,0,0],"id":37,"left_children":[1,3,5,7,9,11,-1,-1,-1,-1,-1,-1,-1],"loss_changes":[3.041169E1,3.807438E0,9.000185E0,1.1796932E0,2.3237832E0,1.2101501E1,0E0,0E0,0E0,0E0,0E0,0E0,0E0],"parents":[2147483647,0,0,1,1,2,2,3,3,4,4,5,5],"right_children":[2,4,6,8,10,12,-1,-1,-1,-1,-1,-1,-1],"split_conditions":[-1.4238548E0,3E0,-4.235273E-1,1.4677023E-2,9.305672E1,-2.2604096E0,6.782722E-2,-5.4082125E-2,-2.0223422E-2,-2.8590262E-2,1.3341546E-2,3.815093E-2,-2.476455E-3],"split_indices":[3,7,2,5,0,2,0,0,0,0,0,0,0],"split_type":[0,0,0,0,0,0,0,0,0,0,0,0,0],"sum_hessian":[1.13620186E2,3.219468E1,8.142551E1,2.0613615E1,1.1581061E1,7.283634E1,8.589166E0,1.5578516E1,5.035099E0,6.4639616E0,5.1171002E0,3.2261234E1,4.057511E1],"tree_param":{"num_deleted":"0","num_feature":"8","num_nodes":"13","size_leaf_vector":"1"}},{"base_weights":[7.923696E-3,2.934253E-1,-7.6097244E-1,3.7499553E-1,-3.1405363E-2,-5.4862347E-2,-2.5740004E-1,4.8403155E-2,1.3719385E-2,-3.0787969E-2,1.2452326E-2],"categories":[],"categories_nodes":[],"categories_segments":[],"categories_sizes":[],"default_left":[0,0,0,0,0,0,0,0,0,0,0],"id":38,"left_children":[1,3,5,7,-1,-1,9,-1,-1,-1,-1],"loss_changes":[2.41435E1,6.262813E0,4.760996E0,4.1669493E0,0E0,0E0,2.5547595E0,0E0,0E0,0E0,0E0],"parents":[2147483647,0,0,1,1,2,2,3,3,6,6],"right_children":[2,4,6,8,-1,-1,10,-1,-1,-1,-1],"split_conditions":[-3.0432868E-1,1.1738991E2,3E0,-3.9407682E0,-3.1405363E-2,-5.4862347E-2,9.40879E1,4.8403155E-2,1.3719385E-2,-3.0787969E-2,1.2452326E-2],"split_indices":[2,0,7,2,0,0,0,0,0,0,0],"split_type":[0,0,0,0,0,0,0,0,0,0,0],"sum_hessian":[1.0796545E2,7.918234E1,2.8783102E1,7.3288246E1,5.8940954E0,1.6551472E1,1.2231631E1,9.378908E0,6.390934E1,7.0366707E0,5.19496E0],"tree_param":{"num_deleted":"0","num_feature":"8","num_nodes":"11","size_leaf_vector":"1"}},{"base_weights":[5.0886948E-2,-8.582904E-1,3.497222E-1,-5.6405526E-2,1.2790009E-2,1.5327755E-1,5.1361304E-2,2.3730392E-2,-1.1447316E-2],"categories":[],"categories_nodes":[],"categories_segments":[],"categories_sizes":[],"default_left":[0,0,0,0,0,0,0,0,0],"id":39,"left_children":[1,3,5,-1,-1,7,-1,-1,-1],"loss_changes":[2.958161E1,8.389931E0,1.0732572E1,0E0,0E0,8.043644E0,0E0,0E0,0E0],"parents":[2147483647,0,0,1,1,2,2,5,5],"right_children":[2,4,6,-1,-1,8,-1,-1,-1],"split_conditions":[-1.4238548E0,3.2774627E-2,1.6210027E-1,-5.6405526E-2,1.2790009E-2,4.475616E1,5.1361304E-2,2.3730392E-2,-1.1447316E-2],"split_indices":[3,5,5,0,0,0,0,0,0],"split_type":[0,0,0,0,0,0,0,0,0],"sum_hessian":[1.0677353E2,2.595026E1,8.082327E1,2.0880623E1,5.069636E0,6.3606564E1,1.721671E1,3.4424587E1,2.9181974E1],"tree_param":{"num_deleted":"0","num_feature":"8","num_nodes":"9","size_leaf_vector":"1"}},{"base_weights":[-1.5135343E-2,3.0015558E-1,-8.9179933E-1,-2.650413E-2,5.6747884E-1,-5.5888038E-2,-1.4280658E-3,2.5998149E-2,-1.883724E-2,1.79876E-2,4.8771415E-2],"categories":[],"categories_nodes":[],"categories_segments":[],"categories_sizes":[],"default_left":[0,0,0,0,0,0,0,0,0,0,0],"id":40,"left_children":[1,3,5,7,9,-1,-1,-1,-1,-1,-1],"loss_changes":[3.1086899E1,7.24152E0,5.7701797E0,7.5070786E0,3.5095634E0,0E0,0E0,0E0,0E0,0E0,0E0],"parents":[2147483647,0,0,1,1,2,2,3,3,4,4],"right_children":[2,4,6,8,10,-1,-1,-1,-1,-1,-1],"split_conditions":[-2.7289665E-1,1E0,3.4835976E-2,3.660614E1,-1.5317272E-1,-5.5888038E-2,-1.4280658E-3,2.5998149E-2,-1.883724E-2,1.79876E-2,4.8771415E-2],"split_indices":[2,6,5,0,3,0,0,0,0,0,0],"split_type":[0,0,0,0,0,0,0,0,0,0,0],"sum_hessian":[1.10500534E2,8.175506E1,2.8745472E1,3.719946E1,4.45556E1,2.2548363E1,6.19711E0,1.4340281E1,2.285918E1,3.0769632E1,1.3785967E1],"tree_param":{"num_deleted":"0","num_feature":"8","num_nodes":"11","size_leaf_vector":"1"}},{"base_weights":[2.2523267E-2,3.0969065E-1,-8.7055874E-1,4.7606364E-2,9.538247E-2,-5.512613E-2,-2.0964747E-2,-1.5643751E-2,1.8787982E-2],"categories":[],"categories_nodes":[],"categories_segments":[],"categories_sizes":[],"default_left":[0,0,0,0,0,0,0,0,0],"id":41,"left_children":[1,3,5,-1,7,-1,-1,-1,-1],"loss_changes":[2.9080906E1,1.171443E1,2.4263859E0,0E0,7.6045017E0,0E0,0E0,0E0,0E0],"parents":[2147483647,0,0,1,1,2,2,4,4],"right_children":[2,4,6,-1,8,-1,-1,-1,-1],"split_conditions":[-2.7289665E-1,-2.8436322E0,3E0,4.7606364E-2,2E0,-5.512613E-2,-2.0964747E-2,-1.5643751E-2,1.8787982E-2],"split_indices":[2,2,7,0,7,0,0,0,0],"split_type":[0,0,0,0,0,0,0,0,0],"sum_hessian":[1.1134051E2,8.474446E1,2.659605E1,2.0336994E1,6.440746E1,1.6613169E1,9.9828825E0,2.6176268E1,3.82312E1],"tree_param":{"num_deleted":"0","num_feature":"8","num_nodes":"9","size_leaf_vector":"1"}},{"base_weights":[1.6761135E-1,-5.384903E-2,3.211668E-1,4.2233863E-1,-3.9523E-2,-5.189955E-4,3.2231532E-2],"categories":[],"categories_nodes":[],"categories_segments":[],"categories_sizes":[],"default_left":[0,0,0,0,0,0,0],"id":42,"left_children":[1,-1,3,5,-1,-1,-1],"loss_changes":[2.3185677E1,0E0,1.2384912E1,9.516663E0,0E0,0E0,0E0],"parents":[2147483647,0,0,2,2,3,3],"right_children":[2,-1,4,6,-1,-1,-1],"split_conditions":[-3.3375921E0,-5.384903E-2,1.1738991E2,2E0,-3.9523E-2,-5.189955E-4,3.2231532E-2],"split_indices":[3,0,0,7,0,0,0],"split_type":[0,0,0,0,0,0,0],"sum_hessian":[1.1850875E2,1.2355094E1,1.06153656E2,9.786665E1,8.287008E0,3.353669E1,6.432996E1],"tree_param":{"num_deleted":"0","num_feature":"8","num_nodes":"7","size_leaf_vector":"1"}},{"base_weights":[9.63189E-2,-7.0900244E-1,3.721701E-1,-5.5043634E-2,-1.6432953E-4,5.021363E-2,2.7426115E-1,4.707252E-3,3.3131044E-2],"categories":[],"categories_nodes":[],"categories_segments":[],"categories_sizes":[],"default_left":[0,0,0,0,0,0,0,0,0],"id":43,"left_children":[1,3,5,-1,-1,-1,7,-1,-1],"loss_changes":[2.4156548E1,7.6803713E0,4.723134E0,0E0,0E0,0E0,4.925776E0,0E0,0E0],"parents":[2147483647,0,0,1,1,2,2,6,6],"right_children":[2,4,6,-1,-1,-1,8,-1,-1],"split_conditions":[-1.4238548E0,3E0,-3.9407682E0,-5.5043634E-2,-1.6432953E-4,5.021363E-2,7.096382E-2,4.707252E-3,3.3131044E-2],"split_indices":[3,7,2,0,0,0,5,0,0],"split_type":[0,0,0,0,0,0,0,0,0],"sum_hessian":[1.0655257E2,2.678527E1,7.9767296E1,1.6862125E1,9.923145E0,9.456791E0,7.03105E1,4.888206E1,2.142844E1],"tree_param":{"num_deleted":"0","num_feature":"8","num_nodes":"9","size_leaf_vector":"1"}},{"base_weights":[-1.0848121E-2,2.5291702E-1,-8.245911E-1,-1.8066709E-1,4.8587543E-1,-5.3716034E-2,-1.8009944E-2,2.1390062E-2,-2.7509859E-2,-1.130032E-3,3.27114E-2],"categories":[],"categories_nodes":[],"categories_segments":[],"categories_sizes":[],"default_left":[0,0,0,0,0,0,0,0,0,0,0],"id":44,"left_children":[1,3,5,7,9,-1,-1,-1,-1,-1,-1],"loss_changes":[2.3028183E1,8.275108E0,2.6585064E0,6.76912E0,4.5516205E0,0E0,0E0,0E0,0E0,0E0,0E0],"parents":[2147483647,0,0,1,1,2,2,3,3,4,4],"right_children":[2,4,6,8,10,-1,-1,-1,-1,-1,-1],"split_conditions":[-2.7289665E-1,2E0,3E0,3.660614E1,-7.506456E-1,-5.3716034E-2,-1.8009944E-2,2.1390062E-2,-2.7509859E-2,-1.130032E-3,3.27114E-2],"split_indices":[2,7,7,0,3,0,0,0,0,0,0],"split_type":[0,0,0,0,0,0,0,0,0,0,0],"sum_hessian":[1.0531731E2,8.005698E1,2.5260328E1,2.805858E1,5.1998398E1,1.5572654E1,9.687675E0,1.0542164E1,1.7516417E1,1.3149291E1,3.8849106E1],"tree_param":{"num_deleted":"0","num_feature":"8","num_nodes":"11","size_leaf_vector":"1"}},{"base_weights":[1.0558205E-1,-5.164234E-2,2.420639E-1,-1.6883615E-2,6.4815104E-1,7.153717E-3,-3.9469216E-2,1.847591E-2,5.4802764E-2],"categories":[],"categories_nodes":[],"categories_segments":[],"categories_sizes":[],"default_left":[0,0,0,0,0,0,0,0,0],"id":45,"left_children":[1,-1,3,5,7,-1,-1,-1,-1],"loss_changes":[1.6299507E1,0E0,9.795371E0,7.2541313E0,4.119727E0,0E0,0E0,0E0,0E0],"parents":[2147483647,0,0,2,2,3,3,4,4],"right_children":[2,-1,4,6,8,-1,-1,-1,-1],"split_conditions":[-3.3375921E0,-5.164234E-2,4E0,1.1059167E2,6.8757935E1,7.153717E-3,-3.9469216E-2,1.847591E-2,5.4802764E-2],"split_indices":[3,0,7,0,0,0,0,0,0],"split_type":[0,0,0,0,0,0,0,0,0],"sum_hessian":[1.0229529E2,1.0247844E1,9.204745E1,5.679176E1,3.5255688E1,4.7724476E1,9.067283E0,2.2859943E1,1.2395745E1],"tree_param":{"num_deleted":"0","num_feature":"8","num_nodes":"9","size_leaf_vector":"1"}},{"base_weights":[5.315906E-2,7.121379E-1,-2.5005534E-1,9.750028E-1,2.5634325E-1,-5.303504E-2,-1.04696386E-1,1.5619657E-2,5.7991493E-2,-3.3074435E-2,4.412487E-2,-1.07545685E-2,4.5512445E-2],"categories":[],"categories_nodes":[],"categories_segments":[],"categories_sizes":[],"default_left":[0,0,0,0,0,0,0,0,0,0,0,0,0],"id":46,"left_children":[1,3,5,7,9,-1,11,-1,-1,-1,-1,-1,-1],"loss_changes":[2.4174053E1,4.315464E0,9.66784E0,2.5536823E0,9.373429E0,0E0,8.204708E0,0E0,0E0,0E0,0E0,0E0,0E0],"parents":[2147483647,0,0,1,1,2,2,3,3,4,4,6,6],"right_children":[2,4,6,8,10,-1,12,-1,-1,-1,-1,-1,-1],"split_conditions":[-2.0789838E0,4.589624E1,-3.3375921E0,1.2708686E1,4E0,-5.303504E-2,5.0650555E-1,1.5619657E-2,5.7991493E-2,-3.3074435E-2,4.412487E-2,-1.07545685E-2,4.5512445E-2],"split_indices":[2,0,3,0,7,0,5,0,0,0,0,0,0],"split_type":[0,0,0,0,0,0,0,0,0,0,0,0,0],"sum_hessian":[1.1909287E2,3.7104557E1,8.198832E1,2.281031E1,1.4294245E1,1.1508728E1,7.047959E1,5.5616937E0,1.7248617E1,5.774059E0,8.520185E0,6.427637E1,6.2032247E0],"tree_param":{"num_deleted":"0","num_feature":"8","num_nodes":"13","size_leaf_vector":"1"}},{"base_weights":[-2.0099504E-2,-5.2724715E-2,1.3704613E-1,5.94849E-1,-1.6764238E-2,4.6774745E-2,-7.649162E-4,-3.305771E-2,5.105007E-3],"categories":[],"categories_nodes":[],"categories_segments":[],"categories_sizes":[],"default_left":[0,0,0,0,0,0,0,0,0],"id":47,"left_children":[1,-1,3,5,7,-1,-1,-1,-1],"loss_changes":[1.56740055E1,0E0,5.9122534E0,4.401302E0,4.9477124E0,0E0,0E0,0E0,0E0],"parents":[2147483647,0,0,2,2,3,3,4,4],"right_children":[2,-1,4,6,8,-1,-1,-1,-1],"split_conditions":[-2.9689157E0,-5.2724715E-2,-2.3064127E0,4.589624E1,-1.7614263E0,4.6774745E-2,-7.649162E-4,-3.305771E-2,5.105007E-3],"split_indices":[3,0,2,0,2,0,0,0,0],"split_type":[0,0,0,0,0,0,0,0,0],"sum_hessian":[9.453634E1,1.1714772E1,8.282157E1,2.0107115E1,6.271445E1,1.2561043E1,7.5460725E0,9.056254E0,5.36582E1],"tree_param":{"num_deleted":"0","num_feature":"8","num_nodes":"9","size_leaf_vector":"1"}},{"base_weights":[7.404696E-2,-5.348971E-2,2.5788203E-1,-1.22339815E-1,5.4506665E-1,-2.5363175E-2,1.7019404E-2,1.5879594E-2,4.2390835E-2],"categories":[],"categories_nodes":[],"categories_segments":[],"categories_sizes":[],"default_left":[0,0,0,0,0,0,0,0,0],"id":48,"left_children":[1,-1,3,5,7,-1,-1,-1,-1],"loss_changes":[2.227019E1,0E0,9.994508E0,7.286432E0,3.310502E0,0E0,0E0,0E0,0E0],"parents":[2147483647,0,0,2,2,3,3,4,4],"right_children":[2,-1,4,6,8,-1,-1,-1,-1],"split_conditions":[-2.6592202E0,-5.348971E-2,1E0,-5.303562E-1,-8.7449163E-1,-2.5363175E-2,1.7019404E-2,1.5879594E-2,4.2390835E-2],"split_indices":[3,0,6,3,2,0,0,0,0],"split_type":[0,0,0,0,0,0,0,0,0],"sum_hessian":[1.03596275E2,1.3677031E1,8.991925E1,3.8939194E1,5.0980053E1,2.1204132E1,1.7735062E1,3.0278769E1,2.0701284E1],"tree_param":{"num_deleted":"0","num_feature":"8","num_nodes":"9","size_leaf_vector":"1"}},{"base_weights":[8.159277E-2,-5.1882267E-2,2.0670691E-1,6.850555E-1,1.4287467E-2,1.4271073E-2,4.0841985E-2,-4.540734E-2,5.7021147E-3],"categories":[],"categories_nodes":[],"categories_segments":[],"categories_sizes":[],"default_left":[0,0,0,0,0,0,0,0,0],"id":49,"left_children":[1,-1,3,5,7,-1,-1,-1,-1],"loss_changes":[1.5885783E1,0E0,9.332033E0,1.2990828E0,6.8576264E0,0E0,0E0,0E0,0E0],"parents":[2147483647,0,0,2,2,3,3,4,4],"right_children":[2,-1,4,6,8,-1,-1,-1,-1],"split_conditions":[-3.3375921E0,-5.1882267E-2,-2.2604096E0,3E0,-1.7956746E0,1.4271073E-2,4.0841985E-2,-4.540734E-2,5.7021147E-3],"split_indices":[3,0,2,7,2,0,0,0,0],"split_type":[0,0,0,0,0,0,0,0,0],"sum_hessian":[1.1091183E2,1.0418358E1,1.0049347E2,2.8093561E1,7.239991E1,7.751887E0,2.0341675E1,6.27462E0,6.612529E1],"tree_param":{"num_deleted":"0","num_feature":"8","num_nodes":"9","size_leaf_vector":"1"}}]},"name":"gbtree"},"name":"dart","weight_drop":[8.9893794E-1,9.0702957E-1,1E0,9.686905E-1,9.2915225E-1,9.0702957E-1,9.836066E-1,9.52381E-1,9.7146326E-1,9.756098E-1,8.8332695E-1,4.8434526E-1,1E0,9.635652E-1,1E0,9.3012446E-1,4.878049E-1,3.2554352E-1,1E0,1E0,1E0,9.52381E-1,8.937002E-1,1E0,9.686905E-1,4.878049E-1,9.9290776E-1,9.9009895E-1,1E0,9.52381E-1,1E0,9.9290776E-1,3.2249397E-1,1E0,1E0,9.9009895E-1,9.756098E-1,4.878049E-1,1E0,9.836066E-1,9.52381E-1,3.246226E-1,1.9801979E-1,9.8765427E-1,1E0,1E0,1.4184397E-1,1E0,1E0,2.4691357E-1]},"learner_model_param":{"base_score":"4.8167855E-1","boost_from_average":"1","num_class":"0","num_feature":"8","num_target":"1"},"objective":{"name":"binary:logistic","reg_loss_param":{"scale_pos_weight":"4.3398056"}}},"version":[3,0,2]}