{"learner":{"attributes":{},"feature_names":["wc_track_length","wc_reco_larpid_pidScore_mu","wc_reco_larpid_pidScore_pi","wc_n_pion_candidate_daughters","wc_pion_candidate_daughters_total_energy","wc_n_blips_25cm","wc_n_blips_50cm","wc_n_blips_100cm"],"feature_types":["float","float","float","float","float","float","float","float"],"gradient_booster":{"gbtree":{"model":{"gbtree_model_param":{"num_parallel_tree":"1","num_trees":"150"},"iteration_indptr":[0,1,2,3,4,5,6,7,8,9,10,11,12,13,14,15,16,17,18,19,20,21,22,23,24,25,26,27,28,29,30,31,32,33,34,35,36,37,38,39,40,41,42,43,44,45,46,47,48,49,50,51,52,53,54,55,56,57,58,59,60,61,62,63,64,65,66,67,68,69,70,71,72,73,74,75,76,77,78,79,80,81,82,83,84,85,86,87,88,89,90,91,92,93,94,95,96,97,98,99,100,101,102,103,104,105,106,107,108,109,110,111,112,113,114,115,116,117,118,119,120,121,122,123,124,125,126,127,128,129,130,131,132,133,134,135,136,137,138,139,140,141,142,143,144,145,146,147,148,149,150],"tree_info":[0,0,0,0,0,0,0,0,0,0,0,0,0,0,0,0,0,0,0,0,0,0,0,0,0,0,0,0,0,0,0,0,0,0,0,0,0,0,0,0,0,0,0,0,0,0,0,0,0,0,0,0,0,0,0,0,0,0,0,0,0,0,0,0,0,0,0,0,0,0,0,0,0,0,0,0,0,0,0,0,0,0,0,0,0,0,0,0,0,0,0,0,0,0,0,0,0,0,0,0,0,0,0,0,0,0,0,0,0,0,0,0,0,0,0,0,0,0,0,0,0,0,0,0,0,0,0,0,0,0,0,0,0,0,0,0,0,0,0,0,0,0,0,0,0,0,0,0,0,0],"trees":[{"base_weights":[1.3917348E-2,9.022721E-1,-1.3816063E0,1.3143829E0,-2.5881445E-1,-1.6444595E0,-5.41432E-1,3.6641706E-2,8.0040134E-2,-5.724095E-2,2.0331372E-2,-8.5956454E-2,-4.523966E-3,-8.748474E-3,-7.29448E-2],"categories":[],"categories_nodes":[],"categories_segments":[],"categories_sizes":[],"default_left":[0,0,0,0,0,0,0,0,0,0,0,0,0,0,0],"id":0,"left_children":[1,3,5,7,9,11,13,-1,-1,-1,-1,-1,-1,-1,-1],"loss_changes":[1.1882524E3,2.8057425E2,8.1444885E1,7.085101E1,9.141031E1,3.2739014E1,3.0116907E1,0E0,0E0,0E0,0E0,0E0,0E0,0E0,0E0],"parents":[2147483647,0,0,1,1,2,2,3,3,4,4,5,5,6,6],"right_children":[2,4,6,8,10,12,14,-1,-1,-1,-1,-1,-1,-1,-1],"split_conditions":[-8.389327E-1,6.90824E1,-1.4258068E0,3E0,2E0,2E1,8.847149E1,3.6641706E-2,8.0040134E-2,-5.724095E-2,2.0331372E-2,-8.5956454E-2,-4.523966E-3,-8.748474E-3,-7.29448E-2],"split_indices":[1,0,2,6,6,7,0,0,0,0,0,0,0,0,0],"split_type":[0,0,0,0,0,0,0,0,0,0,0,0,0,0,0],"sum_hessian":[9.5647894E2,5.846556E2,3.7182336E2,4.3140323E2,1.5325233E2,2.8248813E2,8.9335236E1,1.4353246E2,2.878708E2,6.542355E1,8.782878E1,2.6943533E2,1.3052801E1,6.468773E1,2.4647507E1],"tree_param":{"num_deleted":"0","num_feature":"8","num_nodes":"15","size_leaf_vector":"1"}},{"base_weights":[-3.7458986E-2,8.955118E-1,-1.4151807E0,1.398017E0,-6.325589E-2,-1.6725893E0,-5.311868E-1,5.0560046E-2,8.261436E-2,-3.5972744E-2,4.3499153E-2,-5.989771E-2,-9.2037275E-2,-5.5109143E-2,1.2846817E-2],"categories":[],"categories_nodes":[],"categories_segments":[],"categories_sizes":[],"default_left":[0,0,0,0,0,0,0,0,0,0,0,0,0,0,0],"id":1,"left_children":[1,3,5,7,9,11,13,-1,-1,-1,-1,-1,-1,-1,-1],"loss_changes":[1.1864271E3,2.6524612E2,8.391174E1,3.385022E1,1.17113014E2,2.0793884E1,3.876393E1,0E0,0E0,0E0,0E0,0E0,0E0,0E0,0E0],"parents":[2147483647,0,0,1,1,2,2,3,3,4,4,5,5,6,6],"right_children":[2,4,6,8,10,12,14,-1,-1,-1,-1,-1,-1,-1,-1],"split_conditions":[-8.389327E-1,5.721592E1,-1.3417449E0,4E0,3E0,5.3398155E1,3E0,5.0560046E-2,8.261436E-2,-3.5972744E-2,4.3499153E-2,-5.989771E-2,-9.2037275E-2,-5.5109143E-2,1.2846817E-2],"split_indices":[1,0,2,6,6,0,6,0,0,0,0,0,0,0,0],"split_type":[0,0,0,0,0,0,0,0,0,0,0,0,0,0,0],"sum_hessian":[9.210349E2,5.493643E2,3.716706E2,3.601473E2,1.8921703E2,2.8716074E2,8.450987E1,1.4481699E2,2.153303E2,1.1123333E2,7.7983696E1,7.724741E1,2.099133E2,4.877433E1,3.5735542E1],"tree_param":{"num_deleted":"0","num_feature":"8","num_nodes":"15","size_leaf_vector":"1"}},{"base_weights":[-3.0699663E-4,8.2565534E-1,-1.2282369E0,9.429495E-2,1.2955453E0,-1.4572984E0,1.0682812E-1,4.741334E-2,-3.1930264E-2,6.848192E-2,-1.6744228E-2,-8.074691E-2,-3.2660685E-2,-2.3059903E-2,4.168671E-2],"categories":[],"categories_nodes":[],"categories_segments":[],"categories_sizes":[],"default_left":[0,0,0,0,0,0,0,0,0,0,0,0,0,0,0],"id":2,"left_children":[1,3,5,7,9,11,13,-1,-1,-1,-1,-1,-1,-1,-1],"loss_changes":[9.439516E2,1.9110062E2,1.1461542E2,1.3750754E2,4.1374207E1,3.9448303E1,2.3401327E1,0E0,0E0,0E0,0E0,0E0,0E0,0E0,0E0],"parents":[2147483647,0,0,1,1,2,2,3,3,4,4,5,5,6,6],"right_children":[2,4,6,8,10,12,14,-1,-1,-1,-1,-1,-1,-1,-1],"split_conditions":[-8.846828E-1,3E0,5E0,5.02327E1,1.09126724E2,-1.1769807E0,-1.3417449E0,4.741334E-2,-3.1930264E-2,6.848192E-2,-1.6744228E-2,-8.074691E-2,-3.2660685E-2,-2.3059903E-2,4.168671E-2],"split_indices":[1,6,6,0,0,2,2,0,0,0,0,0,0,0,0],"split_type":[0,0,0,0,0,0,0,0,0,0,0,0,0,0,0],"sum_hessian":[9.287133E2,5.554318E2,3.732815E2,2.1773651E2,3.3769534E2,3.1853745E2,5.474406E1,1.0042635E2,1.1731015E2,3.2316922E2,1.4526101E1,2.6548163E2,5.3055805E1,3.093559E1,2.3808468E1],"tree_param":{"num_deleted":"0","num_feature":"8","num_nodes":"15","size_leaf_vector":"1"}},{"base_weights":[2.8203268E-2,7.807773E-1,-1.1617211E0,1.1886572E0,-4.3774224E-3,-1.3405904E0,-2.7896821E-2,5.0582897E-2,8.2379155E-2,-5.5540014E-2,2.964185E-2,-7.231408E-2,-2.2038899E-4,-2.700521E-2,3.4051012E-2],"categories":[],"categories_nodes":[],"categories_segments":[],"categories_sizes":[],"default_left":[0,0,0,0,0,0,0,0,0,0,0,0,0,0,0],"id":3,"left_children":[1,3,5,7,9,11,13,-1,-1,-1,-1,-1,-1,-1,-1],"loss_changes":[8.307813E2,1.8199512E2,7.285794E1,2.8712585E1,1.2969481E2,4.3834167E1,1.852274E1,0E0,0E0,0E0,0E0,0E0,0E0,0E0,0E0],"parents":[2147483647,0,0,1,1,2,2,3,3,4,4,5,5,6,6],"right_children":[2,4,6,8,10,12,14,-1,-1,-1,-1,-1,-1,-1,-1],"split_conditions":[-8.389327E-1,5.721592E1,5E0,-1.3258001E-1,6E0,-7.9749334E-1,-1.3417449E0,5.0582897E-2,8.2379155E-2,-5.5540014E-2,2.964185E-2,-7.231408E-2,-2.2038899E-4,-2.700521E-2,3.4051012E-2],"split_indices":[1,0,6,2,7,2,2,0,0,0,0,0,0,0,0],"split_type":[0,0,0,0,0,0,0,0,0,0,0,0,0,0,0],"sum_hessian":[9.2570966E2,5.672765E2,3.584332E2,3.7299527E2,1.9428119E2,3.0943515E2,4.8998047E1,2.7149072E2,1.0150457E2,6.7804306E1,1.2647689E2,2.8667676E2,2.2758377E1,2.8583788E1,2.0414257E1],"tree_param":{"num_deleted":"0","num_feature":"8","num_nodes":"15","size_leaf_vector":"1"}},{"base_weights":[1.9811336E-2,7.886837E-1,-1.1010973E0,1.1458001E0,-3.0387796E-2,-1.3400533E0,-3.5780466E-1,6.862374E-2,3.6700122E-2,-2.6979387E-2,5.680258E-2,-7.352229E-2,-2.5250856E-2,-3.1159056E-2,3.5483513E-2],"categories":[],"categories_nodes":[],"categories_segments":[],"categories_sizes":[],"default_left":[0,0,0,0,0,0,0,0,0,0,0,0,0,0,0],"id":4,"left_children":[1,3,5,7,9,11,13,-1,-1,-1,-1,-1,-1,-1,-1],"loss_changes":[8.0053143E2,1.6118558E2,6.6645294E1,3.4807373E1,1.0054539E2,3.0356506E1,2.6873566E1,0E0,0E0,0E0,0E0,0E0,0E0,0E0,0E0],"parents":[2147483647,0,0,1,1,2,2,3,3,4,4,5,5,6,6],"right_children":[2,4,6,8,10,12,14,-1,-1,-1,-1,-1,-1,-1,-1],"split_conditions":[-8.846828E-1,6.2542225E1,-1.3620498E0,3.4247543E1,-2.893529E-1,2E0,1.4E1,6.862374E-2,3.6700122E-2,-2.6979387E-2,5.680258E-2,-7.352229E-2,-2.5250856E-2,-3.1159056E-2,3.5483513E-2],"split_indices":[1,0,2,0,2,5,7,0,0,0,0,0,0,0,0],"split_type":[0,0,0,0,0,0,0,0,0,0,0,0,0,0,0],"sum_hessian":[9.2686017E2,5.4993555E2,3.769246E2,3.826853E2,1.6725026E2,2.8462094E2,9.230366E1,2.4531721E2,1.3736809E2,1.1679968E2,5.045058E1,2.4552136E2,3.9099583E1,7.425894E1,1.8044716E1],"tree_param":{"num_deleted":"0","num_feature":"8","num_nodes":"15","size_leaf_vector":"1"}},{"base_weights":[-4.498684E-2,7.5746816E-1,-1.2132264E0,-3.2838377E-1,1.095552E0,-4.945114E-1,-1.4845121E0,-5.302156E-2,2.4452223E-2,3.7383053E-2,7.132062E-2,-5.023691E-2,2.486619E-2,-7.690797E-2,-1.7922651E-2],"categories":[],"categories_nodes":[],"categories_segments":[],"categories_sizes":[],"default_left":[0,0,0,0,0,0,0,0,0,0,0,0,0,0,0],"id":5,"left_children":[1,3,5,7,9,11,13,-1,-1,-1,-1,-1,-1,-1,-1],"loss_changes":[8.478085E2,1.97185E2,7.10639E1,7.715332E1,4.6020294E1,5.232351E1,1.5568054E1,0E0,0E0,0E0,0E0,0E0,0E0,0E0,0E0],"parents":[2147483647,0,0,1,1,2,2,3,3,4,4,5,5,6,6],"right_children":[2,4,6,8,10,12,14,-1,-1,-1,-1,-1,-1,-1,-1],"split_conditions":[-8.846828E-1,2E0,-3.4464508E-1,-5.4451674E-1,-3.6517036E-1,4E0,2E1,-5.302156E-2,2.4452223E-2,3.7383053E-2,7.132062E-2,-5.023691E-2,2.486619E-2,-7.690797E-2,-1.7922651E-2],"split_indices":[1,6,1,2,2,6,7,0,0,0,0,0,0,0,0],"split_type":[0,0,0,0,0,0,0,0,0,0,0,0,0,0,0],"sum_hessian":[9.0238763E2,5.351493E2,3.672384E2,1.2706684E2,4.0808243E2,1.0140629E2,2.6583212E2,6.687747E1,6.018937E1,2.005106E2,2.0757181E2,6.695158E1,3.445471E1,2.5339401E2,1.2438094E1],"tree_param":{"num_deleted":"0","num_feature":"8","num_nodes":"15","size_leaf_vector":"1"}},{"base_weights":[1.40330875E-2,7.2112966E-1,-1.0170592E0,1.086824E0,-6.9636896E-2,-1.3044007E0,-2.5033963E-1,3.5731845E-2,6.7317866E-2,-2.6994616E-2,5.170436E-2,-7.054811E-2,-1.6351026E-2,-2.7854893E-2,2.30344E-2],"categories":[],"categories_nodes":[],"categories_segments":[],"categories_sizes":[],"default_left":[0,0,0,0,0,0,0,0,0,0,0,0,0,0,0],"id":6,"left_children":[1,3,5,7,9,11,13,-1,-1,-1,-1,-1,-1,-1,-1],"loss_changes":[6.5103973E2,1.5325107E2,7.9703766E1,3.4029633E1,8.798294E1,2.7034271E1,2.2125631E1,0E0,0E0,0E0,0E0,0E0,0E0,0E0,0E0],"parents":[2147483647,0,0,1,1,2,2,3,3,4,4,5,5,6,6],"right_children":[2,4,6,8,10,12,14,-1,-1,-1,-1,-1,-1,-1,-1],"split_conditions":[-8.95514E-1,6.0492157E1,-1.3620498E0,4E0,-2.893529E-1,5E0,4E0,3.5731845E-2,6.7317866E-2,-2.6994616E-2,5.170436E-2,-7.054811E-2,-1.6351026E-2,-2.7854893E-2,2.30344E-2],"split_indices":[1,0,2,6,2,6,6,0,0,0,0,0,0,0,0],"split_type":[0,0,0,0,0,0,0,0,0,0,0,0,0,0,0],"sum_hessian":[8.909525E2,5.286907E2,3.6226184E2,3.6125287E2,1.6743779E2,2.6299765E2,9.926421E1,1.499576E2,2.1129526E2,1.1777088E2,4.9666912E1,2.3674252E2,2.6255121E1,6.949746E1,2.9766758E1],"tree_param":{"num_deleted":"0","num_feature":"8","num_nodes":"15","size_leaf_vector":"1"}},{"base_weights":[-3.340559E-2,6.801565E-1,-1.0757524E0,1.0863937E0,-1.201276E-1,-6.5183264E-1,-1.4343407E0,3.5277627E-2,6.418403E-2,-3.6209513E-2,3.6397718E-2,-1.4200112E-3,-4.6177965E-2,-5.132077E-2,-7.648391E-2],"categories":[],"categories_nodes":[],"categories_segments":[],"categories_sizes":[],"default_left":[0,0,0,0,0,0,0,0,0,0,0,0,0,0,0],"id":7,"left_children":[1,3,5,7,9,11,13,-1,-1,-1,-1,-1,-1,-1,-1],"loss_changes":[6.8032416E2,1.7666475E2,5.5567474E1,2.6163544E1,9.465179E1,2.9138954E1,6.2286987E0,0E0,0E0,0E0,0E0,0E0,0E0,0E0,0E0],"parents":[2147483647,0,0,1,1,2,2,3,3,4,4,5,5,6,6],"right_children":[2,4,6,8,10,12,14,-1,-1,-1,-1,-1,-1,-1,-1],"split_conditions":[-8.846828E-1,6.0492157E1,-1.2923034E-1,3E0,9.781297E-3,4.6008984E1,4.9804237E1,3.5277627E-2,6.418403E-2,-3.6209513E-2,3.6397718E-2,-1.4200112E-3,-4.6177965E-2,-5.132077E-2,-7.648391E-2],"split_indices":[1,0,1,6,4,0,0,0,0,0,0,0,0,0,0],"split_type":[0,0,0,0,0,0,0,0,0,0,0,0,0,0,0],"sum_hessian":[9.1270197E2,5.4200653E2,3.706954E2,3.5927515E2,1.8273138E2,1.7116435E2,1.9953105E2,1.2416474E2,2.3511041E2,1.0680416E2,7.592723E1,5.2292427E1,1.1887193E2,4.0027863E1,1.5950319E2],"tree_param":{"num_deleted":"0","num_feature":"8","num_nodes":"15","size_leaf_vector":"1"}},{"base_weights":[4.508922E-5,6.595264E-1,-9.3855304E-1,1.7579007E-1,1.18717E0,-1.1356184E0,1.9147277E-1,3.9025795E-2,-2.6994485E-2,7.211305E-2,4.132886E-2,-2.527797E-2,-6.7732744E-2,-1.4248498E-2,3.9833967E-2],"categories":[],"categories_nodes":[],"categories_segments":[],"categories_sizes":[],"default_left":[0,0,0,0,0,0,0,0,0,0,0,0,0,0,0],"id":8,"left_children":[1,3,5,7,9,11,13,-1,-1,-1,-1,-1,-1,-1,-1],"loss_changes":[5.467149E2,1.3219786E2,8.138486E1,1.1805818E2,2.1614594E1,4.2167023E1,1.6080322E1,0E0,0E0,0E0,0E0,0E0,0E0,0E0,0E0],"parents":[2147483647,0,0,1,1,2,2,3,3,4,4,5,5,6,6],"right_children":[2,4,6,8,10,12,14,-1,-1,-1,-1,-1,-1,-1,-1],"split_conditions":[-8.846828E-1,-3.5570025E-1,5E0,4.9804237E1,-2.5353665E0,-3.4464508E-1,-1.3417449E0,3.9025795E-2,-2.6994485E-2,7.211305E-2,4.132886E-2,-2.527797E-2,-6.7732744E-2,-1.4248498E-2,3.9833967E-2],"split_indices":[1,2,6,0,1,1,2,0,0,0,0,0,0,0,0],"split_type":[0,0,0,0,0,0,0,0,0,0,0,0,0,0,0],"sum_hessian":[8.8124E2,5.177523E2,3.6348773E2,2.708103E2,2.4694199E2,3.0950766E2,5.3980057E1,1.4673418E2,1.2407613E2,1.4287177E2,1.0407021E2,8.069532E1,2.2881235E2,3.0499092E1,2.3480967E1],"tree_param":{"num_deleted":"0","num_feature":"8","num_nodes":"15","size_leaf_vector":"1"}},{"base_weights":[-5.3983398E-2,-7.355281E-1,8.0652064E-1,5.7861708E-2,-1.1416188E0,1.2347443E0,3.5255843E-1,-2.8097484E-2,3.2448124E-2,-6.643675E-2,-9.43707E-3,3.245535E-2,6.876924E-2,4.9925264E-2,-7.7102747E-4],"categories":[],"categories_nodes":[],"categories_segments":[],"categories_sizes":[],"default_left":[0,0,0,0,0,0,0,0,0,0,0,0,0,0,0],"id":9,"left_children":[1,3,5,7,9,11,13,-1,-1,-1,-1,-1,-1,-1,-1],"loss_changes":[4.965867E2,1.5228694E2,7.2320755E1,5.93158E1,5.5477203E1,1.4937012E1,4.353073E1,0E0,0E0,0E0,0E0,0E0,0E0,0E0,0E0],"parents":[2147483647,0,0,1,1,2,2,3,3,4,4,5,5,6,6],"right_children":[2,4,6,8,10,12,14,-1,-1,-1,-1,-1,-1,-1,-1],"split_conditions":[-7.866661E-1,5.02327E1,-2.2373033E0,9E0,3.134083E-2,-3.0623415E-1,3.4247543E1,-2.8097484E-2,3.2448124E-2,-6.643675E-2,-9.43707E-3,3.245535E-2,6.876924E-2,4.9925264E-2,-7.7102747E-4],"split_indices":[2,0,1,7,4,2,0,0,0,0,0,0,0,0,0],"split_type":[0,0,0,0,0,0,0,0,0,0,0,0,0,0,0],"sum_hessian":[8.447241E2,4.7145947E2,3.7326465E2,1.5990552E2,3.1155396E2,1.9119241E2,1.8207224E2,7.808116E1,8.182435E1,2.6008646E2,5.146751E1,3.8110935E1,1.5308148E2,6.545669E1,1.1661555E2],"tree_param":{"num_deleted":"0","num_feature":"8","num_nodes":"15","size_leaf_vector":"1"}},{"base_weights":[-2.859035E-2,4.9472988E-1,-9.4712234E-1,-4.247202E-1,8.2587767E-1,-1.2145779E0,-3.1045786E-1,2.9284615E-2,-4.5204893E-2,2.3454128E-2,6.1642703E-2,-3.154466E-2,-6.6586114E-2,1.898922E-2,-3.6089417E-2],"categories":[],"categories_nodes":[],"categories_segments":[],"categories_sizes":[],"default_left":[0,0,0,0,0,0,0,0,0,0,0,0,0,0,0],"id":10,"left_children":[1,3,5,7,9,11,13,-1,-1,-1,-1,-1,-1,-1,-1],"loss_changes":[4.0846832E2,1.6518561E2,5.2138794E1,7.0284584E1,5.7266968E1,1.3985901E1,2.6558315E1,0E0,0E0,0E0,0E0,0E0,0E0,0E0,0E0],"parents":[2147483647,0,0,1,1,2,2,3,3,4,4,5,5,6,6],"right_children":[2,4,6,8,10,12,14,-1,-1,-1,-1,-1,-1,-1,-1],"split_conditions":[-6.6183686E-1,2E0,9E0,3.8349518E1,2.570897E-2,-3.4464508E-1,4.6008984E1,2.9284615E-2,-4.5204893E-2,2.3454128E-2,6.1642703E-2,-3.154466E-2,-6.6586114E-2,1.898922E-2,-3.6089417E-2],"split_indices":[1,6,7,0,4,1,0,0,0,0,0,0,0,0,0],"split_type":[0,0,0,0,0,0,0,0,0,0,0,0,0,0,0],"sum_hessian":[8.477858E2,5.403759E2,3.074099E2,1.4301218E2,3.9736374E2,2.1583311E2,9.15768E1,4.594642E1,9.706575E1,2.1288268E2,1.8448106E2,3.7144085E1,1.7868903E2,3.4223682E1,5.7353115E1],"tree_param":{"num_deleted":"0","num_feature":"8","num_nodes":"15","size_leaf_vector":"1"}},{"base_weights":[4.9142465E-2,6.652088E-1,-8.898644E-1,-1.2617727E-1,9.5293385E-1,-1.1024238E0,2.7705878E-1,2.9273128E-2,-3.188205E-2,6.36056E-2,3.266078E-2,-6.0640313E-2,1.3035293E-3,3.2120325E-2,-1.3649111E-2],"categories":[],"categories_nodes":[],"categories_segments":[],"categories_sizes":[],"default_left":[0,0,0,0,0,0,0,0,0,0,0,0,0,0,0],"id":11,"left_children":[1,3,5,7,9,11,13,-1,-1,-1,-1,-1,-1,-1,-1],"loss_changes":[5.159288E2,1.2273445E2,8.7949066E1,5.295376E1,3.6958557E1,3.7289185E1,1.1277119E1,0E0,0E0,0E0,0E0,0E0,0E0,0E0,0E0],"parents":[2147483647,0,0,1,1,2,2,3,3,4,4,5,5,6,6],"right_children":[2,4,6,8,10,12,14,-1,-1,-1,-1,-1,-1,-1,-1],"split_conditions":[-8.846828E-1,2E0,5E0,5.02327E1,3.4247543E1,-8.3094454E-1,-1.8707597E-1,2.9273128E-2,-3.188205E-2,6.36056E-2,3.266078E-2,-6.0640313E-2,1.3035293E-3,3.2120325E-2,-1.3649111E-2],"split_indices":[1,6,6,0,0,2,1,0,0,0,0,0,0,0,0],"split_type":[0,0,0,0,0,0,0,0,0,0,0,0,0,0,0],"sum_hessian":[8.8983026E2,5.3748627E2,3.5234396E2,1.4346051E2,3.940258E2,2.9809933E2,5.424464E1,5.993021E1,8.35303E1,1.8924715E2,2.0477863E2,2.71471E2,2.662834E1,3.2493748E1,2.175089E1],"tree_param":{"num_deleted":"0","num_feature":"8","num_nodes":"15","size_leaf_vector":"1"}},{"base_weights":[3.9824102E-2,-6.720177E-1,8.365007E-1,1.4668433E-1,-1.1269668E0,1.2645917E0,5.348634E-1,5.261862E-2,-1.1488425E-2,-6.331868E-2,-4.2445953E-3,2.6862932E-2,6.63988E-2,1.2200228E-2,5.3493124E-2],"categories":[],"categories_nodes":[],"categories_segments":[],"categories_sizes":[],"default_left":[0,0,0,0,0,0,0,0,0,0,0,0,0,0,0],"id":12,"left_children":[1,3,5,7,9,11,13,-1,-1,-1,-1,-1,-1,-1,-1],"loss_changes":[4.8168283E2,1.6725351E2,5.107541E1,5.5176933E1,4.1799683E1,6.890106E0,3.659459E1,0E0,0E0,0E0,0E0,0E0,0E0,0E0,0E0],"parents":[2147483647,0,0,1,1,2,2,3,3,4,4,5,5,6,6],"right_children":[2,4,6,8,10,12,14,-1,-1,-1,-1,-1,-1,-1,-1],"split_conditions":[-7.9749334E-1,4.9804237E1,-2.505984E0,-3.3609548E0,5E0,5E0,5E0,5.261862E-2,-1.1488425E-2,-6.331868E-2,-4.2445953E-3,2.6862932E-2,6.63988E-2,1.2200228E-2,5.3493124E-2],"split_indices":[2,0,1,1,6,7,6,0,0,0,0,0,0,0,0],"split_type":[0,0,0,0,0,0,0,0,0,0,0,0,0,0,0],"sum_hessian":[8.473762E2,4.4759775E2,3.9977844E2,1.6012428E2,2.8747348E2,1.6393103E2,2.3584741E2,4.6487343E1,1.1363695E2,2.5336374E2,3.4109737E1,1.3900407E1,1.5003062E2,1.5372758E2,8.2119835E1],"tree_param":{"num_deleted":"0","num_feature":"8","num_nodes":"15","size_leaf_vector":"1"}},{"base_weights":[-4.018052E-3,4.2362788E-1,-1.1035367E0,-2.9056283E-2,9.7619164E-1,-6.588599E-2,-6.613155E-1,2.890933E-2,-2.691798E-2,3.6469843E-2,6.1223656E-2,-7.0222884E-2,-2.0351373E-2],"categories":[],"categories_nodes":[],"categories_segments":[],"categories_sizes":[],"default_left":[0,0,0,0,0,0,0,0,0,0,0,0,0],"id":13,"left_children":[1,3,5,7,9,-1,11,-1,-1,-1,-1,-1,-1],"loss_changes":[3.981256E2,1.525152E2,2.1585724E1,1.04245735E2,1.5929871E1,0E0,1.44275055E1,0E0,0E0,0E0,0E0,0E0,0E0],"parents":[2147483647,0,0,1,1,2,2,3,3,4,4,6,6],"right_children":[2,4,6,8,10,-1,12,-1,-1,-1,-1,-1,-1],"split_conditions":[-3.547257E-1,4E0,8E0,5.081523E1,6.5581948E-3,-6.588599E-2,-3.985523E0,2.890933E-2,-2.691798E-2,3.6469843E-2,6.1223656E-2,-7.0222884E-2,-2.0351373E-2],"split_indices":[1,6,7,0,4,0,2,0,0,0,0,0,0],"split_type":[0,0,0,0,0,0,0,0,0,0,0,0,0],"sum_hessian":[8.447127E2,6.086137E2,2.3609901E2,3.35063E2,2.7355072E2,1.5772673E2,7.83723E1,1.5277452E2,1.8228848E2,1.3916089E2,1.3438983E2,1.882735E1,5.954495E1],"tree_param":{"num_deleted":"0","num_feature":"8","num_nodes":"13","size_leaf_vector":"1"}},{"base_weights":[3.571524E-2,5.4909825E-1,-7.837241E-1,-2.0175534E-1,8.1808984E-1,-9.209305E-1,5.0028604E-2,2.8561402E-2,-4.0079713E-2,2.8627513E-2,5.754788E-2,-2.0177877E-2,-5.5418145E-2,3.1204864E-2,-2.0975584E-2],"categories":[],"categories_nodes":[],"categories_segments":[],"categories_sizes":[],"default_left":[0,0,0,0,0,0,0,0,0,0,0,0,0,0,0],"id":14,"left_children":[1,3,5,7,9,11,13,-1,-1,-1,-1,-1,-1,-1,-1],"loss_changes":[3.5205112E2,1.0407362E2,3.692279E1,6.3746643E1,3.0315094E1,2.640036E1,1.2796127E1,0E0,0E0,0E0,0E0,0E0,0E0,0E0,0E0],"parents":[2147483647,0,0,1,1,2,2,3,3,4,4,5,5,6,6],"right_children":[2,4,6,8,10,12,14,-1,-1,-1,-1,-1,-1,-1,-1],"split_conditions":[-8.389327E-1,2E0,5E0,5.02327E1,6E0,-3.4464508E-1,6E0,2.8561402E-2,-4.0079713E-2,2.8627513E-2,5.754788E-2,-2.0177877E-2,-5.5418145E-2,3.1204864E-2,-2.0975584E-2],"split_indices":[1,6,6,0,6,1,6,0,0,0,0,0,0,0,0],"split_type":[0,0,0,0,0,0,0,0,0,0,0,0,0,0,0],"sum_hessian":[8.348266E2,5.1346686E2,3.2135974E2,1.3549655E2,3.779703E2,2.7585858E2,4.550116E1,5.9224506E1,7.627205E1,2.1908353E2,1.5888678E2,7.419896E1,2.0165962E2,2.0323772E1,2.517739E1],"tree_param":{"num_deleted":"0","num_feature":"8","num_nodes":"15","size_leaf_vector":"1"}},{"base_weights":[-2.9818011E-2,-6.6070896E-1,6.328098E-1,3.767759E-1,-9.713018E-1,1.2853065E0,3.7858126E-1,4.480232E-2,-1.7888077E-2,7.3604114E-2,-5.075525E-2,4.6997324E-2,6.9476336E-2,-1.2647043E-2,3.0751064E-2],"categories":[],"categories_nodes":[],"categories_segments":[],"categories_sizes":[],"default_left":[0,0,0,0,0,0,0,0,0,0,0,0,0,0,0],"id":15,"left_children":[1,3,5,7,9,11,13,-1,-1,-1,-1,-1,-1,-1,-1],"loss_changes":[3.3790213E2,1.3378345E2,6.491322E1,3.69805E1,3.5628143E1,2.6576385E0,4.273016E1,0E0,0E0,0E0,0E0,0E0,0E0,0E0,0E0],"parents":[2147483647,0,0,1,1,2,2,3,3,4,4,5,5,6,6],"right_children":[2,4,6,8,10,12,14,-1,-1,-1,-1,-1,-1,-1,-1],"split_conditions":[-9.3907565E-1,-2.290907E0,-2.9640355E0,4.4085728E1,4.160297E0,-2.893529E-1,2E0,4.480232E-2,-1.7888077E-2,7.3604114E-2,-5.075525E-2,4.6997324E-2,6.9476336E-2,-1.2647043E-2,3.0751064E-2],"split_indices":[2,1,1,0,0,2,6,0,0,0,0,0,0,0,0],"split_type":[0,0,0,0,0,0,0,0,0,0,0,0,0,0,0],"sum_hessian":[8.062895E2,4.130375E2,3.9325198E2,9.5113434E1,3.1792407E2,1.09123245E2,2.8412872E2,5.5592945E1,3.9520493E1,5.0248756E0,3.1289917E2,2.761914E1,8.1504105E1,7.738E1,2.0674873E2],"tree_param":{"num_deleted":"0","num_feature":"8","num_nodes":"15","size_leaf_vector":"1"}},{"base_weights":[1.7682659E-2,6.4364904E-1,-6.4975214E-1,1.8326901E-1,1.0748695E0,-9.799202E-1,-3.127128E-2,3.928102E-2,-2.5337985E-2,2.8426362E-2,5.952803E-2,-5.7287283E-2,-1.9083116E-2,-1.7036116E-2,3.775431E-2],"categories":[],"categories_nodes":[],"categories_segments":[],"categories_sizes":[],"default_left":[0,0,0,0,0,0,0,0,0,0,0,0,0,0,0],"id":16,"left_children":[1,3,5,7,9,11,13,-1,-1,-1,-1,-1,-1,-1,-1],"loss_changes":[3.521357E2,8.614609E1,8.326904E1,8.832866E1,1.2466431E1,2.5943527E1,3.5056683E1,0E0,0E0,0E0,0E0,0E0,0E0,0E0,0E0],"parents":[2147483647,0,0,1,1,2,2,3,3,4,4,5,5,6,6],"right_children":[2,4,6,8,10,12,14,-1,-1,-1,-1,-1,-1,-1,-1],"split_conditions":[-1.3242779E0,4E0,-1.2131705E0,5.02327E1,-1.3771458E0,1E1,1.3E1,3.928102E-2,-2.5337985E-2,2.8426362E-2,5.952803E-2,-5.7287283E-2,-1.9083116E-2,-1.7036116E-2,3.775431E-2],"split_indices":[1,6,2,0,2,7,7,0,0,0,0,0,0,0,0],"split_type":[0,0,0,0,0,0,0,0,0,0,0,0,0,0,0],"sum_hessian":[8.408489E2,4.3392227E2,4.069266E2,2.1055469E2,2.2336758E2,2.6491873E2,1.4200786E2,1.1234557E2,9.8209114E1,4.2643776E1,1.8072382E2,2.0670815E2,5.8210594E1,1.02312195E2,3.9695667E1],"tree_param":{"num_deleted":"0","num_feature":"8","num_nodes":"15","size_leaf_vector":"1"}},{"base_weights":[1.1873644E-2,5.703161E-1,-8.223073E-1,-1.3936988E-1,8.4855914E-1,-1.2005018E0,-3.6883295E-1,3.7984997E-2,-2.7245278E-2,4.545669E-2,-2.3439417E-2,4.5306787E-2,-6.448095E-2,-3.4244698E-2,9.842373E-3],"categories":[],"categories_nodes":[],"categories_segments":[],"categories_sizes":[],"default_left":[0,0,0,0,0,0,0,0,0,0,0,0,0,0,0],"id":17,"left_children":[1,3,5,7,9,11,13,-1,-1,-1,-1,-1,-1,-1,-1],"loss_changes":[3.9966043E2,1.0159325E2,5.8559967E1,5.3497437E1,2.9895233E1,3.6302795E1,2.8364113E1,0E0,0E0,0E0,0E0,0E0,0E0,0E0,0E0],"parents":[2147483647,0,0,1,1,2,2,3,3,4,4,5,5,6,6],"right_children":[2,4,6,8,10,12,14,-1,-1,-1,-1,-1,-1,-1,-1],"split_conditions":[-8.95514E-1,2E0,-2.111389E0,3.4247543E1,1.1141288E2,2.0495901E1,1E1,3.7984997E-2,-2.7245278E-2,4.545669E-2,-2.3439417E-2,4.5306787E-2,-6.448095E-2,-3.4244698E-2,9.842373E-3],"split_indices":[1,6,2,0,0,0,7,0,0,0,0,0,0,0,0],"split_type":[0,0,0,0,0,0,0,0,0,0,0,0,0,0,0],"sum_hessian":[8.5592444E2,5.1288794E2,3.430365E2,1.4459178E2,3.6829617E2,1.8614528E2,1.5689124E2,4.4674778E1,9.9917E1,3.5240182E2,1.5894367E1,7.1828322E0,1.7896245E2,1.00518234E2,5.6373E1],"tree_param":{"num_deleted":"0","num_feature":"8","num_nodes":"15","size_leaf_vector":"1"}},{"base_weights":[-3.4460858E-3,4.9728462E-1,-7.965967E-1,1.13134734E-1,9.346656E-1,-3.425284E-1,-1.0652184E0,-1.5102762E-2,3.9152257E-2,3.914597E-2,6.2431265E-2,-3.4498014E-2,1.1953383E-2,-5.7775725E-2,2.5145838E-2],"categories":[],"categories_nodes":[],"categories_segments":[],"categories_sizes":[],"default_left":[0,0,0,0,0,0,0,0,0,0,0,0,0,0,0],"id":18,"left_children":[1,3,5,7,9,11,13,-1,-1,-1,-1,-1,-1,-1,-1],"loss_changes":[3.2428494E2,8.399356E1,3.817737E1,7.467228E1,1.0166519E1,2.4195885E1,2.8626266E1,0E0,0E0,0E0,0E0,0E0,0E0,0E0,0E0],"parents":[2147483647,0,0,1,1,2,2,3,3,4,4,5,5,6,6],"right_children":[2,4,6,8,10,12,14,-1,-1,-1,-1,-1,-1,-1,-1],"split_conditions":[-8.846828E-1,4E0,5.923463E1,2.4291927E-2,-1.6331498E-1,-1.4258068E0,1.9E1,-1.5102762E-2,3.9152257E-2,3.914597E-2,6.2431265E-2,-3.4498014E-2,1.1953383E-2,-5.7775725E-2,2.5145838E-2],"split_indices":[1,6,0,4,2,2,7,0,0,0,0,0,0,0,0],"split_type":[0,0,0,0,0,0,0,0,0,0,0,0,0,0,0],"sum_hessian":[8.1452277E2,4.9953198E2,3.1499078E2,2.666197E2,2.3291228E2,1.17926796E2,1.9706398E2,1.6494249E2,1.016772E2,1.5937514E2,7.353715E1,7.370866E1,4.421814E1,1.865833E2,1.0480678E1],"tree_param":{"num_deleted":"0","num_feature":"8","num_nodes":"15","size_leaf_vector":"1"}},{"base_weights":[-2.5346506E-4,6.001702E-1,-6.2794614E-1,2.4884817E-1,1.0240867E0,-9.8631746E-1,1.0644039E-2,4.599741E-2,-1.2650969E-2,6.424289E-2,2.9907344E-2,5.056461E-3,-5.3617246E-2,-4.222412E-2,2.0346135E-2],"categories":[],"categories_nodes":[],"categories_segments":[],"categories_sizes":[],"default_left":[0,0,0,0,0,0,0,0,0,0,0,0,0,0,0],"id":19,"left_children":[1,3,5,7,9,11,13,-1,-1,-1,-1,-1,-1,-1,-1],"loss_changes":[3.0294235E2,6.0930664E1,8.9945496E1,7.634082E1,1.987535E1,2.3657852E1,4.8548412E1,0E0,0E0,0E0,0E0,0E0,0E0,0E0,0E0],"parents":[2147483647,0,0,1,1,2,2,3,3,4,4,5,5,6,6],"right_children":[2,4,6,8,10,12,14,-1,-1,-1,-1,-1,-1,-1,-1],"split_conditions":[-1.3989966E0,2.4291927E-2,-1.1599019E0,3.32757E1,-2.8820133E0,2.4117865E1,2E0,4.599741E-2,-1.2650969E-2,6.424289E-2,2.9907344E-2,5.056461E-3,-5.3617246E-2,-4.222412E-2,2.0346135E-2],"split_indices":[1,4,2,0,1,0,6,0,0,0,0,0,0,0,0],"split_type":[0,0,0,0,0,0,0,0,0,0,0,0,0,0,0],"sum_hessian":[8.018133E2,4.0983075E2,3.9198254E2,2.2497179E2,1.8485898E2,2.507303E2,1.4125223E2,9.5900314E1,1.2907147E2,1.1341E2,7.1448975E1,1.836817E1,2.3236214E2,4.4371758E1,9.688048E1],"tree_param":{"num_deleted":"0","num_feature":"8","num_nodes":"15","size_leaf_vector":"1"}},{"base_weights":[4.2060944E-3,-5.324432E-1,6.420503E-1,4.5528767E-1,-8.011029E-1,4.3945992E-1,1.1630766E0,5.402266E-2,3.4807723E-3,-4.9012434E-2,1.8271184E-2,4.641623E-2,5.675825E-3,6.159389E-2,2.3568016E-2],"categories":[],"categories_nodes":[],"categories_segments":[],"categories_sizes":[],"default_left":[0,0,0,0,0,0,0,0,0,0,0,0,0,0,0],"id":20,"left_children":[1,3,5,7,9,11,13,-1,-1,-1,-1,-1,-1,-1,-1],"loss_changes":[2.6849554E2,1.1340713E2,3.7319794E1,2.2041502E1,7.042064E1,4.1270443E1,4.165756E0,0E0,0E0,0E0,0E0,0E0,0E0,0E0,0E0],"parents":[2147483647,0,0,1,1,2,2,3,3,4,4,5,5,6,6],"right_children":[2,4,6,8,10,12,14,-1,-1,-1,-1,-1,-1,-1,-1],"split_conditions":[-7.9749334E-1,3.296454E1,-1.3258001E-1,-3.3609548E0,5.8488663E-2,3.3643223E1,-2.463801E0,5.402266E-2,3.4807723E-3,-4.9012434E-2,1.8271184E-2,4.641623E-2,5.675825E-3,6.159389E-2,2.3568016E-2],"split_indices":[2,0,2,1,4,0,1,0,0,0,0,0,0,0,0],"split_type":[0,0,0,0,0,0,0,0,0,0,0,0,0,0,0],"sum_hessian":[7.82391E2,4.249908E2,3.5740015E2,9.072915E1,3.3426166E2,2.586664E2,9.873372E1,3.392922E1,5.6799934E1,2.8990073E2,4.436095E1,1.0273369E2,1.5593274E2,8.9091385E1,9.642336E0],"tree_param":{"num_deleted":"0","num_feature":"8","num_nodes":"15","size_leaf_vector":"1"}},{"base_weights":[2.796949E-2,5.672994E-1,-5.923214E-1,1.6318654E-1,9.597811E-1,-7.1133085E-2,-9.09044E-1,-1.2172889E-2,3.965976E-2,4.031123E-2,6.34144E-2,-1.6743965E-2,4.0998247E-2,-5.2985486E-2,8.757542E-3],"categories":[],"categories_nodes":[],"categories_segments":[],"categories_sizes":[],"default_left":[0,0,0,0,0,0,0,0,0,0,0,0,0,0,0],"id":21,"left_children":[1,3,5,7,9,11,13,-1,-1,-1,-1,-1,-1,-1,-1],"loss_changes":[2.6380008E2,6.673926E1,6.047824E1,5.3739616E1,9.103973E0,3.3111923E1,3.7437347E1,0E0,0E0,0E0,0E0,0E0,0E0,0E0,0E0],"parents":[2147483647,0,0,1,1,2,2,3,3,4,4,5,5,6,6],"right_children":[2,4,6,8,10,12,14,-1,-1,-1,-1,-1,-1,-1,-1],"split_conditions":[-1.3242779E0,4E0,5.5501713E1,2.5401987E-2,-1.3258001E-1,-5.664053E-1,5E0,-1.2172889E-2,3.965976E-2,4.031123E-2,6.34144E-2,-1.6743965E-2,4.0998247E-2,-5.2985486E-2,8.757542E-3],"split_indices":[1,6,0,4,2,2,6,0,0,0,0,0,0,0,0],"split_type":[0,0,0,0,0,0,0,0,0,0,0,0,0,0,0],"sum_hessian":[7.8653784E2,4.207714E2,3.6576645E2,2.0801138E2,2.1276001E2,1.3871922E2,2.2704724E2,1.2678835E2,8.122303E1,1.4446645E2,6.8293564E1,1.0751982E2,3.1199404E1,1.9936497E2,2.7682262E1],"tree_param":{"num_deleted":"0","num_feature":"8","num_nodes":"15","size_leaf_vector":"1"}},{"base_weights":[3.3209767E-2,3.5481465E-1,-8.5221934E-1,1.5463678E-2,7.9819787E-1,-6.427092E-2,-5.427247E-1,2.421221E-2,-1.6512549E-2,2.4940899E-2,5.4564286E-2,2.7743478E-3,-4.0460624E-2],"categories":[],"categories_nodes":[],"categories_segments":[],"categories_sizes":[],"default_left":[0,0,0,0,0,0,0,0,0,0,0,0,0],"id":22,"left_children":[1,3,5,7,9,-1,11,-1,-1,-1,-1,-1,-1],"loss_changes":[2.1989923E2,8.521011E1,2.6889984E1,5.2322136E1,2.100061E1,0E0,1.945383E1,0E0,0E0,0E0,0E0,0E0,0E0],"parents":[2147483647,0,0,1,1,2,2,3,3,4,4,6,6],"right_children":[2,4,6,8,10,-1,12,-1,-1,-1,-1,-1,-1],"split_conditions":[-3.4464508E-1,4E0,5E0,5.02327E1,5.661206E-3,-6.427092E-2,5.3398155E1,2.421221E-2,-1.6512549E-2,2.4940899E-2,5.4564286E-2,2.7743478E-3,-4.0460624E-2],"split_indices":[1,6,7,0,4,0,0,0,0,0,0,0,0],"split_type":[0,0,0,0,0,0,0,0,0,0,0,0,0],"sum_hessian":[7.701691E2,5.654031E2,2.0476602E2,3.2086127E2,2.4454182E2,8.401588E1,1.20750145E2,1.3602034E2,1.8484094E2,1.22309E2,1.2223283E2,3.745745E1,8.3292694E1],"tree_param":{"num_deleted":"0","num_feature":"8","num_nodes":"13","size_leaf_vector":"1"}},{"base_weights":[-4.833867E-3,-4.8803717E-1,5.7824546E-1,5.6928533E-1,-7.015747E-1,3.335386E-1,1.0376536E0,4.9530618E-2,-1.7250303E-4,-4.958992E-2,-7.7052265E-3,3.92699E-2,2.226101E-3,3.43073E-2,5.6037225E-2],"categories":[],"categories_nodes":[],"categories_segments":[],"categories_sizes":[],"default_left":[0,0,0,0,0,0,0,0,0,0,0,0,0,0,0],"id":23,"left_children":[1,3,5,7,9,11,13,-1,-1,-1,-1,-1,-1,-1,-1],"loss_changes":[2.085691E2,9.1794624E1,3.7367653E1,1.6549772E1,5.3429596E1,2.8742353E1,2.622383E0,0E0,0E0,0E0,0E0,0E0,0E0,0E0,0E0],"parents":[2147483647,0,0,1,1,2,2,3,3,4,4,5,5,6,6],"right_children":[2,4,6,8,10,12,14,-1,-1,-1,-1,-1,-1,-1,-1],"split_conditions":[-7.9749334E-1,-3.3609548E0,-1.6331498E-1,4.24838E1,3E0,3.4247543E1,7E0,4.9530618E-2,-1.7250303E-4,-4.958992E-2,-7.7052265E-3,3.92699E-2,2.226101E-3,3.43073E-2,5.6037225E-2],"split_indices":[2,1,2,0,6,0,7,0,0,0,0,0,0,0,0],"split_type":[0,0,0,0,0,0,0,0,0,0,0,0,0,0,0],"sum_hessian":[7.382722E2,4.0380133E2,3.3447092E2,6.756918E1,3.3623215E2,2.1935567E2,1.15115265E2,3.8510044E1,2.9059141E1,2.192122E2,1.1701993E2,8.49009E1,1.3445476E2,2.3778872E1,9.1336395E1],"tree_param":{"num_deleted":"0","num_feature":"8","num_nodes":"15","size_leaf_vector":"1"}},{"base_weights":[-2.6624845E-2,6.681436E-1,-4.2070886E-1,3.0863655E-1,1.0008738E0,-8.330045E-1,1.6619971E-1,-6.1983713E-3,4.8612893E-2,5.200913E-2,5.1822993E-3,-6.653072E-2,-3.0810995E-2,-5.6594615E-3,2.9856151E-2],"categories":[],"categories_nodes":[],"categories_segments":[],"categories_sizes":[],"default_left":[0,0,0,0,0,0,0,0,0,0,0,0,0,0,0],"id":24,"left_children":[1,3,5,7,9,11,13,-1,-1,-1,-1,-1,-1,-1,-1],"loss_changes":[1.9917924E2,3.1187363E1,1.1245056E2,3.686913E1,4.6993103E0,2.8607056E1,2.32254E1,0E0,0E0,0E0,0E0,0E0,0E0,0E0,0E0],"parents":[2147483647,0,0,1,1,2,2,3,3,4,4,5,5,6,6],"right_children":[2,4,6,8,10,12,14,-1,-1,-1,-1,-1,-1,-1,-1],"split_conditions":[-2.2373033E0,4.5262426E-3,-9.3907565E-1,-3.0623415E-1,3.182026E-1,4E0,1.1E1,-6.1983713E-3,4.8612893E-2,5.200913E-2,5.1822993E-3,-6.653072E-2,-3.0810995E-2,-5.6594615E-3,2.9856151E-2],"split_indices":[1,4,2,2,4,7,7,0,0,0,0,0,0,0,0],"split_type":[0,0,0,0,0,0,0,0,0,0,0,0,0,0,0],"sum_hessian":[7.2544354E2,2.6230518E2,4.6313834E2,1.2700591E2,1.3529927E2,2.7179007E2,1.9134827E2,7.7377785E1,4.9628128E1,1.2946779E2,5.8314867E0,8.091619E1,1.9087387E2,1.1653208E2,7.481619E1],"tree_param":{"num_deleted":"0","num_feature":"8","num_nodes":"15","size_leaf_vector":"1"}},{"base_weights":[1.5698127E-2,-4.5461738E-1,5.7290727E-1,4.255673E-1,-7.3471296E-1,2.4646825E-1,9.1293615E-1,4.5372758E-2,2.5844425E-3,-5.417257E-2,-4.8599155E-3,3.224897E-2,-9.4657475E-3,5.6767613E-2,3.3557516E-2],"categories":[],"categories_nodes":[],"categories_segments":[],"categories_sizes":[],"default_left":[0,0,0,0,0,0,0,0,0,0,0,0,0,0,0],"id":25,"left_children":[1,3,5,7,9,11,13,-1,-1,-1,-1,-1,-1,-1,-1],"loss_changes":[2.0018394E2,1.02441246E2,3.8583E1,1.8084368E1,6.984259E1,3.1337807E1,8.427338E0,0E0,0E0,0E0,0E0,0E0,0E0,0E0,0E0],"parents":[2147483647,0,0,1,1,2,2,3,3,4,4,5,5,6,6],"right_children":[2,4,6,8,10,12,14,-1,-1,-1,-1,-1,-1,-1,-1],"split_conditions":[-7.9749334E-1,-2.3503492E0,4E0,3.1899988E1,3E0,5.116503E1,-2.3093731E0,4.5372758E-2,2.5844425E-3,-5.417257E-2,-4.8599155E-3,3.224897E-2,-9.4657475E-3,5.6767613E-2,3.3557516E-2],"split_indices":[2,1,6,0,6,0,1,0,0,0,0,0,0,0,0],"split_type":[0,0,0,0,0,0,0,0,0,0,0,0,0,0,0],"sum_hessian":[7.618802E2,4.1325452E2,3.486257E2,9.963566E1,3.1361887E2,1.7874727E2,1.6987843E2,4.2906628E1,5.6729027E1,2.0227129E2,1.11347565E2,9.311566E1,8.5631615E1,8.655852E1,8.3319916E1],"tree_param":{"num_deleted":"0","num_feature":"8","num_nodes":"15","size_leaf_vector":"1"}},{"base_weights":[2.2899773E-2,3.2359138E-1,-8.799352E-1,3.5346426E-2,8.069309E-1,2.3648906E-2,-9.564895E-1,3.6864888E-2,-1.7102053E-2,5.990212E-2,2.3242133E-2,-6.144763E-2,-3.7286468E-2],"categories":[],"categories_nodes":[],"categories_segments":[],"categories_sizes":[],"default_left":[0,0,0,0,0,0,0,0,0,0,0,0,0],"id":26,"left_children":[1,3,5,7,9,-1,11,-1,-1,-1,-1,-1,-1],"loss_changes":[1.9642078E2,7.558161E1,1.9175568E1,9.058867E1,2.656279E1,0E0,8.9275055E0,0E0,0E0,0E0,0E0,0E0,0E0],"parents":[2147483647,0,0,1,1,2,2,3,3,4,4,6,6],"right_children":[2,4,6,8,10,-1,12,-1,-1,-1,-1,-1,-1],"split_conditions":[-3.4464508E-1,2.8265573E-2,2.0495901E1,3.3643223E1,-2.919187E0,2.3648906E-2,5E0,3.6864888E-2,-1.7102053E-2,5.990212E-2,2.3242133E-2,-6.144763E-2,-3.7286468E-2],"split_indices":[1,4,0,0,1,0,7,0,0,0,0,0,0],"split_type":[0,0,0,0,0,0,0,0,0,0,0,0,0],"sum_hessian":[7.214832E2,5.4170764E2,1.7977559E2,3.4001123E2,2.0169638E2,9.350451E0,1.7042513E2,1.18550415E2,2.2146083E2,9.293786E1,1.0875852E2,7.2224655E1,9.820048E1],"tree_param":{"num_deleted":"0","num_feature":"8","num_nodes":"13","size_leaf_vector":"1"}},{"base_weights":[2.430621E-2,-4.4068027E-1,4.9962142E-1,-6.873563E-1,3.3755475E-1,2.5836015E-1,9.91946E-1,-1.262176E-2,-4.8013926E-2,5.1721573E-2,-1.2800909E-2,3.396071E-2,-6.9044984E-4,3.4181185E-2,5.842319E-2],"categories":[],"categories_nodes":[],"categories_segments":[],"categories_sizes":[],"default_left":[0,0,0,0,0,0,0,0,0,0,0,0,0,0,0],"id":27,"left_children":[1,3,5,7,9,11,13,-1,-1,-1,-1,-1,-1,-1,-1],"loss_changes":[1.5832162E2,6.975103E1,4.181649E1,3.2435944E1,3.6594868E1,2.7393337E1,5.522072E0,0E0,0E0,0E0,0E0,0E0,0E0,0E0,0E0],"parents":[2147483647,0,0,1,1,2,2,3,3,4,4,5,5,6,6],"right_children":[2,4,6,8,10,12,14,-1,-1,-1,-1,-1,-1,-1,-1],"split_conditions":[-9.3907565E-1,3.0114055E-2,-1.8100655E-1,5.8263733E1,-1.8246937E0,3.8349518E1,-1.03658706E-1,-1.262176E-2,-4.8013926E-2,5.1721573E-2,-1.2800909E-2,3.396071E-2,-6.9044984E-4,3.4181185E-2,5.842319E-2],"split_indices":[2,4,2,0,1,0,2,0,0,0,0,0,0,0,0],"split_type":[0,0,0,0,0,0,0,0,0,0,0,0,0,0,0],"sum_hessian":[7.1434216E2,3.6113126E2,3.532109E2,2.743027E2,8.682855E1,2.3807043E2,1.1514048E2,1.0650474E2,1.6779797E2,3.9597218E1,4.723133E1,9.290942E1,1.4516101E2,4.369376E1,7.1446724E1],"tree_param":{"num_deleted":"0","num_feature":"8","num_nodes":"15","size_leaf_vector":"1"}},{"base_weights":[-1.0490895E-2,-3.3989242E-1,5.5325013E-1,2.0451657E-1,-6.649335E-1,6.897886E-1,-2.607745E-1,4.512173E-2,-2.6701242E-3,-4.4402715E-2,3.0489147E-3,3.9475847E-2,1.2045115E-3,-4.962049E-2,2.0534432E-2],"categories":[],"categories_nodes":[],"categories_segments":[],"categories_sizes":[],"default_left":[0,0,0,0,0,0,0,0,0,0,0,0,0,0,0],"id":28,"left_children":[1,3,5,7,9,11,13,-1,-1,-1,-1,-1,-1,-1,-1],"loss_changes":[1.3091617E2,7.887522E1,2.9079834E1,3.01298E1,4.5218803E1,1.4782013E1,1.9112347E1,0E0,0E0,0E0,0E0,0E0,0E0,0E0,0E0],"parents":[2147483647,0,0,1,1,2,2,3,3,4,4,5,5,6,6],"right_children":[2,4,6,8,10,12,14,-1,-1,-1,-1,-1,-1,-1,-1],"split_conditions":[4E0,5.081523E1,-3.1177327E-1,-3.0540195E0,2.5401987E-2,8.0258224E1,2E0,4.512173E-2,-2.6701242E-3,-4.4402715E-2,3.0489147E-3,3.9475847E-2,1.2045115E-3,-4.962049E-2,2.0534432E-2],"split_indices":[6,0,1,1,4,0,5,0,0,0,0,0,0,0,0],"split_type":[0,0,0,0,0,0,0,0,0,0,0,0,0,0,0],"sum_hessian":[7.0298553E2,4.439668E2,2.5901874E2,1.6611415E2,2.7785263E2,2.219441E2,3.7074627E1,4.414925E1,1.21964905E2,2.123577E2,6.549495E1,1.9286497E2,2.907913E1,1.7513597E1,1.9561031E1],"tree_param":{"num_deleted":"0","num_feature":"8","num_nodes":"15","size_leaf_vector":"1"}},{"base_weights":[6.1559767E-2,2.8007868E-1,-9.252754E-1,9.102877E-3,8.2321256E-1,-6.0022183E-2,-7.885996E-1,-1.0905899E-2,3.401356E-2,2.9758189E-2,5.1803913E-2,-4.352019E-2,-9.435303E-3],"categories":[],"categories_nodes":[],"categories_segments":[],"categories_sizes":[],"default_left":[0,0,0,0,0,0,0,0,0,0,0,0,0],"id":29,"left_children":[1,3,5,7,9,-1,11,-1,-1,-1,-1,-1,-1],"loss_changes":[1.5654909E2,8.7435745E1,4.003601E0,6.075205E1,8.982788E0,0E0,4.2945175E0,0E0,0E0,0E0,0E0,0E0,0E0],"parents":[2147483647,0,0,1,1,2,2,3,3,4,4,6,6],"right_children":[2,4,6,8,10,-1,12,-1,-1,-1,-1,-1,-1],"split_conditions":[-1.2923034E-1,5E0,4E0,-3.0623415E-1,-4.6800035E-1,-6.0022183E-2,-2.5112433E0,-1.0905899E-2,3.401356E-2,2.9758189E-2,5.1803913E-2,-4.352019E-2,-9.435303E-3],"split_indices":[1,6,7,2,2,0,2,0,0,0,0,0,0],"split_type":[0,0,0,0,0,0,0,0,0,0,0,0,0],"sum_hessian":[7.2376526E2,5.9314E2,1.3062523E2,3.9639212E2,1.967479E2,4.0766727E1,8.9858505E1,2.966408E2,9.975133E1,9.681901E1,9.992889E1,7.867861E1,1.11798935E1],"tree_param":{"num_deleted":"0","num_feature":"8","num_nodes":"13","size_leaf_vector":"1"}},{"base_weights":[1.3889824E-2,-5.6435597E-1,3.9246404E-1,-8.127146E-1,3.4353012E-1,1.3021493E-1,8.120393E-1,4.8881914E-3,-4.795831E-2,-2.8168246E-2,4.1858654E-2,1.30771315E-2,-3.5915006E-2,2.782522E-2,5.3094815E-2],"categories":[],"categories_nodes":[],"categories_segments":[],"categories_sizes":[],"default_left":[0,0,0,0,0,0,0,0,0,0,0,0,0,0,0],"id":30,"left_children":[1,3,5,7,9,11,13,-1,-1,-1,-1,-1,-1,-1,-1],"loss_changes":[1.5333437E2,6.2770943E1,4.6470016E1,2.9150711E1,2.7437183E1,2.9346718E1,9.79174E0,0E0,0E0,0E0,0E0,0E0,0E0,0E0,0E0],"parents":[2147483647,0,0,1,1,2,2,3,3,4,4,5,5,6,6],"right_children":[2,4,6,8,10,12,14,-1,-1,-1,-1,-1,-1,-1,-1],"split_conditions":[-1.3620498E0,5E0,-2.9834956E-1,-3.43023E0,2E0,1.0979129E2,-1.3258001E-1,4.8881914E-3,-4.795831E-2,-2.8168246E-2,4.1858654E-2,1.30771315E-2,-3.5915006E-2,2.782522E-2,5.3094815E-2],"split_indices":[2,6,2,1,5,0,2,0,0,0,0,0,0,0,0],"split_type":[0,0,0,0,0,0,0,0,0,0,0,0,0,0,0],"sum_hessian":[6.984363E2,2.7614825E2,4.2228802E2,2.169146E2,5.9233677E1,2.6067035E2,1.6161768E2,3.0102444E1,1.8681215E2,2.0828114E1,3.8405563E1,2.2633192E2,3.4338432E1,8.149649E1,8.012118E1],"tree_param":{"num_deleted":"0","num_feature":"8","num_nodes":"15","size_leaf_vector":"1"}},{"base_weights":[4.0171806E-2,2.5346157E-1,-8.996151E-1,1.804216E-3,6.931555E-1,-5.9631623E-2,-6.6072726E-1,3.0622957E-2,-1.4743633E-2,5.4962136E-2,2.0498132E-2,-4.5588333E-2,4.569065E-3],"categories":[],"categories_nodes":[],"categories_segments":[],"categories_sizes":[],"default_left":[0,0,0,0,0,0,0,0,0,0,0,0,0],"id":31,"left_children":[1,3,5,7,9,-1,11,-1,-1,-1,-1,-1,-1],"loss_changes":[1.4162802E2,6.3703285E1,8.361145E0,6.669703E1,2.3649353E1,0E0,1.4101509E1,0E0,0E0,0E0,0E0,0E0,0E0],"parents":[2147483647,0,0,1,1,2,2,3,3,4,4,6,6],"right_children":[2,4,6,8,10,-1,12,-1,-1,-1,-1,-1,-1],"split_conditions":[-1.5800284E-1,2.8265573E-2,-3.9621716E0,3.3643223E1,-2.8820133E0,-5.9631623E-2,-3.286385E-2,3.0622957E-2,-1.4743633E-2,5.4962136E-2,2.0498132E-2,-4.5588333E-2,4.569065E-3],"split_indices":[1,4,2,0,1,0,1,0,0,0,0,0,0],"split_type":[0,0,0,0,0,0,0,0,0,0,0,0,0],"sum_hessian":[7.044237E2,5.747185E2,1.297052E2,3.6615503E2,2.0856348E2,5.645978E1,7.324541E1,1.19376335E2,2.4677869E2,8.450504E1,1.2405844E2,5.475647E1,1.848894E1],"tree_param":{"num_deleted":"0","num_feature":"8","num_nodes":"13","size_leaf_vector":"1"}},{"base_weights":[4.0157687E-2,6.6300905E-1,-2.4759783E-1,7.4730206E-1,-4.2693648E-1,-7.4834764E-1,7.9399824E-2,2.4408799E-2,5.1250454E-2,-4.693336E-2,1.8490333E-2,-9.243743E-3,-5.2002054E-2,-1.8484427E-2,1.9020982E-2],"categories":[],"categories_nodes":[],"categories_segments":[],"categories_sizes":[],"default_left":[0,0,0,0,0,0,0,0,0,0,0,0,0,0,0],"id":32,"left_children":[1,3,5,7,9,11,13,-1,-1,-1,-1,-1,-1,-1,-1],"loss_changes":[1.295323E2,2.1300026E1,8.102086E1,1.4779495E1,7.2904177E0,3.1927498E1,4.0698334E1,0E0,0E0,0E0,0E0,0E0,0E0,0E0,0E0],"parents":[2147483647,0,0,1,1,2,2,3,3,4,4,5,5,6,6],"right_children":[2,4,6,8,10,12,14,-1,-1,-1,-1,-1,-1,-1,-1],"split_conditions":[-2.3804097E0,1.09126724E2,6E0,2.4291927E-2,1E0,5.3811123E1,-1.1599019E0,2.4408799E-2,5.1250454E-2,-4.693336E-2,1.8490333E-2,-9.243743E-3,-5.2002054E-2,-1.8484427E-2,1.9020982E-2],"split_indices":[1,0,7,4,3,0,2,0,0,0,0,0,0,0,0],"split_type":[0,0,0,0,0,0,0,0,0,0,0,0,0,0,0],"sum_hessian":[7.20804E2,2.2736494E2,4.934391E2,2.113353E2,1.602965E1,1.944217E2,2.9901736E2,1.10751686E2,1.0058361E2,9.652152E0,6.3774967E0,6.687368E1,1.2754803E2,1.19904686E2,1.7911269E2],"tree_param":{"num_deleted":"0","num_feature":"8","num_nodes":"15","size_leaf_vector":"1"}},{"base_weights":[2.5689378E-2,-1.9959417E-1,8.0379057E-1,1.7770797E-1,-5.827565E-1,6.0611266E-1,1.119764E0,3.743063E-2,1.1972277E-3,-3.912493E-2,1.7156582E-2,4.6539765E-2,1.8655147E-2,1.9645065E-2,5.9236933E-2],"categories":[],"categories_nodes":[],"categories_segments":[],"categories_sizes":[],"default_left":[0,0,0,0,0,0,0,0,0,0,0,0,0,0,0],"id":33,"left_children":[1,3,5,7,9,11,13,-1,-1,-1,-1,-1,-1,-1,-1],"loss_changes":[1.19011635E2,7.623077E1,8.842148E0,2.3340351E1,4.8629387E1,6.911499E0,2.2492523E0,0E0,0E0,0E0,0E0,0E0,0E0,0E0,0E0],"parents":[2147483647,0,0,1,1,2,2,3,3,4,4,5,5,6,6],"right_children":[2,4,6,8,10,12,14,-1,-1,-1,-1,-1,-1,-1,-1],"split_conditions":[-2.9834956E-1,5.9792774E1,-8.948409E-2,-3.234882E0,5E0,3.2547634E1,1.4799299E1,3.743063E-2,1.1972277E-3,-3.912493E-2,1.7156582E-2,4.6539765E-2,1.8655147E-2,1.9645065E-2,5.9236933E-2],"split_indices":[2,0,2,1,6,0,0,0,0,0,0,0,0,0,0],"split_type":[0,0,0,0,0,0,0,0,0,0,0,0,0,0,0],"sum_hessian":[6.77013E2,5.2558417E2,1.5142885E2,2.6508734E2,2.6049683E2,9.494685E1,5.648199E1,5.5426605E1,2.0966075E2,2.1439929E2,4.6097538E1,3.841859E1,5.6528263E1,5.212902E0,5.126909E1],"tree_param":{"num_deleted":"0","num_feature":"8","num_nodes":"15","size_leaf_vector":"1"}},{"base_weights":[4.7107853E-2,7.2568786E-1,-1.6587211E-1,2.3748358E-1,5.4837465E-2,-5.9645396E-1,1.8739602E-1,3.5863053E-2,-7.101732E-3,-4.0371757E-2,1.4635041E-2,-2.0725867E-2,1.7446194E-2],"categories":[],"categories_nodes":[],"categories_segments":[],"categories_sizes":[],"default_left":[0,0,0,0,0,0,0,0,0,0,0,0,0],"id":34,"left_children":[1,3,5,7,-1,9,11,-1,-1,-1,-1,-1,-1],"loss_changes":[9.609007E1,2.8509491E1,7.71141E1,1.2821984E1,0E0,4.308043E1,2.7254951E1,0E0,0E0,0E0,0E0,0E0,0E0],"parents":[2147483647,0,0,1,1,2,2,3,3,5,5,6,6],"right_children":[2,4,6,8,-1,10,12,-1,-1,-1,-1,-1,-1],"split_conditions":[-2.919187E0,1.1892179E-2,-1.1769807E0,3.32757E1,5.4837465E-2,5E0,5E0,3.5863053E-2,-7.101732E-3,-4.0371757E-2,1.4635041E-2,-2.0725867E-2,1.7446194E-2],"split_indices":[1,4,2,0,0,6,7,0,0,0,0,0,0],"split_type":[0,0,0,0,0,0,0,0,0,0,0,0,0],"sum_hessian":[6.630401E2,1.5781502E2,5.052251E2,6.8858345E1,8.895667E1,2.2738629E2,2.778388E2,3.0019066E1,3.883928E1,1.8385303E2,4.3533257E1,5.845338E1,2.1938542E2],"tree_param":{"num_deleted":"0","num_feature":"8","num_nodes":"13","size_leaf_vector":"1"}},{"base_weights":[6.7177215E-3,2.3126937E-1,-7.2516316E-1,-2.6340807E-2,6.77422E-1,-8.067478E-1,2.8806636E-2,3.0547528E-2,-1.7600385E-2,1.1815875E-2,4.1995402E-2,-4.3011565E-2,6.548857E-3],"categories":[],"categories_nodes":[],"categories_segments":[],"categories_sizes":[],"default_left":[0,0,0,0,0,0,0,0,0,0,0,0,0],"id":35,"left_children":[1,3,5,7,9,11,-1,-1,-1,-1,-1,-1,-1],"loss_changes":[1.0872181E2,5.819776E1,1.695449E1,6.701808E1,1.3084908E1,7.463745E0,0E0,0E0,0E0,0E0,0E0,0E0,0E0],"parents":[2147483647,0,0,1,1,2,2,3,3,4,4,5,5],"right_children":[2,4,6,8,10,12,-1,-1,-1,-1,-1,-1,-1],"split_conditions":[-3.4464508E-1,2.7136713E-2,2.1E1,3.296454E1,2E0,-1.4258068E0,2.8806636E-2,3.0547528E-2,-1.7600385E-2,1.1815875E-2,4.1995402E-2,-4.3011565E-2,6.548857E-3],"split_indices":[1,4,7,0,6,2,0,0,0,0,0,0,0],"split_type":[0,0,0,0,0,0,0,0,0,0,0,0,0],"sum_hessian":[6.595255E2,5.0520523E2,1.5432028E2,3.2087296E2,1.8433228E2,1.455736E2,8.746679E0,1.0822112E2,2.1265184E2,5.0282818E1,1.3404945E2,1.3779694E2,7.7766604E0],"tree_param":{"num_deleted":"0","num_feature":"8","num_nodes":"13","size_leaf_vector":"1"}},{"base_weights":[7.455017E-2,6.434932E-1,-1.9433516E-1,4.7361663E-1,1.0652884E0,-8.440418E-1,-1.7076368E-2,1.1442362E-2,4.4681594E-2,2.5408795E-2,5.5797268E-2,-5.7819992E-2,-8.401307E-3,-9.230063E-3,1.9505387E-2],"categories":[],"categories_nodes":[],"categories_segments":[],"categories_sizes":[],"default_left":[0,0,0,0,0,0,0,0,0,0,0,0,0,0,0],"id":36,"left_children":[1,3,5,7,9,11,13,-1,-1,-1,-1,-1,-1,-1,-1],"loss_changes":[1.0072651E2,1.46343E1,5.1502945E1,1.5465214E1,1.122261E0,2.0048218E1,2.4114975E1,0E0,0E0,0E0,0E0,0E0,0E0,0E0,0E0],"parents":[2147483647,0,0,1,1,2,2,3,3,4,4,5,5,6,6],"right_children":[2,4,6,8,10,12,14,-1,-1,-1,-1,-1,-1,-1,-1],"split_conditions":[-2.3503492E0,-1.03658706E-1,4E0,3.0114055E-2,5E0,-8.948895E-1,5E0,1.1442362E-2,4.4681594E-2,2.5408795E-2,5.5797268E-2,-5.7819992E-2,-8.401307E-3,-9.230063E-3,1.9505387E-2],"split_indices":[1,2,7,4,7,2,6,0,0,0,0,0,0,0,0],"split_type":[0,0,0,0,0,0,0,0,0,0,0,0,0,0,0],"sum_hessian":[6.566099E2,2.1027956E2,4.4633038E2,1.5141896E2,5.886059E1,9.486394E1,3.5146646E2,9.664354E1,5.477543E1,5.8254466E0,5.3035145E1,6.4397835E1,3.0466106E1,2.4940297E2,1.0206348E2],"tree_param":{"num_deleted":"0","num_feature":"8","num_nodes":"15","size_leaf_vector":"1"}},{"base_weights":[3.9069492E-2,-2.4620594E-1,5.804101E-1,-5.1899374E-1,1.5923977E-1,5.1890332E-2,7.2383666E-1,-2.4020516E-3,-4.0689286E-2,1.5472318E-2,-3.77514E-2,3.3192046E-2,-2.7033655E-2,2.971946E-2,5.466002E-2],"categories":[],"categories_nodes":[],"categories_segments":[],"categories_sizes":[],"default_left":[0,0,0,0,0,0,0,0,0,0,0,0,0,0,0],"id":37,"left_children":[1,3,5,7,9,11,13,-1,-1,-1,-1,-1,-1,-1,-1],"loss_changes":[1.0347612E2,4.8625435E1,1.7489792E1,3.6419662E1,2.4581104E1,1.8646185E1,8.042122E0,0E0,0E0,0E0,0E0,0E0,0E0,0E0,0E0],"parents":[2147483647,0,0,1,1,2,2,3,3,4,4,5,5,6,6],"right_children":[2,4,6,8,10,12,14,-1,-1,-1,-1,-1,-1,-1,-1],"split_conditions":[-5.153174E-1,3E0,6E0,5.8263733E1,-8.605129E-2,3.296454E1,-1.03658706E-1,-2.4020516E-3,-4.0689286E-2,1.5472318E-2,-3.77514E-2,3.3192046E-2,-2.7033655E-2,2.971946E-2,5.466002E-2],"split_indices":[2,6,7,0,1,0,2,0,0,0,0,0,0,0,0],"split_type":[0,0,0,0,0,0,0,0,0,0,0,0,0,0,0],"sum_hessian":[6.681215E2,4.3790155E2,2.3021997E2,2.6160864E2,1.762929E2,4.9430992E1,1.8078897E2,1.0116029E2,1.6044835E2,1.5198462E2,2.4308279E1,2.4258514E1,2.5172478E1,1.3580417E2,4.4984802E1],"tree_param":{"num_deleted":"0","num_feature":"8","num_nodes":"15","size_leaf_vector":"1"}},{"base_weights":[-1.0324258E-3,-3.036476E-1,5.0384617E-1,4.9522328E-1,-5.00393E-1,2.671065E-1,8.709878E-1,3.165447E-2,-4.8794802E-2,-6.231595E-2,-1.7382722E-2,9.6367934E-5,3.9835665E-2,3.5939425E-2,5.282352E-2],"categories":[],"categories_nodes":[],"categories_segments":[],"categories_sizes":[],"default_left":[0,0,0,0,0,0,0,0,0,0,0,0,0,0,0],"id":38,"left_children":[1,3,5,7,9,11,13,-1,-1,-1,-1,-1,-1,-1,-1],"loss_changes":[9.662103E1,6.2394848E1,2.036662E1,1.6567131E1,3.5770065E1,2.0436895E1,1.8510361E0,0E0,0E0,0E0,0E0,0E0,0E0,0E0,0E0],"parents":[2147483647,0,0,1,1,2,2,3,3,4,4,5,5,6,6],"right_children":[2,4,6,8,10,12,14,-1,-1,-1,-1,-1,-1,-1,-1],"split_conditions":[4E0,-2.919187E0,-3.95404E-1,1.1141288E2,3E0,2.891124E-2,-1.2019567E-1,3.165447E-2,-4.8794802E-2,-6.231595E-2,-1.7382722E-2,9.6367934E-5,3.9835665E-2,3.5939425E-2,5.282352E-2],"split_indices":[6,1,2,0,7,4,2,0,0,0,0,0,0,0,0],"split_type":[0,0,0,0,0,0,0,0,0,0,0,0,0,0,0],"sum_hessian":[6.3040173E2,3.9440253E2,2.3599922E2,7.7638725E1,3.167638E2,1.445307E2,9.146852E1,7.150709E1,6.131637E0,5.26208E1,2.6414297E2,9.697703E1,4.755368E1,5.291989E1,3.854863E1],"tree_param":{"num_deleted":"0","num_feature":"8","num_nodes":"15","size_leaf_vector":"1"}},{"base_weights":[8.1752606E-2,3.9500147E-1,-3.120939E-1,7.472079E-1,1.8387814E-1,-5.4075277E-1,2.709605E-1,1.8450895E-2,5.3806927E-2,-2.0191887E-2,1.9701062E-2,-4.3418054E-2,-1.2841967E-2,3.069692E-3,4.141406E-2],"categories":[],"categories_nodes":[],"categories_segments":[],"categories_sizes":[],"default_left":[0,0,0,0,0,0,0,0,0,0,0,0,0,0,0],"id":39,"left_children":[1,3,5,7,9,11,13,-1,-1,-1,-1,-1,-1,-1,-1],"loss_changes":[7.918055E1,2.6435844E1,3.8068222E1,1.6223198E1,2.7917803E1,1.8811695E1,9.385394E0,0E0,0E0,0E0,0E0,0E0,0E0,0E0,0E0],"parents":[2147483647,0,0,1,1,2,2,3,3,4,4,5,5,6,6],"right_children":[2,4,6,8,10,12,14,-1,-1,-1,-1,-1,-1,-1,-1],"split_conditions":[-1.2201629E0,-3.0540195E0,1.1E1,1.1669004E-2,6E0,-2.069722E0,2.891124E-2,1.8450895E-2,5.3806927E-2,-2.0191887E-2,1.9701062E-2,-4.3418054E-2,-1.2841967E-2,3.069692E-3,4.141406E-2],"split_indices":[1,1,7,4,7,2,4,0,0,0,0,0,0,0,0],"split_type":[0,0,0,0,0,0,0,0,0,0,0,0,0,0,0],"sum_hessian":[6.3980414E2,3.563642E2,2.8343994E2,1.3260567E2,2.2375854E2,2.036473E2,7.9792656E1,6.2671085E1,6.993458E1,5.86916E1,1.6506694E2,9.3592354E1,1.1005495E2,5.8794567E1,2.0998089E1],"tree_param":{"num_deleted":"0","num_feature":"8","num_nodes":"15","size_leaf_vector":"1"}},{"base_weights":[7.6331897E-3,2.684026E-1,-5.751736E-1,6.0910206E-2,7.0102924E-1,-5.8366425E-2,-3.836231E-1,-1.9286413E-2,1.4973873E-2,2.547932E-2,5.0956476E-2,8.0403173E-4,-3.844544E-2],"categories":[],"categories_nodes":[],"categories_segments":[],"categories_sizes":[],"default_left":[0,0,0,0,0,0,0,0,0,0,0,0,0],"id":40,"left_children":[1,3,5,7,9,-1,11,-1,-1,-1,-1,-1,-1],"loss_changes":[1.0040213E2,4.092659E1,2.2716621E1,3.3099392E1,8.484108E0,0E0,2.4005033E1,0E0,0E0,0E0,0E0,0E0,0E0],"parents":[2147483647,0,0,1,1,2,2,3,3,4,4,6,6],"right_children":[2,4,6,8,10,-1,12,-1,-1,-1,-1,-1,-1],"split_conditions":[-6.6183686E-1,-2.9834956E-1,4E0,2E0,-1.03658706E-1,-5.8366425E-2,6.3880943E1,-1.9286413E-2,1.4973873E-2,2.547932E-2,5.0956476E-2,8.0403173E-4,-3.844544E-2],"split_indices":[1,2,7,6,2,0,0,0,0,0,0,0,0],"split_type":[0,0,0,0,0,0,0,0,0,0,0,0,0],"sum_hessian":[6.586194E2,4.5539722E2,2.0322218E2,3.0855276E2,1.4684445E2,4.842577E1,1.5479642E2,1.0721368E2,2.0133908E2,9.3297195E1,5.3547253E1,7.644695E1,7.834946E1],"tree_param":{"num_deleted":"0","num_feature":"8","num_nodes":"13","size_leaf_vector":"1"}},{"base_weights":[3.704848E-2,-4.508826E-1,2.9380035E-1,5.8905438E-2,-7.810936E-1,3.2063656E-2,7.3357886E-1,-3.3142269E-3,9.101525E-2,-5.0577898E-2,-3.7244644E-3,-1.672643E-2,1.2535907E-2,3.0175671E-2,5.6049395E-2],"categories":[],"categories_nodes":[],"categories_segments":[],"categories_sizes":[],"default_left":[0,0,0,0,0,0,0,0,0,0,0,0,0,0,0],"id":41,"left_children":[1,3,5,7,9,11,13,-1,-1,-1,-1,-1,-1,-1,-1],"loss_changes":[8.221597E1,3.8140747E1,4.946239E1,1.9942314E1,2.2301361E1,2.1771065E1,7.403595E0,0E0,0E0,0E0,0E0,0E0,0E0,0E0,0E0],"parents":[2147483647,0,0,1,1,2,2,3,3,4,4,5,5,6,6],"right_children":[2,4,6,8,10,12,14,-1,-1,-1,-1,-1,-1,-1,-1],"split_conditions":[6E0,5.3811123E1,-4.8195708E-1,5.245057E1,2.570897E-2,1E0,-8.948409E-2,-3.3142269E-3,9.101525E-2,-5.0577898E-2,-3.7244644E-3,-1.672643E-2,1.2535907E-2,3.0175671E-2,5.6049395E-2],"split_indices":[7,0,2,0,4,5,2,0,0,0,0,0,0,0,0],"split_type":[0,0,0,0,0,0,0,0,0,0,0,0,0,0,0],"sum_hessian":[6.5421497E2,2.252996E2,4.2891534E2,8.8890236E1,1.3640936E2,2.695588E2,1.5935654E2,8.3890175E1,5.000055E0,1.0253517E2,3.38742E1,1.0051208E2,1.6904672E2,1.2121773E2,3.813881E1],"tree_param":{"num_deleted":"0","num_feature":"8","num_nodes":"15","size_leaf_vector":"1"}},{"base_weights":[5.0076712E-2,-3.2428175E-1,4.813103E-1,5.3799456E-1,-5.1430875E-1,3.2902148E-2,6.3070863E-1,4.7179967E-2,2.572459E-5,-5.5602442E-2,-1.0228341E-2,3.27519E-2,-1.424855E-2,4.643932E-2,2.2557342E-2],"categories":[],"categories_nodes":[],"categories_segments":[],"categories_sizes":[],"default_left":[0,0,0,0,0,0,0,0,0,0,0,0,0,0,0],"id":42,"left_children":[1,3,5,7,9,11,13,-1,-1,-1,-1,-1,-1,-1,-1],"loss_changes":[1.0810037E2,5.9023323E1,2.0821915E1,1.4220419E1,5.4259666E1,1.5771841E1,1.2068848E1,0E0,0E0,0E0,0E0,0E0,0E0,0E0,0E0],"parents":[2147483647,0,0,1,1,2,2,3,3,4,4,5,5,6,6],"right_children":[2,4,6,8,10,12,14,-1,-1,-1,-1,-1,-1,-1,-1],"split_conditions":[-7.9749334E-1,-3.3609548E0,2E0,4.24838E1,5E0,3.7226444E1,-2.5576189E0,4.7179967E-2,2.572459E-5,-5.5602442E-2,-1.0228341E-2,3.27519E-2,-1.424855E-2,4.643932E-2,2.2557342E-2],"split_indices":[2,1,6,0,7,0,1,0,0,0,0,0,0,0,0],"split_type":[0,0,0,0,0,0,0,0,0,0,0,0,0,0,0],"sum_hessian":[6.676508E2,3.575264E2,3.1012445E2,6.423215E1,2.9329425E2,7.780841E1,2.3231604E2,3.617636E1,2.8055784E1,9.922315E1,1.9407109E2,2.5952988E1,5.1855427E1,8.576731E1,1.4654872E2],"tree_param":{"num_deleted":"0","num_feature":"8","num_nodes":"15","size_leaf_vector":"1"}},{"base_weights":[-2.1300605E-2,-3.7517154E-1,3.4956512E-1,4.1969943E-1,-5.286079E-1,9.0227044E-1,1.8561347E-1,-4.4692853E-3,3.4061752E-2,-3.470471E-2,6.249631E-3,2.2000154E-2,5.2979466E-2,-5.2633076E-3,1.928839E-2],"categories":[],"categories_nodes":[],"categories_segments":[],"categories_sizes":[],"default_left":[0,0,0,0,0,0,0,0,0,0,0,0,0,0,0],"id":43,"left_children":[1,3,5,7,9,11,13,-1,-1,-1,-1,-1,-1,-1,-1],"loss_changes":[8.0163864E1,3.8340557E1,2.6861809E1,6.868183E0,2.8470398E1,4.477474E0,1.3507144E1,0E0,0E0,0E0,0E0,0E0,0E0,0E0,0E0],"parents":[2147483647,0,0,1,1,2,2,3,3,4,4,5,5,6,6],"right_children":[2,4,6,8,10,12,14,-1,-1,-1,-1,-1,-1,-1,-1],"split_conditions":[-8.639952E-1,2.4673822E1,-2.9640355E0,1E0,5E0,1.1892179E-2,1E0,-4.4692853E-3,3.4061752E-2,-3.470471E-2,6.249631E-3,2.2000154E-2,5.2979466E-2,-5.2633076E-3,1.928839E-2],"split_indices":[2,0,1,5,6,4,5,0,0,0,0,0,0,0,0],"split_type":[0,0,0,0,0,0,0,0,0,0,0,0,0,0,0],"sum_hessian":[6.08826E2,3.115454E2,2.9728058E2,5.0127342E1,2.6141806E2,6.69795E1,2.3030107E2,1.723576E1,3.2891586E1,2.0855235E2,5.286572E1,1.7970804E1,4.9008698E1,9.406813E1,1.3623294E2],"tree_param":{"num_deleted":"0","num_feature":"8","num_nodes":"15","size_leaf_vector":"1"}},{"base_weights":[9.757413E-3,-3.8979235E-1,2.6155135E-1,5.545295E-1,-5.355076E-1,3.5752794E-1,-6.3331074E-1,4.7575466E-2,-8.416075E-3,3.179658E-3,-3.568564E-2,5.1428806E-2,1.2001444E-2,-7.6430224E-2,1.3037408E-2],"categories":[],"categories_nodes":[],"categories_segments":[],"categories_sizes":[],"default_left":[0,0,0,0,0,0,0,0,0,0,0,0,0,0,0],"id":44,"left_children":[1,3,5,7,9,11,13,-1,-1,-1,-1,-1,-1,-1,-1],"loss_changes":[6.183736E1,3.299432E1,3.2607414E1,9.416386E0,2.2077618E1,2.6651398E1,2.9919695E1,0E0,0E0,0E0,0E0,0E0,0E0,0E0,0E0],"parents":[2147483647,0,0,1,1,2,2,3,3,4,4,5,5,6,6],"right_children":[2,4,6,8,10,12,14,-1,-1,-1,-1,-1,-1,-1,-1],"split_conditions":[-1.4258068E0,2.2070963E1,1.0979129E2,-2.3650103E0,-2.6694882E0,-3.43023E0,6.6645145E-3,4.7575466E-2,-8.416075E-3,3.179658E-3,-3.568564E-2,5.1428806E-2,1.2001444E-2,-7.6430224E-2,1.3037408E-2],"split_indices":[2,0,0,2,1,1,4,0,0,0,0,0,0,0,0],"split_type":[0,0,0,0,0,0,0,0,0,0,0,0,0,0,0],"sum_hessian":[6.1264636E2,2.366226E2,3.7602377E2,3.125646E1,2.0536613E2,3.401429E2,3.588086E1,1.997186E1,1.12846E1,4.722969E1,1.5813644E2,4.952829E1,2.9061462E2,1.7573427E1,1.8307434E1],"tree_param":{"num_deleted":"0","num_feature":"8","num_nodes":"15","size_leaf_vector":"1"}},{"base_weights":[3.35732E-2,-1.6897479E-1,5.536567E-1,-5.0624806E-2,-8.617203E-1,4.9451835E-2,3.7315038E-1,-1.4058627E-2,1.0887007E-2,-5.9105556E-2,-2.5094424E-3,-7.2892117E-3,2.6107175E-2],"categories":[],"categories_nodes":[],"categories_segments":[],"categories_sizes":[],"default_left":[0,0,0,0,0,0,0,0,0,0,0,0,0],"id":45,"left_children":[1,3,5,7,9,-1,11,-1,-1,-1,-1,-1,-1],"loss_changes":[6.351047E1,3.5541584E1,1.2910305E1,2.3062868E1,1.6391243E1,0E0,9.435844E0,0E0,0E0,0E0,0E0,0E0,0E0],"parents":[2147483647,0,0,1,1,2,2,3,3,4,4,6,6],"right_children":[2,4,6,8,10,-1,12,-1,-1,-1,-1,-1,-1],"split_conditions":[-4.0448657E-1,1.1238463E2,-3.1445227E0,3E0,1.015836E-2,4.9451835E-2,6E0,-1.4058627E-2,1.0887007E-2,-5.9105556E-2,-2.5094424E-3,-7.2892117E-3,2.6107175E-2],"split_indices":[2,0,1,6,4,0,7,0,0,0,0,0,0],"split_type":[0,0,0,0,0,0,0,0,0,0,0,0,0],"sum_hessian":[6.0101056E2,4.3303787E2,1.6797272E2,3.707682E2,6.2269676E1,4.7917297E1,1.2005541E2,1.994104E2,1.7135777E2,4.431684E1,1.7952835E1,2.6785288E1,9.327013E1],"tree_param":{"num_deleted":"0","num_feature":"8","num_nodes":"13","size_leaf_vector":"1"}},{"base_weights":[1.1892722E-2,-5.26046E-1,3.618047E-1,5.5763906E-1,-7.251507E-1,8.444385E-1,1.15894176E-1,-3.5000276E-2,4.677173E-2,1.9191807E-2,-4.2391475E-2,1.0834138E-2,4.693721E-2,1.359728E-2,-1.5622638E-2],"categories":[],"categories_nodes":[],"categories_segments":[],"categories_sizes":[],"default_left":[0,0,0,0,0,0,0,0,0,0,0,0,0,0,0],"id":46,"left_children":[1,3,5,7,9,11,13,-1,-1,-1,-1,-1,-1,-1,-1],"loss_changes":[1.2449077E2,5.6646828E1,4.7458805E1,2.0146368E1,3.0343262E1,7.794113E0,1.7906048E1,0E0,0E0,0E0,0E0,0E0,0E0,0E0,0E0],"parents":[2147483647,0,0,1,1,2,2,3,3,4,4,5,5,6,6],"right_children":[2,4,6,8,10,12,14,-1,-1,-1,-1,-1,-1,-1,-1],"split_conditions":[-1.3620498E0,-4.085439E0,-2.3804097E0,2E0,2.0495901E1,5E0,8.6346405E1,-3.5000276E-2,4.677173E-2,1.9191807E-2,-4.2391475E-2,1.0834138E-2,4.693721E-2,1.359728E-2,-1.5622638E-2],"split_indices":[2,1,1,6,0,7,0,0,0,0,0,0,0,0,0],"split_type":[0,0,0,0,0,0,0,0,0,0,0,0,0,0,0],"sum_hessian":[6.5936053E2,2.5966306E2,3.9969748E2,4.002341E1,2.1963965E2,1.3409108E2,2.656064E2,9.04861E0,3.0974802E1,2.1664938E1,1.9797472E2,1.7943823E1,1.1614725E2,1.9494939E2,7.0657036E1],"tree_param":{"num_deleted":"0","num_feature":"8","num_nodes":"15","size_leaf_vector":"1"}},{"base_weights":[-3.859286E-2,-4.6383327E-1,3.5294765E-1,1.760828E-1,-6.8763757E-1,2.2769195E-1,1.0434217E0,-2.8908828E-2,1.9907938E-2,-4.151565E-2,1.9083136E-4,-2.3244297E-2,1.619038E-2,2.2775566E-2,5.5356234E-2],"categories":[],"categories_nodes":[],"categories_segments":[],"categories_sizes":[],"default_left":[0,0,0,0,0,0,0,0,0,0,0,0,0,0,0],"id":47,"left_children":[1,3,5,7,9,11,13,-1,-1,-1,-1,-1,-1,-1,-1],"loss_changes":[9.410605E1,3.8918797E1,2.5216812E1,1.2121524E1,1.9823814E1,1.681939E1,1.177784E0,0E0,0E0,0E0,0E0,0E0,0E0,0E0,0E0],"parents":[2147483647,0,0,1,1,2,2,3,3,4,4,5,5,6,6],"right_children":[2,4,6,8,10,12,14,-1,-1,-1,-1,-1,-1,-1,-1],"split_conditions":[-9.3907565E-1,3.296454E1,-8.948409E-2,5E0,3.7190787E-2,1E0,1.78818E1,-2.8908828E-2,1.9907938E-2,-4.151565E-2,1.9083136E-4,-2.3244297E-2,1.619038E-2,2.2775566E-2,5.5356234E-2],"split_indices":[2,0,2,7,4,6,0,0,0,0,0,0,0,0,0],"split_type":[0,0,0,0,0,0,0,0,0,0,0,0,0,0,0],"sum_hessian":[5.6322217E2,2.6990347E2,2.933187E2,6.999173E1,1.9991174E2,2.4940504E2,4.391365E1,1.5555497E1,5.4436237E1,1.6555096E2,3.436078E1,2.9926651E1,2.194784E2,5.089896E0,3.8823753E1],"tree_param":{"num_deleted":"0","num_feature":"8","num_nodes":"15","size_leaf_vector":"1"}},{"base_weights":[-8.748207E-2,4.808599E-1,-3.0646574E-1,1.998144E-1,7.890947E-1,-6.8624395E-1,1.0776566E-3,-1.8799285E-3,4.1984074E-2,-1.4874457E-2,4.5099333E-2,9.441129E-3,-4.028433E-2,-3.58533E-3,8.706309E-2],"categories":[],"categories_nodes":[],"categories_segments":[],"categories_sizes":[],"default_left":[0,0,0,0,0,0,0,0,0,0,0,0,0,0,0],"id":48,"left_children":[1,3,5,7,9,11,13,-1,-1,-1,-1,-1,-1,-1,-1],"loss_changes":[7.10099E1,1.3594685E1,4.807714E1,1.2849571E1,9.514259E0,1.9402794E1,2.9058325E1,0E0,0E0,0E0,0E0,0E0,0E0,0E0,0E0],"parents":[2147483647,0,0,1,1,2,2,3,3,4,4,5,5,6,6],"right_children":[2,4,6,8,10,12,14,-1,-1,-1,-1,-1,-1,-1,-1],"split_conditions":[-2.5353665E0,4.5262426E-3,-1.1769807E0,-1.8100655E-1,1E0,2.295465E1,-3.9049587E-1,-1.8799285E-3,4.1984074E-2,-1.4874457E-2,4.5099333E-2,9.441129E-3,-4.028433E-2,-3.58533E-3,8.706309E-2],"split_indices":[1,4,2,2,6,0,1,0,0,0,0,0,0,0,0],"split_type":[0,0,0,0,0,0,0,0,0,0,0,0,0,0,0],"sum_hessian":[5.6837085E2,1.5775183E2,4.1061905E2,8.337738E1,7.437444E1,1.831813E2,2.2743773E2,6.1499985E1,2.1877398E1,6.846058E0,6.752838E1,2.1930689E1,1.6125063E2,2.1922722E2,8.210518E0],"tree_param":{"num_deleted":"0","num_feature":"8","num_nodes":"15","size_leaf_vector":"1"}},{"base_weights":[5.21864E-2,5.659009E-1,-1.6286989E-1,6.337159E-1,-3.1116689E-2,-2.7950194E-1,9.1821235E-1,4.7837757E-2,2.410222E-2,-2.4286121E-2,1.3492529E-2,2.2983655E-2,5.5058856E-2],"categories":[],"categories_nodes":[],"categories_segments":[],"categories_sizes":[],"default_left":[0,0,0,0,0,0,0,0,0,0,0,0,0],"id":49,"left_children":[1,3,5,7,-1,9,11,-1,-1,-1,-1,-1,-1],"loss_changes":[7.029045E1,1.552158E1,5.683004E1,8.264404E0,0E0,4.609798E1,3.1789894E0,0E0,0E0,0E0,0E0,0E0,0E0],"parents":[2147483647,0,0,1,1,2,2,3,3,5,5,6,6],"right_children":[2,4,6,8,-1,10,12,-1,-1,-1,-1,-1,-1],"split_conditions":[3.296454E1,-1.5800284E-1,-1.3258001E-1,-3.3609548E0,-3.1116689E-2,2.7136713E-2,-8.948409E-2,4.7837757E-2,2.410222E-2,-2.4286121E-2,1.3492529E-2,2.2983655E-2,5.5058856E-2],"split_indices":[0,1,2,1,0,4,2,0,0,0,0,0,0],"split_type":[0,0,0,0,0,0,0,0,0,0,0,0,0],"sum_hessian":[6.3440765E2,1.867288E2,4.4767886E2,1.7708868E2,9.640134E0,4.0475366E2,4.29252E1,5.4884415E1,1.2220426E2,2.9436743E2,1.1038623E2,1.3244556E1,2.9680643E1],"tree_param":{"num_deleted":"0","num_feature":"8","num_nodes":"13","size_leaf_vector":"1"}},{"base_weights":[3.1177707E-2,3.46585E-1,-2.4361908E-1,7.702884E-1,1.80205E-1,-5.291376E-1,4.4137606E-1,1.7514998E-2,4.9716976E-2,5.628545E-3,7.7856906E-2,-4.993507E-2,-1.1549477E-2,4.2396723E-3,4.466273E-2],"categories":[],"categories_nodes":[],"categories_segments":[],"categories_sizes":[],"default_left":[0,0,0,0,0,0,0,0,0,0,0,0,0,0,0],"id":50,"left_children":[1,3,5,7,9,11,13,-1,-1,-1,-1,-1,-1,-1,-1],"loss_changes":[5.1634716E1,1.941211E1,6.251241E1,6.9812202E0,1.849146E1,3.1298233E1,1.5107115E1,0E0,0E0,0E0,0E0,0E0,0E0,0E0,0E0],"parents":[2147483647,0,0,1,1,2,2,3,3,4,4,5,5,6,6],"right_children":[2,4,6,8,10,12,14,-1,-1,-1,-1,-1,-1,-1,-1],"split_conditions":[5.02327E1,-3.0540195E0,2.7136713E-2,-1.5856524E0,4.9175095E1,6E0,3E0,1.7514998E-2,4.9716976E-2,5.628545E-3,7.7856906E-2,-4.993507E-2,-1.1549477E-2,4.2396723E-3,4.466273E-2],"split_indices":[0,1,4,2,0,7,6,0,0,0,0,0,0,0,0],"split_type":[0,0,0,0,0,0,0,0,0,0,0,0,0,0,0],"sum_hessian":[5.9376807E2,2.7633453E2,3.1743353E2,7.68919E1,1.9944263E2,2.2420734E2,9.3226204E1,2.7641264E1,4.9250637E1,1.9113591E2,8.306723E0,8.61605E1,1.3804684E2,5.2771355E1,4.045485E1],"tree_param":{"num_deleted":"0","num_feature":"8","num_nodes":"15","size_leaf_vector":"1"}},{"base_weights":[2.1430543E-2,-3.2309303E-1,4.3020585E-1,3.793509E-1,-4.6981955E-1,7.556634E-1,2.2289363E-1,9.2740165E-4,4.7275018E-2,-5.4297484E-2,-8.587695E-3,-1.9731559E-2,4.1377705E-2,-5.7976283E-2,1.5544029E-2],"categories":[],"categories_nodes":[],"categories_segments":[],"categories_sizes":[],"default_left":[0,0,0,0,0,0,0,0,0,0,0,0,0,0,0],"id":51,"left_children":[1,3,5,7,9,11,13,-1,-1,-1,-1,-1,-1,-1,-1],"loss_changes":[8.9715126E1,3.5810562E1,1.9487762E1,1.2297699E1,5.241558E1,9.666458E0,2.2179762E1,0E0,0E0,0E0,0E0,0E0,0E0,0E0,0E0],"parents":[2147483647,0,0,1,1,2,2,3,3,4,4,5,5,6,6],"right_children":[2,4,6,8,10,12,14,-1,-1,-1,-1,-1,-1,-1,-1],"split_conditions":[-7.9749334E-1,-3.3609548E0,3.4247543E1,2.7136713E-2,5E0,-6.6187125E-1,3E0,9.2740165E-4,4.7275018E-2,-5.4297484E-2,-8.587695E-3,-1.9731559E-2,4.1377705E-2,-5.7976283E-2,1.5544029E-2],"split_indices":[2,1,0,4,7,2,7,0,0,0,0,0,0,0,0],"split_type":[0,0,0,0,0,0,0,0,0,0,0,0,0,0,0],"sum_hessian":[6.3504626E2,3.4471964E2,2.9032663E2,5.9289497E1,2.8543015E2,1.11943115E2,1.783835E2,3.6842686E1,2.244681E1,9.22002E1,1.9322993E2,6.3205857E0,1.05622536E2,9.945471E0,1.6843803E2],"tree_param":{"num_deleted":"0","num_feature":"8","num_nodes":"15","size_leaf_vector":"1"}},{"base_weights":[-1.1609433E-2,4.5009544E-1,-1.9645196E-1,2.827825E-1,7.6410156E-1,-4.1463414E-1,3.212115E-1,6.774175E-2,9.144119E-3,1.4377393E-2,4.363248E-2,-5.376662E-2,-1.242572E-2,2.5676299E-2,-4.1540824E-2],"categories":[],"categories_nodes":[],"categories_segments":[],"categories_sizes":[],"default_left":[0,0,0,0,0,0,0,0,0,0,0,0,0,0,0],"id":52,"left_children":[1,3,5,7,9,11,13,-1,-1,-1,-1,-1,-1,-1,-1],"loss_changes":[4.8440594E1,8.309681E0,4.590806E1,1.1260657E1,2.6367455E0,3.1073563E1,2.717516E1,0E0,0E0,0E0,0E0,0E0,0E0,0E0,0E0],"parents":[2147483647,0,0,1,1,2,2,3,3,4,4,5,5,6,6],"right_children":[2,4,6,8,10,12,14,-1,-1,-1,-1,-1,-1,-1,-1],"split_conditions":[3.296454E1,-3.6517036E-1,2.7136713E-2,2.8486574E0,1E0,4E0,-2.7492595E-1,6.774175E-2,9.144119E-3,1.4377393E-2,4.363248E-2,-5.376662E-2,-1.242572E-2,2.5676299E-2,-4.1540824E-2],"split_indices":[0,2,4,0,5,7,1,0,0,0,0,0,0,0,0],"split_type":[0,0,0,0,0,0,0,0,0,0,0,0,0,0,0],"sum_hessian":[5.6556494E2,1.6128004E2,4.0428488E2,1.0645684E2,5.48232E1,2.8455225E2,1.1973263E2,8.003835E0,9.845301E1,1.0847766E1,4.3975437E1,5.607103E1,2.2848122E2,1.0307927E2,1.6653358E1],"tree_param":{"num_deleted":"0","num_feature":"8","num_nodes":"15","size_leaf_vector":"1"}},{"base_weights":[1.18347E-2,5.881733E-1,-1.2751254E-1,2.1388966E-1,9.331325E-1,-4.0093073E-1,1.7918459E-1,4.309823E-2,1.0752504E-3,2.795946E-2,5.1842123E-2,-3.418184E-2,5.7953096E-4,-4.907745E-3,1.8978005E-2],"categories":[],"categories_nodes":[],"categories_segments":[],"categories_sizes":[],"default_left":[0,0,0,0,0,0,0,0,0,0,0,0,0,0,0],"id":53,"left_children":[1,3,5,7,9,11,13,-1,-1,-1,-1,-1,-1,-1,-1],"loss_changes":[4.640172E1,1.432449E1,3.909438E1,6.870009E0,1.6789169E0,2.8735588E1,1.22640915E1,0E0,0E0,0E0,0E0,0E0,0E0,0E0,0E0],"parents":[2147483647,0,0,1,1,2,2,3,3,4,4,5,5,6,6],"right_children":[2,4,6,8,10,12,14,-1,-1,-1,-1,-1,-1,-1,-1],"split_conditions":[-3.0540195E0,1.1892179E-2,-7.9749334E-1,1.2413281E1,-2.387942E0,3E0,1E0,4.309823E-2,1.0752504E-3,2.795946E-2,5.1842123E-2,-3.418184E-2,5.7953096E-4,-4.907745E-3,1.8978005E-2],"split_indices":[1,4,2,0,2,6,5,0,0,0,0,0,0,0,0],"split_type":[0,0,0,0,0,0,0,0,0,0,0,0,0,0,0],"sum_hessian":[5.7584015E2,1.1149154E2,4.643486E2,5.4249947E1,5.7241592E1,2.4533081E2,2.190178E2,1.1621352E1,4.2628593E1,1.3816346E1,4.3425243E1,1.4517995E2,1.00150856E2,9.208006E1,1.2693775E2],"tree_param":{"num_deleted":"0","num_feature":"8","num_nodes":"15","size_leaf_vector":"1"}},{"base_weights":[3.5352133E-2,-3.589775E-1,2.2598922E-1,8.352792E-1,-5.39829E-1,1.2559092E-1,4.518363E-2,1.7267844E-2,8.451534E-2,-3.2543674E-2,7.4367286E-3,2.4161747E-2,-8.2242535E-4],"categories":[],"categories_nodes":[],"categories_segments":[],"categories_sizes":[],"default_left":[0,0,0,0,0,0,0,0,0,0,0,0,0],"id":54,"left_children":[1,3,5,7,9,11,-1,-1,-1,-1,-1,-1,-1],"loss_changes":[4.2479755E1,4.02335E1,2.5796476E1,9.728348E0,1.2374619E1,1.6915993E1,0E0,0E0,0E0,0E0,0E0,0E0,0E0],"parents":[2147483647,0,0,1,1,2,2,3,3,4,4,5,5],"right_children":[2,4,6,8,10,12,-1,-1,-1,-1,-1,-1,-1],"split_conditions":[6E0,-3.43023E0,-1.4071038E-1,-3.7412417E0,3E0,3.296454E1,4.518363E-2,1.7267844E-2,8.451534E-2,-3.2543674E-2,7.4367286E-3,2.4161747E-2,-8.2242535E-4],"split_indices":[7,1,2,1,6,0,0,0,0,0,0,0,0],"split_type":[0,0,0,0,0,0,0,0,0,0,0,0,0],"sum_hessian":[5.6300775E2,1.8319302E2,3.7981476E2,2.3617275E1,1.5957574E2,3.3183844E2,4.79763E1,1.5906768E1,7.7105083E0,1.3746202E2,2.2113718E1,9.364519E1,2.3819327E2],"tree_param":{"num_deleted":"0","num_feature":"8","num_nodes":"13","size_leaf_vector":"1"}},{"base_weights":[-1.3378769E-2,2.9366738E-1,-5.6329244E-1,6.7776835E-1,3.8441528E-2,-8.387882E-1,-1.4598383E-1,4.7954116E-2,2.5489414E-2,-1.150443E-2,2.692752E-2,-2.8342528E-2,-5.4304946E-2,-2.2921037E-2,3.3713214E-2],"categories":[],"categories_nodes":[],"categories_segments":[],"categories_sizes":[],"default_left":[0,0,0,0,0,0,0,0,0,0,0,0,0,0,0],"id":55,"left_children":[1,3,5,7,9,11,13,-1,-1,-1,-1,-1,-1,-1,-1],"loss_changes":[1.05371605E2,3.923487E1,2.558297E1,7.0633545E0,3.2578785E1,8.427734E0,2.3405176E1,0E0,0E0,0E0,0E0,0E0,0E0,0E0,0E0],"parents":[2147483647,0,0,1,1,2,2,3,3,4,4,5,5,6,6],"right_children":[2,4,6,8,10,12,14,-1,-1,-1,-1,-1,-1,-1,-1],"split_conditions":[-8.389327E-1,3.4247543E1,3E0,-3.234882E0,2.5401987E-2,7.274044E1,2.9924057E-2,4.7954116E-2,2.5489414E-2,-1.150443E-2,2.692752E-2,-2.8342528E-2,-5.4304946E-2,-2.2921037E-2,3.3713214E-2],"split_indices":[1,0,6,1,4,0,4,0,0,0,0,0,0,0,0],"split_type":[0,0,0,0,0,0,0,0,0,0,0,0,0,0,0],"sum_hessian":[6.2207904E2,3.9948898E2,2.2259003E2,1.588192E2,2.4066978E2,1.3346805E2,8.912198E1,5.7617847E1,1.0120135E2,1.5694118E2,8.372861E1,6.5136925E1,6.833113E1,6.4858246E1,2.4263733E1],"tree_param":{"num_deleted":"0","num_feature":"8","num_nodes":"15","size_leaf_vector":"1"}},{"base_weights":[3.275864E-2,-3.4033436E-1,2.3957516E-1,-5.564616E-1,3.5095E-1,4.182508E-1,-1.4041762E-1,5.9808805E-3,-3.6616832E-2,-3.2201357E-2,3.856783E-2,1.8019116E-2,5.7080593E-2,-3.3226978E-2,2.1900209E-2],"categories":[],"categories_nodes":[],"categories_segments":[],"categories_sizes":[],"default_left":[0,0,0,0,0,0,0,0,0,0,0,0,0,0,0],"id":56,"left_children":[1,3,5,7,9,11,13,-1,-1,-1,-1,-1,-1,-1,-1],"loss_changes":[4.34855E1,3.0229187E1,2.4669676E1,1.8343159E1,2.0781088E1,9.919731E0,3.566402E1,0E0,0E0,0E0,0E0,0E0,0E0,0E0,0E0],"parents":[2147483647,0,0,1,1,2,2,3,3,4,4,5,5,6,6],"right_children":[2,4,6,8,10,12,14,-1,-1,-1,-1,-1,-1,-1,-1],"split_conditions":[-1.4258068E0,2E0,6.727255E1,-3.43023E0,5E0,-3.9049587E-1,9.781297E-3,5.9808805E-3,-3.6616832E-2,-3.2201357E-2,3.856783E-2,1.8019116E-2,5.7080593E-2,-3.3226978E-2,2.1900209E-2],"split_indices":[2,5,0,1,6,1,4,0,0,0,0,0,0,0,0],"split_type":[0,0,0,0,0,0,0,0,0,0,0,0,0,0,0],"sum_hessian":[5.615058E2,2.0002286E2,3.6148294E2,1.5253001E2,4.749285E1,2.4580351E2,1.1567945E2,3.1553905E1,1.20976105E2,1.3948647E1,3.3544205E1,2.2898318E2,1.6820326E1,6.0610203E1,5.506925E1],"tree_param":{"num_deleted":"0","num_feature":"8","num_nodes":"15","size_leaf_vector":"1"}},{"base_weights":[3.979047E-2,1.3928872E-1,-8.0055946E-1,-1.9176593E-1,3.999309E-1,-1.1275029E0,-1.4839843E-1,-3.335311E-2,6.576755E-3,-1.5389495E-2,2.4133233E-2,-2.4156652E-2,-6.618928E-2,-4.241181E-2,2.9851658E-2],"categories":[],"categories_nodes":[],"categories_segments":[],"categories_sizes":[],"default_left":[0,0,0,0,0,0,0,0,0,0,0,0,0,0,0],"id":57,"left_children":[1,3,5,7,9,11,13,-1,-1,-1,-1,-1,-1,-1,-1],"loss_changes":[4.738235E1,4.3768066E1,1.2625809E1,3.4465874E1,1.675563E1,4.395935E0,1.1559148E1,0E0,0E0,0E0,0E0,0E0,0E0,0E0,0E0],"parents":[2147483647,0,0,1,1,2,2,3,3,4,4,5,5,6,6],"right_children":[2,4,6,8,10,12,14,-1,-1,-1,-1,-1,-1,-1,-1],"split_conditions":[1.1238463E2,1E0,1.015836E-2,-1.3417449E0,2E0,3E0,-8.181376E-1,-3.335311E-2,6.576755E-3,-1.5389495E-2,2.4133233E-2,-2.4156652E-2,-6.618928E-2,-4.241181E-2,2.9851658E-2],"split_indices":[0,5,4,2,6,7,2,0,0,0,0,0,0,0,0],"split_type":[0,0,0,0,0,0,0,0,0,0,0,0,0,0,0],"sum_hessian":[5.643503E2,5.0535056E2,5.8999756E1,2.2272308E2,2.8262747E2,3.881302E1,2.0186739E1,8.973589E1,1.3298718E2,2.9296791E1,2.5333069E2,9.870591E0,2.8942427E1,1.0340652E1,9.846087E0],"tree_param":{"num_deleted":"0","num_feature":"8","num_nodes":"15","size_leaf_vector":"1"}},{"base_weights":[5.7390034E-2,1.6075596E-1,-6.817311E-1,2.8169828E-2,5.812913E-1,-9.4922304E-1,-1.465124E-1,4.098959E-3,-3.263823E-2,-6.2853205E-3,3.7280012E-2,6.6359364E-3,-5.7551473E-2,-2.1722069E-2,3.6009677E-2],"categories":[],"categories_nodes":[],"categories_segments":[],"categories_sizes":[],"default_left":[0,0,0,0,0,0,0,0,0,0,0,0,0,0,0],"id":58,"left_children":[1,3,5,7,9,11,13,-1,-1,-1,-1,-1,-1,-1,-1],"loss_changes":[4.2450844E1,2.7138374E1,9.623037E0,1.3659217E1,1.3649128E1,1.0039799E1,6.2783384E0,0E0,0E0,0E0,0E0,0E0,0E0,0E0,0E0],"parents":[2147483647,0,0,1,1,2,2,3,3,4,4,5,5,6,6],"right_children":[2,4,6,8,10,12,14,-1,-1,-1,-1,-1,-1,-1,-1],"split_conditions":[1.0686226E2,-3.0623415E-1,1.0068223E-2,-1.9387744E-2,6E0,-3.43023E0,1.3571468E2,4.098959E-3,-3.263823E-2,-6.2853205E-3,3.7280012E-2,6.6359364E-3,-5.7551473E-2,-2.1722069E-2,3.6009677E-2],"split_indices":[0,2,4,1,7,1,0,0,0,0,0,0,0,0,0],"split_type":[0,0,0,0,0,0,0,0,0,0,0,0,0,0,0],"sum_hessian":[5.532053E2,4.8601825E2,6.718704E1,3.7032834E2,1.1568991E2,4.4282154E1,2.2904884E1,3.4402234E2,2.6306002E1,2.1860828E1,9.382909E1,7.015013E0,3.726714E1,1.7567513E1,5.3373713E0],"tree_param":{"num_deleted":"0","num_feature":"8","num_nodes":"15","size_leaf_vector":"1"}},{"base_weights":[7.522956E-2,4.652285E-1,-9.4326355E-2,6.210026E-1,-1.4797634E-1,-3.0049282E-1,3.798698E-1,1.9654846E-3,3.4950923E-2,1.0271674E-2,-7.57507E-2,-1.9182831E-2,4.3618925E-2,2.7826283E-2,-3.940369E-2],"categories":[],"categories_nodes":[],"categories_segments":[],"categories_sizes":[],"default_left":[0,0,0,0,0,0,0,0,0,0,0,0,0,0,0],"id":59,"left_children":[1,3,5,7,9,11,13,-1,-1,-1,-1,-1,-1,-1,-1],"loss_changes":[3.7890213E1,1.6674026E1,3.9193592E1,6.263397E0,1.769085E1,2.7564484E1,2.5521639E1,0E0,0E0,0E0,0E0,0E0,0E0,0E0,0E0],"parents":[2147483647,0,0,1,1,2,2,3,3,4,4,5,5,6,6],"right_children":[2,4,6,8,10,12,14,-1,-1,-1,-1,-1,-1,-1,-1],"split_conditions":[3.4247543E1,-7.9430383E-1,2.7136713E-2,7.6825385E0,3.735853E-2,-1.3258001E-1,-2.7492595E-1,1.9654846E-3,3.4950923E-2,1.0271674E-2,-7.57507E-2,-1.9182831E-2,4.3618925E-2,2.7826283E-2,-3.940369E-2],"split_indices":[0,1,4,0,4,2,1,0,0,0,0,0,0,0,0],"split_type":[0,0,0,0,0,0,0,0,0,0,0,0,0,0,0],"sum_hessian":[5.713312E2,1.7259596E2,3.987352E2,1.376226E2,3.4973362E1,2.7816403E2,1.2057118E2,1.6452827E1,1.2116977E2,2.8464401E1,6.5089607E0,2.6037473E2,1.7789288E1,1.0518505E2,1.5386134E1],"tree_param":{"num_deleted":"0","num_feature":"8","num_nodes":"15","size_leaf_vector":"1"}},{"base_weights":[4.1271266E-2,-2.6264647E-1,3.3049032E-1,-4.663838E-1,3.6671016E-1,2.1542816E-1,9.568949E-1,-2.506401E-3,-3.9562322E-2,1.8393037E-4,4.886288E-2,-3.5396498E-2,1.40806725E-2,2.4228433E-2,5.129847E-2],"categories":[],"categories_nodes":[],"categories_segments":[],"categories_sizes":[],"default_left":[0,0,0,0,0,0,0,0,0,0,0,0,0,0,0],"id":60,"left_children":[1,3,5,7,9,11,13,-1,-1,-1,-1,-1,-1,-1,-1],"loss_changes":[5.275323E1,3.7704422E1,2.195364E1,2.9922764E1,1.5987342E1,1.6151737E1,1.0499725E0,0E0,0E0,0E0,0E0,0E0,0E0,0E0,0E0],"parents":[2147483647,0,0,1,1,2,2,3,3,4,4,5,5,6,6],"right_children":[2,4,6,8,10,12,14,-1,-1,-1,-1,-1,-1,-1,-1],"split_conditions":[-9.629568E-1,2E0,-1.03658706E-1,5.5501713E1,3.0114055E-2,3E0,1.78818E1,-2.506401E-3,-3.9562322E-2,1.8393037E-4,4.886288E-2,-3.5396498E-2,1.40806725E-2,2.4228433E-2,5.129847E-2],"split_indices":[2,5,2,0,4,7,0,0,0,0,0,0,0,0,0],"split_type":[0,0,0,0,0,0,0,0,0,0,0,0,0,0,0],"sum_hessian":[5.981712E2,2.9171866E2,3.064525E2,2.2057303E2,7.114565E1,2.6003204E2,4.6420498E1,9.7192184E1,1.2338084E2,4.5247505E1,2.5898146E1,1.674363E1,2.432884E2,6.9451623E0,3.9475334E1],"tree_param":{"num_deleted":"0","num_feature":"8","num_nodes":"15","size_leaf_vector":"1"}},{"base_weights":[1.3231755E-2,-2.2651292E-1,5.008984E-1,1.17367946E-1,-5.735315E-1,4.9277242E-2,2.4804696E-1,-1.4862952E-2,1.7768972E-2,-4.077966E-2,1.49275875E-2,-1.6562654E-2,2.6380455E-2],"categories":[],"categories_nodes":[],"categories_segments":[],"categories_sizes":[],"default_left":[0,0,0,0,0,0,0,0,0,0,0,0,0],"id":61,"left_children":[1,3,5,7,9,-1,11,-1,-1,-1,-1,-1,-1],"loss_changes":[7.2948746E1,4.998897E1,2.4954777E1,2.09234E1,4.423407E1,0E0,2.2276016E1,0E0,0E0,0E0,0E0,0E0,0E0],"parents":[2147483647,0,0,1,1,2,2,3,3,4,4,6,6],"right_children":[2,4,6,8,10,-1,12,-1,-1,-1,-1,-1,-1],"split_conditions":[2.5401987E-2,5.8263733E1,-2.9640355E0,-1.3277208E0,5E0,4.9277242E-2,2E0,-1.4862952E-2,1.7768972E-2,-4.077966E-2,1.49275875E-2,-1.6562654E-2,2.6380455E-2],"split_indices":[4,0,1,2,6,0,6,0,0,0,0,0,0],"split_type":[0,0,0,0,0,0,0,0,0,0,0,0,0],"sum_hessian":[6.219738E2,4.173389E2,2.0463492E2,2.0994952E2,2.0738937E2,6.916568E1,1.3546924E2,7.647596E1,1.3347357E2,1.6238219E2,4.5007183E1,4.4035446E1,9.143379E1],"tree_param":{"num_deleted":"0","num_feature":"8","num_nodes":"13","size_leaf_vector":"1"}},{"base_weights":[-1.7133191E-2,1.0392078E-1,-7.424307E-1,1.2428607E-2,8.1353617E-1,-4.262361E-1,-5.4462172E-2,-1.3139558E-2,1.2093613E-2,2.4202893E-2,4.755136E-2,-5.2881833E-2,-1.3987665E-3],"categories":[],"categories_nodes":[],"categories_segments":[],"categories_sizes":[],"default_left":[0,0,0,0,0,0,0,0,0,0,0,0,0],"id":62,"left_children":[1,3,5,7,9,11,-1,-1,-1,-1,-1,-1,-1],"loss_changes":[4.720989E1,2.9914406E1,7.969059E0,2.5909176E1,1.9235382E0,1.0499304E1,0E0,0E0,0E0,0E0,0E0,0E0,0E0],"parents":[2147483647,0,0,1,1,2,2,3,3,4,4,5,5],"right_children":[2,4,6,8,10,12,-1,-1,-1,-1,-1,-1,-1],"split_conditions":[-1.3256581E-1,-1.4071038E-1,7.759326E1,1E0,-1.03658706E-1,6E0,-5.4462172E-2,-1.3139558E-2,1.2093613E-2,2.4202893E-2,4.755136E-2,-5.2881833E-2,-1.3987665E-3],"split_indices":[1,2,0,5,2,7,0,0,0,0,0,0,0],"split_type":[0,0,0,0,0,0,0,0,0,0,0,0,0],"sum_hessian":[5.3581836E2,4.5991428E2,7.590412E1,4.082901E2,5.162417E1,4.087069E1,3.5033432E1,1.8556174E2,2.2272836E2,1.6530869E1,3.5093296E1,1.5167917E1,2.5702774E1],"tree_param":{"num_deleted":"0","num_feature":"8","num_nodes":"13","size_leaf_vector":"1"}},{"base_weights":[-3.820867E-2,5.2749783E-2,-7.7222157E-1,-7.200727E-2,4.5109665E-1,-1.1520046E0,-1.2557098E-1,-1.0288477E-2,1.5767973E-2,4.3201745E-2,1.1752956E-2,-6.127689E-2,-2.876468E-2,-4.136213E-2,2.2583483E-2],"categories":[],"categories_nodes":[],"categories_segments":[],"categories_sizes":[],"default_left":[0,0,0,0,0,0,0,0,0,0,0,0,0,0,0],"id":63,"left_children":[1,3,5,7,9,11,13,-1,-1,-1,-1,-1,-1,-1,-1],"loss_changes":[3.553662E1,2.358738E1,1.4267014E1,1.8811401E1,9.893492E0,8.57563E-1,9.622589E0,0E0,0E0,0E0,0E0,0E0,0E0,0E0,0E0],"parents":[2147483647,0,0,1,1,2,2,3,3,4,4,5,5,6,6],"right_children":[2,4,6,8,10,12,14,-1,-1,-1,-1,-1,-1,-1,-1],"split_conditions":[1.1238463E2,-3.188991E-1,8.612345E-3,3.134083E-2,-2.9640355E0,5E0,-8.181376E-1,-1.0288477E-2,1.5767973E-2,4.3201745E-2,1.1752956E-2,-6.127689E-2,-2.876468E-2,-4.136213E-2,2.2583483E-2],"split_indices":[0,2,4,4,1,6,2,0,0,0,0,0,0,0,0],"split_type":[0,0,0,0,0,0,0,0,0,0,0,0,0,0,0],"sum_hessian":[5.3065674E2,4.7297418E2,5.7682552E1,3.6079663E2,1.1217756E2,3.5847523E1,2.1835032E1,2.685366E2,9.226003E1,3.749996E1,7.46776E1,3.0795866E1,5.0516562E0,9.659822E0,1.2175208E1],"tree_param":{"num_deleted":"0","num_feature":"8","num_nodes":"15","size_leaf_vector":"1"}},{"base_weights":[3.776147E-2,-1.256685E-1,6.11504E-1,-2.9959673E-1,3.8348088E-1,6.646314E-2,7.496353E-1,6.550286E-3,-2.9848704E-2,1.3774166E-2,5.8212478E-2,-1.9449705E-2,2.365084E-2,5.1557183E-2,2.9297799E-2],"categories":[],"categories_nodes":[],"categories_segments":[],"categories_sizes":[],"default_left":[0,0,0,0,0,0,0,0,0,0,0,0,0,0,0],"id":64,"left_children":[1,3,5,7,9,11,13,-1,-1,-1,-1,-1,-1,-1,-1],"loss_changes":[5.5548107E1,4.096227E1,9.837227E0,4.4176018E1,9.619675E0,5.3038754E0,4.2189064E0,0E0,0E0,0E0,0E0,0E0,0E0,0E0,0E0],"parents":[2147483647,0,0,1,1,2,2,3,3,4,4,5,5,6,6],"right_children":[2,4,6,8,10,12,14,-1,-1,-1,-1,-1,-1,-1,-1],"split_conditions":[-3.0623415E-1,5E0,6E0,5.081523E1,1.7126568E-1,2E0,-2.9640355E0,6.550286E-3,-2.9848704E-2,1.3774166E-2,5.8212478E-2,-1.9449705E-2,2.365084E-2,5.1557183E-2,2.9297799E-2],"split_indices":[2,6,7,0,4,6,1,0,0,0,0,0,0,0,0],"split_type":[0,0,0,0,0,0,0,0,0,0,0,0,0,0,0],"sum_hessian":[5.905879E2,4.6026334E2,1.3032455E2,3.4337582E2,1.16887505E2,2.6649921E1,1.0367464E2,1.4049644E2,2.028794E2,1.0387248E2,1.3015022E1,1.2589379E1,1.4060542E1,3.6168842E1,6.750579E1],"tree_param":{"num_deleted":"0","num_feature":"8","num_nodes":"15","size_leaf_vector":"1"}},{"base_weights":[1.2969199E-2,3.789374E-1,-1.3891748E-1,1.07652135E-1,6.828809E-1,-4.4361463E-1,3.442242E-2,-7.442133E-3,3.1884518E-2,4.184897E-2,5.344479E-3,-8.26826E-3,-4.796819E-2,5.6949563E-2,-1.7954838E-4],"categories":[],"categories_nodes":[],"categories_segments":[],"categories_sizes":[],"default_left":[0,0,0,0,0,0,0,0,0,0,0,0,0,0,0],"id":65,"left_children":[1,3,5,7,9,11,13,-1,-1,-1,-1,-1,-1,-1,-1],"loss_changes":[2.9909176E1,1.2938541E1,2.0102266E1,1.1592443E1,6.499748E0,1.9642235E1,1.0221565E1,0E0,0E0,0E0,0E0,0E0,0E0,0E0,0E0],"parents":[2147483647,0,0,1,1,2,2,3,3,4,4,5,5,6,6],"right_children":[2,4,6,8,10,12,14,-1,-1,-1,-1,-1,-1,-1,-1],"split_conditions":[-2.3503492E0,4.5262426E-3,6E0,2E0,-2.8820133E0,-3.4464508E-1,6.5288024E0,-7.442133E-3,3.1884518E-2,4.184897E-2,5.344479E-3,-8.26826E-3,-4.796819E-2,5.6949563E-2,-1.7954838E-4],"split_indices":[1,4,7,5,1,1,0,0,0,0,0,0,0,0,0],"split_type":[0,0,0,0,0,0,0,0,0,0,0,0,0,0,0],"sum_hessian":[5.361263E2,1.5680724E2,3.7931906E2,8.3570465E1,7.323677E1,1.369786E2,2.4234044E2,5.6802113E1,2.6768353E1,5.7421368E1,1.5815405E1,8.9833565E1,4.714505E1,7.099011E0,2.3524142E2],"tree_param":{"num_deleted":"0","num_feature":"8","num_nodes":"15","size_leaf_vector":"1"}},{"base_weights":[7.765677E-2,-7.64597E-2,4.375388E-1,2.6596263E-1,-3.693249E-1,3.8644254E-2,6.482684E-1,5.1789727E-2,1.0932731E-2,-2.6916046E-2,5.2744555E-3,-4.471144E-2,2.119593E-2,4.792848E-2,2.3886068E-2],"categories":[],"categories_nodes":[],"categories_segments":[],"categories_sizes":[],"default_left":[0,0,0,0,0,0,0,0,0,0,0,0,0,0,0],"id":66,"left_children":[1,3,5,7,9,11,13,-1,-1,-1,-1,-1,-1,-1,-1],"loss_changes":[3.0030222E1,3.815821E1,1.3618713E1,6.1665573E0,1.6504984E1,2.0926664E1,5.1592064E0,0E0,0E0,0E0,0E0,0E0,0E0,0E0,0E0],"parents":[2147483647,0,0,1,1,2,2,3,3,4,4,5,5,6,6],"right_children":[2,4,6,8,10,12,14,-1,-1,-1,-1,-1,-1,-1,-1],"split_conditions":[5E0,5.3811123E1,2E0,-4.8468843E0,2.8265573E-2,-1.3771458E0,-1.7213458E0,5.1789727E-2,1.0932731E-2,-2.6916046E-2,5.2744555E-3,-4.471144E-2,2.119593E-2,4.792848E-2,2.3886068E-2],"split_indices":[6,0,5,2,4,2,2,0,0,0,0,0,0,0,0],"split_type":[0,0,0,0,0,0,0,0,0,0,0,0,0,0,0],"sum_hessian":[5.398356E2,3.7852356E2,1.6131201E2,1.7454031E2,2.0398326E2,5.617E1,1.05142006E2,8.895256E0,1.6564505E2,1.5034032E2,5.364294E1,1.6031517E1,4.013848E1,3.565291E1,6.9489105E1],"tree_param":{"num_deleted":"0","num_feature":"8","num_nodes":"15","size_leaf_vector":"1"}},{"base_weights":[6.086047E-2,1.8085937E-1,-6.0577685E-1,9.82281E-2,8.1288743E-1,2.977242E-2,-7.017843E-1,2.2007762E-2,-3.2885708E-3,4.9230184E-2,2.3684418E-2,-5.864082E-2,-2.834708E-2],"categories":[],"categories_nodes":[],"categories_segments":[],"categories_sizes":[],"default_left":[0,0,0,0,0,0,0,0,0,0,0,0,0],"id":67,"left_children":[1,3,5,7,9,-1,11,-1,-1,-1,-1,-1,-1],"loss_changes":[4.548685E1,2.5065823E1,1.042379E1,2.397062E1,2.7682037E0,0E0,4.4670753E0,0E0,0E0,0E0,0E0,0E0,0E0],"parents":[2147483647,0,0,1,1,2,2,3,3,4,4,6,6],"right_children":[2,4,6,8,10,-1,12,-1,-1,-1,-1,-1,-1],"split_conditions":[-1.2923034E-1,-1.3258001E-1,2.2429472E1,3.3643223E1,-2.919187E0,2.977242E-2,4.9175095E1,2.2007762E-2,-3.2885708E-3,4.9230184E-2,2.3684418E-2,-5.864082E-2,-2.834708E-2],"split_indices":[1,2,0,0,1,0,0,0,0,0,0,0,0],"split_type":[0,0,0,0,0,0,0,0,0,0,0,0,0],"sum_hessian":[5.662462E2,4.8048468E2,8.576156E1,4.2595126E2,5.4533405E1,5.9621587E0,7.97994E1,1.3752911E2,2.8842215E2,3.4941753E1,1.9591652E1,1.604687E1,6.375253E1],"tree_param":{"num_deleted":"0","num_feature":"8","num_nodes":"13","size_leaf_vector":"1"}},{"base_weights":[6.4172246E-2,3.50364E-1,-1.1336074E-1,7.989574E-1,2.2785178E-1,-3.4006566E-1,3.9112714E-1,2.6305532E-2,5.098924E-2,1.5314475E-2,-8.5912615E-2,-4.311174E-3,-3.2080587E-2,-2.4606885E-2,3.060672E-2],"categories":[],"categories_nodes":[],"categories_segments":[],"categories_sizes":[],"default_left":[0,0,0,0,0,0,0,0,0,0,0,0,0,0,0],"id":68,"left_children":[1,3,5,7,9,11,13,-1,-1,-1,-1,-1,-1,-1,-1],"loss_changes":[2.7413654E1,1.1167189E1,3.8247955E1,2.1085682E0,2.5500463E1,1.7585917E1,2.056224E1,0E0,0E0,0E0,0E0,0E0,0E0,0E0,0E0],"parents":[2147483647,0,0,1,1,2,2,3,3,4,4,5,5,6,6],"right_children":[2,4,6,8,10,12,14,-1,-1,-1,-1,-1,-1,-1,-1],"split_conditions":[4.0338974E1,-3.43023E0,2.7136713E-2,-1.3086973E0,1.9574773E-1,7.857579E1,-1.3771458E0,2.6305532E-2,5.098924E-2,1.5314475E-2,-8.5912615E-2,-4.311174E-3,-3.2080587E-2,-2.4606885E-2,3.060672E-2],"split_indices":[0,1,4,2,4,0,2,0,0,0,0,0,0,0,0],"split_type":[0,0,0,0,0,0,0,0,0,0,0,0,0,0,0],"sum_hessian":[5.377671E2,2.0550676E2,3.3226035E2,4.2900375E1,1.6260638E2,2.2946854E2,1.0279181E2,2.0702963E1,2.2197412E1,1.5711642E2,5.489963E0,1.25287315E2,1.0418122E2,2.0327059E1,8.246475E1],"tree_param":{"num_deleted":"0","num_feature":"8","num_nodes":"15","size_leaf_vector":"1"}},{"base_weights":[5.640586E-2,-2.959274E-1,2.5018284E-1,-6.170679E-1,1.3635246E-1,6.540254E-2,6.1115307E-1,9.992967E-3,-3.8973305E-2,-1.820211E-2,2.4139954E-2,7.85604E-3,-5.5024642E-2,6.0740303E-2,2.2684263E-2],"categories":[],"categories_nodes":[],"categories_segments":[],"categories_sizes":[],"default_left":[0,0,0,0,0,0,0,0,0,0,0,0,0,0,0],"id":69,"left_children":[1,3,5,7,9,11,13,-1,-1,-1,-1,-1,-1,-1,-1],"loss_changes":[3.9772774E1,2.8789698E1,2.501813E1,1.5919563E1,1.5597366E1,2.6864008E1,1.1528458E1,0E0,0E0,0E0,0E0,0E0,0E0,0E0,0E0],"parents":[2147483647,0,0,1,1,2,2,3,3,4,4,5,5,6,6],"right_children":[2,4,6,8,10,12,14,-1,-1,-1,-1,-1,-1,-1,-1],"split_conditions":[2E0,-9.136858E-1,2.7136713E-2,-3.43023E0,5E0,1.1238463E2,3.7472688E-2,9.992967E-3,-3.8973305E-2,-1.820211E-2,2.4139954E-2,7.85604E-3,-5.5024642E-2,6.0740303E-2,2.2684263E-2],"split_indices":[6,2,4,1,7,0,4,0,0,0,0,0,0,0,0],"split_type":[0,0,0,0,0,0,0,0,0,0,0,0,0,0,0],"sum_hessian":[5.8046136E2,2.0577878E2,3.746826E2,1.1782166E2,8.7957115E1,2.4860376E2,1.2607883E2,1.9499716E1,9.8321945E1,3.5962875E1,5.199424E1,2.3127513E2,1.7328636E1,2.4695189E1,1.0138364E2],"tree_param":{"num_deleted":"0","num_feature":"8","num_nodes":"15","size_leaf_vector":"1"}},{"base_weights":[-9.805577E-3,1.2795013E-1,-6.689823E-1,5.018298E-1,-5.678234E-2,-3.1164372E-1,-9.995508E-1,2.2442214E-2,8.5349016E-2,-3.122273E-2,3.344976E-3,-5.389628E-2,4.388783E-3,-5.5308916E-2,-2.9461689E-3],"categories":[],"categories_nodes":[],"categories_segments":[],"categories_sizes":[],"default_left":[0,0,0,0,0,0,0,0,0,0,0,0,0,0,0],"id":70,"left_children":[1,3,5,7,9,11,13,-1,-1,-1,-1,-1,-1,-1,-1],"loss_changes":[5.0284073E1,3.1668106E1,1.0995243E1,8.91391E0,2.1631733E1,1.46174965E1,4.8763046E0,0E0,0E0,0E0,0E0,0E0,0E0,0E0,0E0],"parents":[2147483647,0,0,1,1,2,2,3,3,4,4,5,5,6,6],"right_children":[2,4,6,8,10,12,14,-1,-1,-1,-1,-1,-1,-1,-1],"split_conditions":[-1.5800284E-1,3.3643223E1,7.022731E1,-1.9189137E-1,1E0,5E0,4.651728E-2,2.2442214E-2,8.5349016E-2,-3.122273E-2,3.344976E-3,-5.389628E-2,4.388783E-3,-5.5308916E-2,-2.9461689E-3],"split_indices":[1,0,0,1,6,7,4,0,0,0,0,0,0,0,0],"split_type":[0,0,0,0,0,0,0,0,0,0,0,0,0,0,0],"sum_hessian":[5.518141E2,4.570955E2,9.471858E1,1.5059335E2,3.0650214E2,4.6449867E1,4.826871E1,1.4556586E2,5.027499E0,5.410828E1,2.5239386E2,1.5333664E1,3.1116205E1,4.31961E1,5.072613E0],"tree_param":{"num_deleted":"0","num_feature":"8","num_nodes":"15","size_leaf_vector":"1"}},{"base_weights":[3.2000423E-3,-1.9217713E-1,4.7168386E-1,1.06826715E-1,-4.851387E-1,1.701013E-1,6.724895E-1,3.6254052E-2,-1.3298935E-3,-3.6448024E-2,5.2160793E-3,-3.337241E-2,2.5851343E-2,3.6974397E-2,-1.7935574E-2],"categories":[],"categories_nodes":[],"categories_segments":[],"categories_sizes":[],"default_left":[0,0,0,0,0,0,0,0,0,0,0,0,0,0,0],"id":71,"left_children":[1,3,5,7,9,11,13,-1,-1,-1,-1,-1,-1,-1,-1],"loss_changes":[5.095513E1,3.4465996E1,9.807465E0,1.6125517E1,2.8622494E1,1.9762085E1,7.0368156E0,0E0,0E0,0E0,0E0,0E0,0E0,0E0,0E0],"parents":[2147483647,0,0,1,1,2,2,3,3,4,4,5,5,6,6],"right_children":[2,4,6,8,10,12,14,-1,-1,-1,-1,-1,-1,-1,-1],"split_conditions":[5E0,5.8263733E1,2E0,-3.5989664E0,2.5401987E-2,-1.3771458E0,-9.291796E-2,3.6254052E-2,-1.3298935E-3,-3.6448024E-2,5.2160793E-3,-3.337241E-2,2.5851343E-2,3.6974397E-2,-1.7935574E-2],"split_indices":[6,0,5,1,4,2,1,0,0,0,0,0,0,0,0],"split_type":[0,0,0,0,0,0,0,0,0,0,0,0,0,0,0],"sum_hessian":[5.547075E2,3.9187088E2,1.6283661E2,1.9424994E2,1.9762094E2,6.582443E1,9.7012184E1,3.369266E1,1.6055728E2,1.3962883E2,5.7992104E1,1.9008972E1,4.6815456E1,9.135934E1,5.6528425E0],"tree_param":{"num_deleted":"0","num_feature":"8","num_nodes":"15","size_leaf_vector":"1"}},{"base_weights":[3.951547E-2,-1.0799341E-1,3.6544824E-1,5.1983412E-2,-6.673204E-1,4.8643106E-1,-8.152012E-1,-2.8604085E-2,7.835802E-3,-3.8481362E-2,3.0202521E-2,4.276904E-2,1.7831123E-2,-4.2293835E-3,-5.7989668E-2],"categories":[],"categories_nodes":[],"categories_segments":[],"categories_sizes":[],"default_left":[0,0,0,0,0,0,0,0,0,0,0,0,0,0,0],"id":72,"left_children":[1,3,5,7,9,11,13,-1,-1,-1,-1,-1,-1,-1,-1],"loss_changes":[2.640893E1,3.3889973E1,2.4838203E1,1.937983E1,1.1419521E1,7.1583824E0,4.0001707E0,0E0,0E0,0E0,0E0,0E0,0E0,0E0,0E0],"parents":[2147483647,0,0,1,1,2,2,3,3,4,4,5,5,6,6],"right_children":[2,4,6,8,10,12,14,-1,-1,-1,-1,-1,-1,-1,-1],"split_conditions":[2.9924057E-2,9.117785E1,-2.7492595E-1,4E0,2.1E1,-3.1445227E0,-3.816621E0,-2.8604085E-2,7.835802E-3,-3.8481362E-2,3.0202521E-2,4.276904E-2,1.7831123E-2,-4.2293835E-3,-5.7989668E-2],"split_indices":[4,0,1,7,7,1,2,0,0,0,0,0,0,0,0],"split_type":[0,0,0,0,0,0,0,0,0,0,0,0,0,0,0],"sum_hessian":[5.4747284E2,3.7735858E2,1.7011423E2,2.9413745E2,8.322114E1,1.5483597E2,1.5278263E1,4.1628063E1,2.5250938E2,7.7388374E1,5.8327703E0,3.8843407E1,1.1599255E2,5.295684E0,9.98258E0],"tree_param":{"num_deleted":"0","num_feature":"8","num_nodes":"15","size_leaf_vector":"1"}},{"base_weights":[5.11525E-2,-8.14288E-2,4.5585006E-1,-6.314736E-1,-1.0773438E-2,-1.6714554E-2,5.7767546E-1,2.854063E-2,-3.9859198E-2,7.337154E-3,-9.342403E-3,2.1542858E-2,-3.9253276E-2,3.242857E-2,-2.3194259E-2],"categories":[],"categories_nodes":[],"categories_segments":[],"categories_sizes":[],"default_left":[0,0,0,0,0,0,0,0,0,0,0,0,0,0,0],"id":73,"left_children":[1,3,5,7,9,11,13,-1,-1,-1,-1,-1,-1,-1,-1],"loss_changes":[2.8500746E1,1.5555451E1,7.554693E0,9.532927E0,9.897295E0,9.909897E0,7.997032E0,0E0,0E0,0E0,0E0,0E0,0E0,0E0,0E0],"parents":[2147483647,0,0,1,1,2,2,3,3,4,4,5,5,6,6],"right_children":[2,4,6,8,10,12,14,-1,-1,-1,-1,-1,-1,-1,-1],"split_conditions":[-3.6517036E-1,3E0,6E0,-3.43023E0,5.923463E1,4E0,1.0686226E2,2.854063E-2,-3.9859198E-2,7.337154E-3,-9.342403E-3,2.1542858E-2,-3.9253276E-2,3.242857E-2,-2.3194259E-2],"split_indices":[2,7,7,1,0,7,0,0,0,0,0,0,0,0,0],"split_type":[0,0,0,0,0,0,0,0,0,0,0,0,0,0,0],"sum_hessian":[5.294902E2,3.994325E2,1.3005765E2,4.456456E1,3.5486795E2,2.683328E1,1.03224365E2,5.102136E0,3.9462425E1,1.8739278E2,1.6747517E2,1.7233719E1,9.599562E0,9.699923E1,6.225137E0],"tree_param":{"num_deleted":"0","num_feature":"8","num_nodes":"15","size_leaf_vector":"1"}},{"base_weights":[1.5113191E-2,-3.4267133E-1,2.9313564E-1,-5.346789E-1,4.479809E-1,5.878757E-1,5.077499E-2,-2.2791656E-2,-6.6502795E-2,-5.045095E-2,3.6322076E-2,7.601644E-2,2.67814E-2,-1.2772888E-2,2.8267255E-2],"categories":[],"categories_nodes":[],"categories_segments":[],"categories_sizes":[],"default_left":[0,0,0,0,0,0,0,0,0,0,0,0,0,0,0],"id":74,"left_children":[1,3,5,7,9,11,13,-1,-1,-1,-1,-1,-1,-1,-1],"loss_changes":[5.34937E1,3.5941765E1,2.1585226E1,1.1288891E1,1.9597366E1,5.8331184E0,2.648276E1,0E0,0E0,0E0,0E0,0E0,0E0,0E0,0E0],"parents":[2147483647,0,0,1,1,2,2,3,3,4,4,5,5,6,6],"right_children":[2,4,6,8,10,12,14,-1,-1,-1,-1,-1,-1,-1,-1],"split_conditions":[1E0,6.586217E-2,4.1966564E1,3.670252E-2,-1.4758384E0,2.8486574E0,5E0,-2.2791656E-2,-6.6502795E-2,-5.045095E-2,3.6322076E-2,7.601644E-2,2.67814E-2,-1.2772888E-2,2.8267255E-2],"split_indices":[5,4,0,4,2,0,6,0,0,0,0,0,0,0,0],"split_type":[0,0,0,0,0,0,0,0,0,0,0,0,0,0,0],"sum_hessian":[5.357659E2,2.3417532E2,3.0159058E2,1.8867896E2,4.5496372E1,1.3544604E2,1.6614453E2,1.730933E2,1.5585646E1,6.8790903E0,3.8617283E1,5.695806E0,1.2975024E2,1.0447347E2,6.1671066E1],"tree_param":{"num_deleted":"0","num_feature":"8","num_nodes":"15","size_leaf_vector":"1"}},{"base_weights":[1.43767595E-2,1.3020457E-1,-6.269056E-1,9.5678926E-2,6.9855146E-2,-8.907955E-1,2.5342304E-1,2.4024786E-2,-7.343194E-4,-1.9933743E-2,-5.490442E-2,6.1926365E-2,-1.7886411E-2],"categories":[],"categories_nodes":[],"categories_segments":[],"categories_sizes":[],"default_left":[0,0,0,0,0,0,0,0,0,0,0,0,0],"id":75,"left_children":[1,3,5,7,-1,9,11,-1,-1,-1,-1,-1,-1],"loss_changes":[3.85971E1,1.9113407E1,1.8694393E1,1.8245089E1,0E0,5.824444E0,1.1950313E1,0E0,0E0,0E0,0E0,0E0,0E0],"parents":[2147483647,0,0,1,1,2,2,3,3,5,5,6,6],"right_children":[2,4,6,8,-1,10,12,-1,-1,-1,-1,-1,-1],"split_conditions":[-1.5800284E-1,-1.9189137E-1,5E0,-3.0540195E0,6.9855146E-2,1E0,-3.9256415E0,2.4024786E-2,-7.343194E-4,-1.9933743E-2,-5.490442E-2,6.1926365E-2,-1.7886411E-2],"split_indices":[1,1,6,1,0,6,2,0,0,0,0,0,0],"split_type":[0,0,0,0,0,0,0,0,0,0,0,0,0],"sum_hessian":[5.1752905E2,4.3902902E2,7.850004E1,4.2842896E2,1.0600068E1,6.038651E1,1.8113531E1,9.474002E1,3.3368893E2,1.8763802E1,4.1622707E1,6.542017E0,1.1571513E1],"tree_param":{"num_deleted":"0","num_feature":"8","num_nodes":"13","size_leaf_vector":"1"}},{"base_weights":[2.6195922E-3,3.278843E-1,-3.0187538E-1,6.438722E-1,9.609376E-2,-5.314607E-1,2.4304242E-1,2.1396188E-2,4.4424467E-2,1.0409112E-3,8.972236E-2,-4.9133506E-2,-1.6566543E-2,-2.7898736E-3,3.734357E-2],"categories":[],"categories_nodes":[],"categories_segments":[],"categories_sizes":[],"default_left":[0,0,0,0,0,0,0,0,0,0,0,0,0,0,0],"id":76,"left_children":[1,3,5,7,9,11,13,-1,-1,-1,-1,-1,-1,-1,-1],"loss_changes":[5.757716E1,2.052539E1,3.7693604E1,5.8934326E0,2.084199E1,1.8779282E1,1.3546209E1,0E0,0E0,0E0,0E0,0E0,0E0,0E0,0E0],"parents":[2147483647,0,0,1,1,2,2,3,3,4,4,5,5,6,6],"right_children":[2,4,6,8,10,12,14,-1,-1,-1,-1,-1,-1,-1,-1],"split_conditions":[5.02327E1,-2.2373033E0,4E0,2.1553695E-2,4.9175095E1,-2.2855685E0,1.054943E-2,2.1396188E-2,4.4424467E-2,1.0409112E-3,8.972236E-2,-4.9133506E-2,-1.6566543E-2,-2.7898736E-3,3.734357E-2],"split_indices":[0,1,6,4,0,2,4,0,0,0,0,0,0,0,0],"split_type":[0,0,0,0,0,0,0,0,0,0,0,0,0,0,0],"sum_hessian":[5.793446E2,2.8008167E2,2.9926294E2,1.177633E2,1.6231836E2,2.1057005E2,8.869288E1,6.400709E1,5.375621E1,1.563986E2,5.9197435E0,6.349811E1,1.4707195E2,5.6230003E1,3.246288E1],"tree_param":{"num_deleted":"0","num_feature":"8","num_nodes":"15","size_leaf_vector":"1"}},{"base_weights":[2.3930753E-2,2.934037E-1,-2.5972298E-1,3.4142844E-2,4.522671E-1,-4.6086976E-1,3.6595464E-1,-6.3784765E-3,4.04301E-2,7.693369E-2,1.9943736E-2,7.3658824E-3,-3.0629564E-2,4.626901E-4,4.2572584E-2],"categories":[],"categories_nodes":[],"categories_segments":[],"categories_sizes":[],"default_left":[0,0,0,0,0,0,0,0,0,0,0,0,0,0,0],"id":77,"left_children":[1,3,5,7,9,11,13,-1,-1,-1,-1,-1,-1,-1,-1],"loss_changes":[4.282408E1,1.1816229E1,3.4525238E1,1.3907893E1,9.713623E0,1.919307E1,1.158968E1,0E0,0E0,0E0,0E0,0E0,0E0,0E0,0E0],"parents":[2147483647,0,0,1,1,2,2,3,3,4,4,5,5,6,6],"right_children":[2,4,6,8,10,12,14,-1,-1,-1,-1,-1,-1,-1,-1],"split_conditions":[5.3811123E1,1E0,5E0,4.9175095E1,2.8486574E0,-2.5353665E0,4.084587E-3,-6.3784765E-3,4.04301E-2,7.693369E-2,1.9943736E-2,7.3658824E-3,-3.0629564E-2,4.626901E-4,4.2572584E-2],"split_indices":[0,5,6,0,0,1,4,0,0,0,0,0,0,0,0],"split_type":[0,0,0,0,0,0,0,0,0,0,0,0,0,0,0],"sum_hessian":[5.582563E2,2.8626666E2,2.7198965E2,1.0922662E2,1.7704004E2,2.0602032E2,6.5969315E1,9.105003E1,1.8176592E1,6.9900994E0,1.7004994E2,4.1139297E1,1.6488103E2,3.861641E1,2.7352903E1],"tree_param":{"num_deleted":"0","num_feature":"8","num_nodes":"15","size_leaf_vector":"1"}},{"base_weights":[7.05468E-2,1.327387E-1,-9.047676E-1,5.236642E-1,3.47766E-2,-4.4374876E-3,-5.303336E-2,1.3295722E-2,4.2704973E-2,-1.8190704E-2,5.975388E-3],"categories":[],"categories_nodes":[],"categories_segments":[],"categories_sizes":[],"default_left":[0,0,0,0,0,0,0,0,0,0,0],"id":78,"left_children":[1,3,5,7,9,-1,-1,-1,-1,-1,-1],"loss_changes":[3.1743874E1,1.8784191E1,3.8979263E0,8.145874E0,1.3338829E1,0E0,0E0,0E0,0E0,0E0,0E0],"parents":[2147483647,0,0,1,1,2,2,3,3,4,4],"right_children":[2,4,6,8,10,-1,-1,-1,-1,-1,-1],"split_conditions":[-2.146023E-2,-3.0939994E0,4.2963787E1,1.1892179E-2,4E0,-4.4374876E-3,-5.303336E-2,1.3295722E-2,4.2704973E-2,-1.8190704E-2,5.975388E-3],"split_indices":[1,1,0,4,7,0,0,0,0,0,0],"split_type":[0,0,0,0,0,0,0,0,0,0,0],"sum_hessian":[5.2035706E2,4.8997705E2,3.0379978E1,9.7309654E1,3.926674E2,5.1247916E0,2.5255186E1,5.568128E1,4.162838E1,6.82611E1,3.244063E2],"tree_param":{"num_deleted":"0","num_feature":"8","num_nodes":"11","size_leaf_vector":"1"}},{"base_weights":[1.5710784E-2,-3.5257876E-1,1.410188E-1,6.6306144E-1,-5.141783E-1,8.691996E-2,4.566277E-2,1.554358E-3,7.006841E-2,-4.4792652E-2,1.3582235E-3,-4.8022177E-2,5.5160453E-3],"categories":[],"categories_nodes":[],"categories_segments":[],"categories_sizes":[],"default_left":[0,0,0,0,0,0,0,0,0,0,0,0,0],"id":79,"left_children":[1,3,5,7,9,11,-1,-1,-1,-1,-1,-1,-1],"loss_changes":[2.3999878E1,2.2011322E1,1.612734E1,8.61687E0,2.3676432E1,9.018541E0,0E0,0E0,0E0,0E0,0E0,0E0,0E0],"parents":[2147483647,0,0,1,1,2,2,3,3,4,4,5,5],"right_children":[2,4,6,8,10,12,-1,-1,-1,-1,-1,-1,-1],"split_conditions":[5E0,-3.43023E0,-1.03658706E-1,-3.9162626E0,-7.6129174E-1,-5.6287727E0,4.566277E-2,1.554358E-3,7.006841E-2,-4.4792652E-2,1.3582235E-3,-4.8022177E-2,5.5160453E-3],"split_indices":[7,1,2,1,2,2,0,0,0,0,0,0,0],"split_type":[0,0,0,0,0,0,0,0,0,0,0,0,0],"sum_hessian":[5.179675E2,1.310343E2,3.8693326E2,1.7561094E1,1.13473206E2,3.6264108E2,2.4292166E1,1.0023395E1,7.537699E0,6.616709E1,4.730611E1,7.050196E0,3.5559088E2],"tree_param":{"num_deleted":"0","num_feature":"8","num_nodes":"13","size_leaf_vector":"1"}},{"base_weights":[-7.6397723E-3,1.5398552E-1,-6.168006E-1,-4.324828E-2,5.1188195E-1,-9.162853E-1,-1.6985608E-2,1.9162199E-2,-1.6167838E-2,6.766192E-3,3.3560067E-2,-5.7997663E-2,-3.379438E-2,3.1615652E-2,-2.4550397E-2],"categories":[],"categories_nodes":[],"categories_segments":[],"categories_sizes":[],"default_left":[0,0,0,0,0,0,0,0,0,0,0,0,0,0,0],"id":80,"left_children":[1,3,5,7,9,11,13,-1,-1,-1,-1,-1,-1,-1,-1],"loss_changes":[5.686525E1,3.224606E1,2.1739689E1,3.539333E1,9.644157E0,3.9465485E0,1.3037316E1,0E0,0E0,0E0,0E0,0E0,0E0,0E0,0E0],"parents":[2147483647,0,0,1,1,2,2,3,3,4,4,5,5,6,6],"right_children":[2,4,6,8,10,12,14,-1,-1,-1,-1,-1,-1,-1,-1],"split_conditions":[-3.4464508E-1,2.7136713E-2,1E1,3.877227E1,2E0,-4.1488923E-2,-1.2923034E-1,1.9162199E-2,-1.6167838E-2,6.766192E-3,3.3560067E-2,-5.7997663E-2,-3.379438E-2,3.1615652E-2,-2.4550397E-2],"split_indices":[1,4,7,0,6,1,1,0,0,0,0,0,0,0,0],"split_type":[0,0,0,0,0,0,0,0,0,0,0,0,0,0,0],"sum_hessian":[5.756067E2,4.554989E2,1.2010779E2,2.942302E2,1.612687E2,7.97576E1,4.035019E1,1.16491875E2,1.7773833E2,4.849593E1,1.1277277E2,3.7709732E1,4.204787E1,1.6886179E1,2.346401E1],"tree_param":{"num_deleted":"0","num_feature":"8","num_nodes":"15","size_leaf_vector":"1"}},{"base_weights":[4.6694454E-2,-7.3445E-2,4.7506395E-1,-2.1675129E-1,2.948351E-1,3.2388413E-1,9.190693E-1,2.1713953E-2,-1.7838709E-2,-7.331317E-2,1.9532952E-2,3.6966216E-2,5.236454E-4,1.4174627E-2,5.2445997E-2],"categories":[],"categories_nodes":[],"categories_segments":[],"categories_sizes":[],"default_left":[0,0,0,0,0,0,0,0,0,0,0,0,0,0,0],"id":81,"left_children":[1,3,5,7,9,11,13,-1,-1,-1,-1,-1,-1,-1,-1],"loss_changes":[2.7482048E1,2.2091833E1,7.552416E0,2.7597328E1,2.0374619E1,1.1552622E1,2.1093102E0,0E0,0E0,0E0,0E0,0E0,0E0,0E0,0E0],"parents":[2147483647,0,0,1,1,2,2,3,3,4,4,5,5,6,6],"right_children":[2,4,6,8,10,12,14,-1,-1,-1,-1,-1,-1,-1,-1],"split_conditions":[-3.0623415E-1,2.7136713E-2,-7.536019E-2,2.4673822E1,1.3584362E1,3.32757E1,2.1283081E1,2.1713953E-2,-1.7838709E-2,-7.331317E-2,1.9532952E-2,3.6966216E-2,5.236454E-4,1.4174627E-2,5.2445997E-2],"split_indices":[2,4,2,0,0,0,0,0,0,0,0,0,0,0,0],"split_type":[0,0,0,0,0,0,0,0,0,0,0,0,0,0,0],"sum_hessian":[5.323265E2,4.163785E2,1.15947945E2,3.0003818E2,1.1634033E2,8.77868E1,2.8161152E1,5.2737236E1,2.4730095E2,5.2655663E0,1.1107477E2,3.7164574E1,5.062222E1,5.3174033E0,2.2843748E1],"tree_param":{"num_deleted":"0","num_feature":"8","num_nodes":"15","size_leaf_vector":"1"}},{"base_weights":[-2.6479091E-2,4.280745E-2,-9.560076E-1,-1.0159926E-1,3.6615488E-1,-6.440411E-3,-5.411462E-2,8.872825E-3,-2.1150043E-2,2.3785999E-2,-4.4250846E-2],"categories":[],"categories_nodes":[],"categories_segments":[],