{"learner":{"attributes":{},"feature_names":["wc_track_length","wc_reco_pdg","wc_reco_larpid_pidScore_mu","wc_reco_larpid_pidScore_pi","wc_pion_candidate_daughters_total_energy","wc_n_blips_50cm","wc_n_blips_100cm"],"feature_types":["float","float","float","float","float","float","float"],"gradient_booster":{"gbtree":{"model":{"gbtree_model_param":{"num_parallel_tree":"1","num_trees":"50"},"iteration_indptr":[0,1,2,3,4,5,6,7,8,9,10,11,12,13,14,15,16,17,18,19,20,21,22,23,24,25,26,27,28,29,30,31,32,33,34,35,36,37,38,39,40,41,42,43,44,45,46,47,48,49,50],"tree_info":[0,0,0,0,0,0,0,0,0,0,0,0,0,0,0,0,0,0,0,0,0,0,0,0,0,0,0,0,0,0,0,0,0,0,0,0,0,0,0,0,0,0,0,0,0,0,0,0,0,0],"trees":[{"base_weights":[-2.4975425E-2,1.0241851E0,-6.184893E-1,5.248405E-1,8.174889E-2,-1.0507271E0,4.9064112E-1,6.373217E-2,-1.8841151E-2,-1.7290259E-2,-7.350013E-2,-1.8069066E-2,4.142032E-2],"categories":[],"categories_nodes":[],"categories_segments":[],"categories_sizes":[],"default_left":[0,0,0,0,0,0,0,0,0,0,0,0,0],"id":0,"left_children":[1,3,5,7,-1,9,11,-1,-1,-1,-1,-1,-1],"loss_changes":[1.02546E2,1.729224E1,5.0927483E1,2.361203E1,0E0,2.1949486E1,8.981689E0,0E0,0E0,0E0,0E0,0E0,0E0],"parents":[2147483647,0,0,1,1,2,2,3,3,5,5,6,6],"right_children":[2,4,6,8,-1,10,12,-1,-1,-1,-1,-1,-1],"split_conditions":[-2.393531E0,4.1122634E-2,4E0,4.1727516E1,8.174889E-2,4.8074986E1,-6.1248595E-1,6.373217E-2,-1.8841151E-2,-1.7290259E-2,-7.350013E-2,-1.8069066E-2,4.142032E-2],"split_indices":[2,4,5,0,0,0,3,0,0,0,0,0,0],"split_type":[0,0,0,0,0,0,0,0,0,0,0,0,0],"sum_hessian":[1.6266464E2,5.851011E1,1.0415453E2,3.3214973E1,2.5295135E1,7.498491E1,2.916962E1,1.790878E1,1.5306194E1,2.8646576E1,4.6338337E1,8.261026E0,2.0908594E1],"tree_param":{"num_deleted":"0","num_feature":"7","num_nodes":"13","size_leaf_vector":"1"}},{"base_weights":[-1.0939146E-2,1.0394737E0,-6.0510075E-1,2.2013889E-1,1.3956054E0,-1.0048301E0,4.667176E-1,6.345939E-2,-2.3840873E-2,7.917792E-2,3.4194347E-2,-1.9104604E-2,-8.019683E-2,-1.2375706E-2,3.8782876E-2],"categories":[],"categories_nodes":[],"categories_segments":[],"categories_sizes":[],"default_left":[0,0,0,0,0,0,0,0,0,0,0,0,0,0,0],"id":1,"left_children":[1,3,5,7,9,11,13,-1,-1,-1,-1,-1,-1,-1,-1],"loss_changes":[1.044057E2,1.7329185E1,4.6241627E1,1.4861988E1,4.527664E0,2.8537346E1,6.74625E0,0E0,0E0,0E0,0E0,0E0,0E0,0E0,0E0],"parents":[2147483647,0,0,1,1,2,2,3,3,4,4,5,5,6,6],"right_children":[2,4,6,8,10,12,14,-1,-1,-1,-1,-1,-1,-1,-1],"split_conditions":[-2.393531E0,-3.0918628E-1,4E0,3.591144E1,5.695202E1,5.5650932E1,-6.1248595E-1,6.345939E-2,-2.3840873E-2,7.917792E-2,3.4194347E-2,-1.9104604E-2,-8.019683E-2,-1.2375706E-2,3.8782876E-2],"split_indices":[2,3,5,0,0,0,3,0,0,0,0,0,0,0,0],"split_type":[0,0,0,0,0,0,0,0,0,0,0,0,0,0,0],"sum_hessian":[1.6527821E2,5.944192E1,1.05836296E2,1.8499403E1,4.0942516E1,7.713258E1,2.8703716E1,7.0567055E0,1.1442698E1,3.142003E1,9.522487E0,3.862343E1,3.850915E1,8.726932E0,1.9976784E1],"tree_param":{"num_deleted":"0","num_feature":"7","num_nodes":"15","size_leaf_vector":"1"}},{"base_weights":[-1.4006441E-2,-3.942391E-1,1.3507814E0,4.069731E-1,-8.962763E-1,7.461124E-3,7.8822695E-2,-3.7342962E-2,3.276649E-2,-6.154765E-2,-1.31377475E-2],"categories":[],"categories_nodes":[],"categories_segments":[],"categories_sizes":[],"default_left":[0,0,0,0,0,0,0,0,0,0,0],"id":2,"left_children":[1,3,5,7,9,-1,-1,-1,-1,-1,-1],"loss_changes":[8.4958176E1,5.185701E1,9.438431E0,1.48179245E1,1.6429272E1,0E0,0E0,0E0,0E0,0E0,0E0],"parents":[2147483647,0,0,1,1,2,2,3,3,4,4],"right_children":[2,4,6,8,10,-1,-1,-1,-1,-1,-1],"split_conditions":[-1.3349472E-1,3.738224E1,4E0,4E0,3E0,7.461124E-3,7.8822695E-2,-3.7342962E-2,3.276649E-2,-6.154765E-2,-1.31377475E-2],"split_indices":[3,0,6,6,5,0,0,0,0,0,0],"split_type":[0,0,0,0,0,0,0,0,0,0,0],"sum_hessian":[1.6168959E2,1.2701429E2,3.46753E1,4.9001335E1,7.8012955E1,5.745498E0,2.8929804E1,8.323635E0,4.06777E1,5.0429184E1,2.758377E1],"tree_param":{"num_deleted":"0","num_feature":"7","num_nodes":"11","size_leaf_vector":"1"}},{"base_weights":[-4.026842E-2,8.536118E-1,-4.8988712E-1,-2.4579141E-2,1.0446314E0,-8.1274253E-1,3.8658354E-1,8.977019E-3,6.635925E-2,-1.1232788E-2,-5.9382547E-2,2.9310936E-2,-2.3200406E-2],"categories":[],"categories_nodes":[],"categories_segments":[],"categories_sizes":[],"default_left":[0,0,0,0,0,0,0,0,0,0,0,0,0],"id":3,"left_children":[1,3,5,-1,7,9,11,-1,-1,-1,-1,-1,-1],"loss_changes":[6.404277E1,1.4220772E1,3.029896E1,0E0,1.1257759E1,1.6877735E1,5.2308617E0,0E0,0E0,0E0,0E0,0E0,0E0],"parents":[2147483647,0,0,1,1,2,2,4,4,5,5,6,6],"right_children":[2,4,6,-1,8,10,12,-1,-1,-1,-1,-1,-1],"split_conditions":[-2.393531E0,4E0,4E0,-2.4579141E-2,-3.5004592E-1,4.8074986E1,7.275706E1,8.977019E-3,6.635925E-2,-1.1232788E-2,-5.9382547E-2,2.9310936E-2,-2.3200406E-2],"split_indices":[2,6,5,0,3,0,0,0,0,0,0,0,0],"split_type":[0,0,0,0,0,0,0,0,0,0,0,0,0],"sum_hessian":[1.5730745E2,5.23442E1,1.0496325E2,6.313056E0,4.6031147E1,7.676056E1,2.820269E1,1.1735655E1,3.429549E1,3.0506634E1,4.625392E1,2.3093435E1,5.109255E0],"tree_param":{"num_deleted":"0","num_feature":"7","num_nodes":"13","size_leaf_vector":"1"}},{"base_weights":[8.7128393E-4,-5.024759E-1,8.386424E-1,-8.8474774E-1,4.2761827E-1,1.0816981E0,-1.9646046E-1,-2.4511745E-2,-7.274502E-2,-3.3367597E-2,3.6874585E-2,2.2180036E-2,6.681153E-2,-5.5230666E-2,4.0444262E-2],"categories":[],"categories_nodes":[],"categories_segments":[],"categories_sizes":[],"default_left":[0,0,0,0,0,0,0,0,0,0,0,0,0,0,0],"id":4,"left_children":[1,3,5,7,9,11,13,-1,-1,-1,-1,-1,-1,-1,-1],"loss_changes":[6.757267E1,3.5969337E1,1.5343414E1,1.5317566E1,1.0614295E1,7.342724E0,1.2107872E1,0E0,0E0,0E0,0E0,0E0,0E0,0E0,0E0],"parents":[2147483647,0,0,1,1,2,2,3,3,4,4,5,5,6,6],"right_children":[2,4,6,8,10,12,14,-1,-1,-1,-1,-1,-1,-1,-1],"split_conditions":[-2.7134445E-1,4E0,6.907908E1,6.727455E1,-7.269276E-1,2E0,-1.13690086E-1,-2.4511745E-2,-7.274502E-2,-3.3367597E-2,3.6874585E-2,2.2180036E-2,6.681153E-2,-5.5230666E-2,4.0444262E-2],"split_indices":[3,5,0,0,3,5,3,0,0,0,0,0,0,0,0],"split_type":[0,0,0,0,0,0,0,0,0,0,0,0,0,0,0],"sum_hessian":[1.5824332E2,9.91016E1,5.914171E1,7.02694E1,2.8832203E1,4.785882E1,1.12828865E1,4.2631016E1,2.7638382E1,6.105202E0,2.2727001E1,1.4429007E1,3.3429817E1,5.8761134E0,5.4067736E0],"tree_param":{"num_deleted":"0","num_feature":"7","num_nodes":"15","size_leaf_vector":"1"}},{"base_weights":[-3.714868E-2,-6.294137E-1,5.661996E-1,-8.55596E-1,7.011926E-1,9.355238E-1,-4.9184702E-2,-1.3429445E-2,-7.092518E-2,6.675261E-2,1.0462285E-3,2.929527E-2,6.791573E-2,-2.4002021E-2,4.839102E-2],"categories":[],"categories_nodes":[],"categories_segments":[],"categories_sizes":[],"default_left":[0,0,0,0,0,0,0,0,0,0,0,0,0,0,0],"id":5,"left_children":[1,3,5,7,9,11,13,-1,-1,-1,-1,-1,-1,-1,-1],"loss_changes":[5.532057E1,2.4102913E1,1.7482761E1,2.1823235E1,5.1013875E0,6.298664E0,1.3489474E1,0E0,0E0,0E0,0E0,0E0,0E0,0E0,0E0],"parents":[2147483647,0,0,1,1,2,2,3,3,4,4,5,5,6,6],"right_children":[2,4,6,8,10,12,14,-1,-1,-1,-1,-1,-1,-1,-1],"split_conditions":[-3.6841604E-1,2.11E2,5.316221E1,5.3004753E1,-1.5233746E0,4E0,6.090778E-2,-1.3429445E-2,-7.092518E-2,6.675261E-2,1.0462285E-3,2.929527E-2,6.791573E-2,-2.4002021E-2,4.839102E-2],"split_indices":[3,1,0,0,2,5,4,0,0,0,0,0,0,0,0],"split_type":[0,0,0,0,0,0,0,0,0,0,0,0,0,0,0],"sum_hessian":[1.5281395E2,7.709346E1,7.572049E1,6.6197845E1,1.0895612E1,4.6995693E1,2.8724792E1,3.312834E1,3.3069508E1,5.1419296E0,5.7536817E0,2.702977E1,1.9965925E1,2.054771E1,8.177081E0],"tree_param":{"num_deleted":"0","num_feature":"7","num_nodes":"15","size_leaf_vector":"1"}},{"base_weights":[3.179468E-2,7.531191E-1,-5.222427E-1,1.0116035E0,-1.6876991E-1,2.3803265E-1,-8.965545E-1,2.5201425E-2,6.2444936E-2,-6.1173346E-2,2.7308265E-2,-2.5249014E-2,3.0613443E-2,-5.7983357E-2,1.0378401E-2],"categories":[],"categories_nodes":[],"categories_segments":[],"categories_sizes":[],"default_left":[0,0,0,0,0,0,0,0,0,0,0,0,0,0,0],"id":6,"left_children":[1,3,5,7,9,11,13,-1,-1,-1,-1,-1,-1,-1,-1],"loss_changes":[6.1862865E1,1.6190716E1,2.5138115E1,5.711834E0,1.2415356E1,8.563492E0,1.735138E1,0E0,0E0,0E0,0E0,0E0,0E0,0E0,0E0],"parents":[2147483647,0,0,1,1,2,2,3,3,4,4,5,5,6,6],"right_children":[2,4,6,8,10,12,14,-1,-1,-1,-1,-1,-1,-1,-1],"split_conditions":[-2.1602046E0,6.877235E1,3.5452065E1,2E0,-4.0027002E-1,-6.1589146E-1,1.2E1,2.5201425E-2,6.2444936E-2,-6.1173346E-2,2.7308265E-2,-2.5249014E-2,3.0613443E-2,-5.7983357E-2,1.0378401E-2],"split_indices":[2,0,0,5,3,3,6,0,0,0,0,0,0,0,0],"split_type":[0,0,0,0,0,0,0,0,0,0,0,0,0,0,0],"sum_hessian":[1.5281203E2,6.622787E1,8.658415E1,5.1648937E1,1.4578934E1,2.86851E1,5.789905E1,1.7449175E1,3.419976E1,5.602555E0,8.976379E0,9.491401E0,1.91937E1,4.6716255E1,1.1182797E1],"tree_param":{"num_deleted":"0","num_feature":"7","num_nodes":"15","size_leaf_vector":"1"}},{"base_weights":[-4.4559594E-3,-3.873031E-1,7.819418E-1,-7.6178527E-1,2.8840363E-1,1.1360683E0,9.041367E-2,-1.9207966E-2,-6.57757E-2,-5.57295E-3,6.6710964E-2,6.554226E-2,1.3389373E-2,-3.05608E-2,2.3163872E-2],"categories":[],"categories_nodes":[],"categories_segments":[],"categories_sizes":[],"default_left":[0,0,0,0,0,0,0,0,0,0,0,0,0,0,0],"id":7,"left_children":[1,3,5,7,9,11,13,-1,-1,-1,-1,-1,-1,-1,-1],"loss_changes":[4.922283E1,2.8042086E1,1.3007275E1,1.4345009E1,1.6847925E1,5.0086403E0,5.310497E0,0E0,0E0,0E0,0E0,0E0,0E0,0E0,0E0],"parents":[2147483647,0,0,1,1,2,2,3,3,4,4,5,5,6,6],"right_children":[2,4,6,8,10,12,14,-1,-1,-1,-1,-1,-1,-1,-1],"split_conditions":[4E0,-2.9020128E-1,-1.650761E0,6.727455E1,5.972208E-2,5.316221E1,-6.1248595E-1,-1.9207966E-2,-6.57757E-2,-5.57295E-3,6.6710964E-2,6.554226E-2,1.3389373E-2,-3.05608E-2,2.3163872E-2],"split_indices":[5,3,2,0,4,0,3,0,0,0,0,0,0,0,0],"split_type":[0,0,0,0,0,0,0,0,0,0,0,0,0,0,0],"sum_hessian":[1.6148701E2,1.0895247E2,5.2534542E1,7.001963E1,3.893284E1,3.4317806E1,1.8216736E1,4.263657E1,2.738306E1,2.8810646E1,1.012219E1,2.8143152E1,6.174655E0,6.099626E0,1.2117109E1],"tree_param":{"num_deleted":"0","num_feature":"7","num_nodes":"15","size_leaf_vector":"1"}},{"base_weights":[-1.9046267E-2,7.880434E-1,-4.2599973E-1,2.5847638E-1,1.18477E0,-8.0114985E-1,1.131558E-1,5.178116E-2,-2.0437E-2,3.217585E-2,6.897192E-2,-4.900932E-2,2.8166085E-2,3.5941135E-2,-8.581712E-3],"categories":[],"categories_nodes":[],"categories_segments":[],"categories_sizes":[],"default_left":[0,0,0,0,0,0,0,0,0,0,0,0,0,0,0],"id":8,"left_children":[1,3,5,7,9,11,13,-1,-1,-1,-1,-1,-1,-1,-1],"loss_changes":[5.040381E1,1.0502869E1,2.0719471E1,1.25124E1,2.1820793E0,1.5274494E1,7.492691E0,0E0,0E0,0E0,0E0,0E0,0E0,0E0,0E0],"parents":[2147483647,0,0,1,1,2,2,3,3,4,4,5,5,6,6],"right_children":[2,4,6,8,10,12,14,-1,-1,-1,-1,-1,-1,-1,-1],"split_conditions":[-2.393531E0,-1.5064342E-1,3E0,3.591144E1,2E0,9.747931E-2,-1.7119694E0,5.178116E-2,-2.0437E-2,3.217585E-2,6.897192E-2,-4.900932E-2,2.8166085E-2,3.5941135E-2,-8.581712E-3],"split_indices":[2,3,5,0,5,4,2,0,0,0,0,0,0,0,0],"split_type":[0,0,0,0,0,0,0,0,0,0,0,0,0,0,0],"sum_hessian":[1.5143848E2,5.044905E1,1.00989426E2,2.2314398E1,2.8134653E1,5.9265755E1,4.1723675E1,1.0052959E1,1.2261437E1,8.581229E0,1.9553423E1,5.2640293E1,6.625461E0,1.285683E1,2.8866844E1],"tree_param":{"num_deleted":"0","num_feature":"7","num_nodes":"15","size_leaf_vector":"1"}},{"base_weights":[6.7547314E-2,7.854679E-1,-3.6443332E-1,5.1462434E-2,1.070165E0,-6.1528314E-2,-1.0778964E0,-2.987252E-2,4.8504185E-2,2.7344672E-2,6.741241E-2,-4.799631E-2,1.0513284E-2,-6.7833535E-2,3.2414899E-3],"categories":[],"categories_nodes":[],"categories_segments":[],"categories_sizes":[],"default_left":[0,0,0,0,0,0,0,0,0,0,0,0,0,0,0],"id":9,"left_children":[1,3,5,7,9,11,13,-1,-1,-1,-1,-1,-1,-1,-1],"loss_changes":[4.7206963E1,1.1888237E1,2.0494808E1,1.0727199E1,5.2476387E0,1.6768703E1,9.101406E0,0E0,0E0,0E0,0E0,0E0,0E0,0E0,0E0],"parents":[2147483647,0,0,1,1,2,2,3,3,4,4,5,5,6,6],"right_children":[2,4,6,8,10,12,14,-1,-1,-1,-1,-1,-1,-1,-1],"split_conditions":[-2.3645058E0,2E0,6.946804E1,-1.0590812E-1,-3.0918628E-1,-7.114464E-1,4E0,-2.987252E-2,4.8504185E-2,2.7344672E-2,6.741241E-2,-4.799631E-2,1.0513284E-2,-6.7833535E-2,3.2414899E-3],"split_indices":[2,5,0,3,3,3,5,0,0,0,0,0,0,0,0],"split_type":[0,0,0,0,0,0,0,0,0,0,0,0,0,0,0],"sum_hessian":[1.5029475E2,5.615346E1,9.41413E1,1.602321E1,4.0130253E1,6.684717E1,2.7294127E1,9.594964E0,6.4282465E0,1.4955333E1,2.517492E1,1.4938172E1,5.1908997E1,2.1790894E1,5.503232E0],"tree_param":{"num_deleted":"0","num_feature":"7","num_nodes":"15","size_leaf_vector":"1"}},{"base_weights":[1.6011214E-2,6.0937077E-1,-4.6424636E-1,8.408713E-1,-5.3801864E-1,-6.055345E-1,5.6977816E-2,1.8874947E-3,4.929702E-2,-3.889645E-2,-8.392032E-3,-3.8999256E-2,2.4115363E-2],"categories":[],"categories_nodes":[],"categories_segments":[],"categories_sizes":[],"default_left":[0,0,0,0,0,0,0,0,0,0,0,0,0],"id":10,"left_children":[1,3,5,7,9,11,-1,-1,-1,-1,-1,-1,-1],"loss_changes":[4.3697723E1,1.8669544E1,1.9898329E1,6.657219E0,9.461744E-1,1.5284496E1,0E0,0E0,0E0,0E0,0E0,0E0,0E0],"parents":[2147483647,0,0,1,1,2,2,3,3,4,4,5,5],"right_children":[2,4,6,8,10,12,-1,-1,-1,-1,-1,-1,-1],"split_conditions":[3.9056957E1,-1.0884062E0,-6.21853E-2,4E0,9E0,2.11E2,5.6977816E-2,1.8874947E-3,4.929702E-2,-3.889645E-2,-8.392032E-3,-3.8999256E-2,2.4115363E-2],"split_indices":[0,2,3,6,6,1,0,0,0,0,0,0,0],"split_type":[0,0,0,0,0,0,0,0,0,0,0,0,0],"sum_hessian":[1.513512E2,6.758316E1,8.376803E1,5.6458984E1,1.1124178E1,7.7557945E1,6.210085E0,8.830793E0,4.762819E1,6.0813737E0,5.0428042E0,6.708321E1,1.0474729E1],"tree_param":{"num_deleted":"0","num_feature":"7","num_nodes":"13","size_leaf_vector":"1"}},{"base_weights":[4.8294146E-2,7.7777886E-1,-4.1749346E-1,1.175855E0,1.8279049E-1,2.7989348E-2,-8.962831E-1,4.554086E-2,7.0754595E-2,-2.3532292E-2,5.8725704E-2,-2.9423326E-2,2.0306166E-2,-5.4731607E-2,6.4169555E-3],"categories":[],"categories_nodes":[],"categories_segments":[],"categories_sizes":[],"default_left":[0,0,0,0,0,0,0,0,0,0,0,0,0,0,0],"id":11,"left_children":[1,3,5,7,9,11,13,-1,-1,-1,-1,-1,-1,-1,-1],"loss_changes":[5.3063515E1,1.4193691E1,2.036852E1,1.0105209E0,1.7122763E1,1.1982077E1,9.489361E0,0E0,0E0,0E0,0E0,0E0,0E0,0E0,0E0],"parents":[2147483647,0,0,1,1,2,2,3,3,4,4,5,5,6,6],"right_children":[2,4,6,8,10,12,14,-1,-1,-1,-1,-1,-1,-1,-1],"split_conditions":[-2.3645058E0,4.257798E1,5.542904E1,-1.13690086E-1,4.1122634E-2,-5.907655E-1,1.2E1,4.554086E-2,7.0754595E-2,-2.3532292E-2,5.8725704E-2,-2.9423326E-2,2.0306166E-2,-5.4731607E-2,6.4169555E-3],"split_indices":[2,0,0,3,4,3,6,0,0,0,0,0,0,0,0],"split_type":[0,0,0,0,0,0,0,0,0,0,0,0,0,0,0],"sum_hessian":[1.542123E2,5.983422E1,9.437808E1,3.5264374E1,2.4569849E1,4.9377266E1,4.5000813E1,1.901065E1,1.6253721E1,1.5127755E1,9.442094E0,1.8561308E1,3.0815958E1,3.7645058E1,7.355757E0],"tree_param":{"num_deleted":"0","num_feature":"7","num_nodes":"15","size_leaf_vector":"1"}},{"base_weights":[-5.7270315E-2,7.142115E-1,-4.7947845E-1,4.4981024E-1,6.6618636E-2,-7.273234E-1,2.2529264E-1,4.1900497E-2,-8.813131E-3,-4.2227134E-2,9.121442E-3,2.6944175E-2,-4.8251203E-3],"categories":[],"categories_nodes":[],"categories_segments":[],"categories_sizes":[],"default_left":[0,0,0,0,0,0,0,0,0,0,0,0,0],"id":12,"left_children":[1,3,5,7,-1,9,11,-1,-1,-1,-1,-1,-1],"loss_changes":[4.8888706E1,8.082298E0,1.7093782E1,9.556766E0,0E0,7.826084E0,2.6737223E0,0E0,0E0,0E0,0E0,0E0,0E0],"parents":[2147483647,0,0,1,1,2,2,3,3,5,5,6,6],"right_children":[2,4,6,8,-1,10,12,-1,-1,-1,-1,-1,-1],"split_conditions":[-2.393531E0,6.703043E-2,4E0,5.086881E1,6.6618636E-2,2.11E2,3.4159645E1,4.1900497E-2,-8.813131E-3,-4.2227134E-2,9.121442E-3,2.6944175E-2,-4.8251203E-3],"split_indices":[2,4,5,0,0,1,0,0,0,0,0,0,0],"split_type":[0,0,0,0,0,0,0,0,0,0,0,0,0],"sum_hessian":[1.480402E2,5.21172E1,9.592301E1,3.7713818E1,1.4403381E1,7.0942764E1,2.4980251E1,2.3070385E1,1.464343E1,6.29088E1,8.033964E0,1.2309735E1,1.2670515E1],"tree_param":{"num_deleted":"0","num_feature":"7","num_nodes":"13","size_leaf_vector":"1"}},{"base_weights":[-2.674881E-2,-4.3297166E-1,4.752513E-1,-6.368113E-1,6.881645E-1,7.865021E-1,-1.0655715E-1,5.0660567E-3,-4.747834E-2,5.9274983E-2,-4.3248194E-3,4.7262024E-2,-9.240669E-3,-4.7322113E-2,9.575963E-3],"categories":[],"categories_nodes":[],"categories_segments":[],"categories_sizes":[],"default_left":[0,0,0,0,0,0,0,0,0,0,0,0,0,0,0],"id":13,"left_children":[1,3,5,7,9,11,13,-1,-1,-1,-1,-1,-1,-1,-1],"loss_changes":[3.1324978E1,1.9833897E1,1.2530261E1,1.6794687E1,5.3180704E0,7.0970306E0,6.398723E0,0E0,0E0,0E0,0E0,0E0,0E0,0E0,0E0],"parents":[2147483647,0,0,1,1,2,2,3,3,4,4,5,5,6,6],"right_children":[2,4,6,8,10,12,14,-1,-1,-1,-1,-1,-1,-1,-1],"split_conditions":[3E0,2.11E2,-1.650761E0,3.591144E1,-2.1602046E0,7.519786E1,8E0,5.0660567E-3,-4.747834E-2,5.9274983E-2,-4.3248194E-3,4.7262024E-2,-9.240669E-3,-4.7322113E-2,9.575963E-3],"split_indices":[5,1,2,0,2,0,6,0,0,0,0,0,0,0,0],"split_type":[0,0,0,0,0,0,0,0,0,0,0,0,0,0,0],"sum_hessian":[1.5160205E2,8.387068E1,6.773138E1,7.1333206E1,1.2537472E1,4.3896294E1,2.3835081E1,2.1430721E1,4.990249E1,7.3124833E0,5.2249885E0,3.7753265E1,6.143028E0,5.673575E0,1.8161507E1],"tree_param":{"num_deleted":"0","num_feature":"7","num_nodes":"15","size_leaf_vector":"1"}},{"base_weights":[8.978505E-3,-2.632363E-1,7.977001E-1,4.0761766E-1,-6.0661036E-1,4.6808794E-1,6.1608374E-2,-1.7610515E-2,2.8675461E-2,-4.904693E-2,-2.4059836E-3,-8.149875E-3,4.102727E-2],"categories":[],"categories_nodes":[],"categories_segments":[],"categories_sizes":[],"default_left":[0,0,0,0,0,0,0,0,0,0,0,0,0],"id":14,"left_children":[1,3,5,7,9,11,-1,-1,-1,-1,-1,-1,-1],"loss_changes":[3.217774E1,2.5918488E1,4.92968E0,5.0331736E0,1.5447149E1,5.355662E0,0E0,0E0,0E0,0E0,0E0,0E0,0E0],"parents":[2147483647,0,0,1,1,2,2,3,3,4,4,5,5],"right_children":[2,4,6,8,10,12,-1,-1,-1,-1,-1,-1,-1],"split_conditions":[-1.6943736E-1,3.385391E1,4E0,4E0,6.0121566E-3,-1.13690086E-1,6.1608374E-2,-1.7610515E-2,2.8675461E-2,-4.904693E-2,-2.4059836E-3,-8.149875E-3,4.102727E-2],"split_indices":[3,0,5,6,4,3,0,0,0,0,0,0,0],"split_type":[0,0,0,0,0,0,0,0,0,0,0,0,0],"sum_hessian":[1.4789381E2,1.1044256E2,3.7451256E1,3.7327763E1,7.311479E1,2.2476591E1,1.4974664E1,6.4879713E0,3.0839792E1,4.3321896E1,2.9792894E1,8.247228E0,1.4229364E1],"tree_param":{"num_deleted":"0","num_feature":"7","num_nodes":"13","size_leaf_vector":"1"}},{"base_weights":[3.987185E-3,-4.4336683E-1,5.450846E-1,-8.9757E-1,2.2490211E-1,7.406239E-1,-2.9788557E-1,-2.0632172E-2,-5.893613E-2,4.8807755E-2,9.4982574E-4,2.1643167E-2,5.6683924E-2,3.5584483E-2,-5.9864867E-2],"categories":[],"categories_nodes":[],"categories_segments":[],"categories_sizes":[],"default_left":[0,0,0,0,0,0,0,0,0,0,0,0,0,0,0],"id":15,"left_children":[1,3,5,7,9,11,13,-1,-1,-1,-1,-1,-1,-1,-1],"loss_changes":[3.60458E1,2.4946192E1,1.1328953E1,6.1580276E0,5.2078857E0,6.161104E0,1.3021548E1,0E0,0E0,0E0,0E0,0E0,0E0,0E0,0E0],"parents":[2147483647,0,0,1,1,2,2,3,3,4,4,5,5,6,6],"right_children":[2,4,6,8,10,12,14,-1,-1,-1,-1,-1,-1,-1,-1],"split_conditions":[-3.5004592E-1,9E0,6.840399E1,4.8074986E1,-2.9902318E0,4E0,-2.3503492E0,-2.0632172E-2,-5.893613E-2,4.8807755E-2,9.4982574E-4,2.1643167E-2,5.6683924E-2,3.5584483E-2,-5.9864867E-2],"split_indices":[3,6,0,0,2,5,2,0,0,0,0,0,0,0,0],"split_type":[0,0,0,0,0,0,0,0,0,0,0,0,0,0,0],"sum_hessian":[1.4691296E2,8.052187E1,6.63911E1,4.7734783E1,3.2787086E1,5.3988976E1,1.2402121E1,1.8424408E1,2.9310377E1,6.2484894E0,2.6538599E1,3.1458416E1,2.2530561E1,5.941547E0,6.460574E0],"tree_param":{"num_deleted":"0","num_feature":"7","num_nodes":"15","size_leaf_vector":"1"}},{"base_weights":[-4.2764917E-2,2.429119E-1,-7.752447E-1,7.907647E-1,-9.673423E-2,-1.008247E0,1.00255E-2,4.560352E-2,8.943698E-3,-6.381206E-2,3.3742252E-3,-5.6296982E-2,-1.4231031E-2],"categories":[],"categories_nodes":[],"categories_segments":[],"categories_sizes":[],"default_left":[0,0,0,0,0,0,0,0,0,0,0,0,0],"id":16,"left_children":[1,3,5,7,9,11,-1,-1,-1,-1,-1,-1,-1],"loss_changes":[3.0811312E1,1.9808817E1,9.591915E0,2.8572674E0,1.2938351E1,2.5330124E0,0E0,0E0,0E0,0E0,0E0,0E0,0E0],"parents":[2147483647,0,0,1,1,2,2,3,3,4,4,5,5],"right_children":[2,4,6,8,10,12,-1,-1,-1,-1,-1,-1,-1],"split_conditions":[6.727455E1,-2.3866987E0,4E0,5.1700714E1,-8.447703E-1,1.1E1,1.00255E-2,4.560352E-2,8.943698E-3,-6.381206E-2,3.3742252E-3,-5.6296982E-2,-1.4231031E-2],"split_indices":[0,2,5,0,3,6,0,0,0,0,0,0,0],"split_type":[0,0,0,0,0,0,0,0,0,0,0,0,0],"sum_hessian":[1.453447E2,1.0504437E2,4.0300327E1,3.9692215E1,6.535216E1,3.250508E1,7.795246E0,3.2715816E1,6.9763985E0,7.1592193E0,5.8192944E1,2.747973E1,5.025349E0],"tree_param":{"num_deleted":"0","num_feature":"7","num_nodes":"13","size_leaf_vector":"1"}},{"base_weights":[-3.4026574E-2,-2.6327765E-1,5.4657992E-2,4.2958822E-2,-1.1164654E0,-3.721386E-2,1.48489205E-2,-6.5673545E-2,-9.177066E-3],"categories":[],"categories_nodes":[],"categories_segments":[],"categories_sizes":[],"default_left":[0,0,0,0,0,0,0,0,0],"id":17,"left_children":[1,3,-1,5,7,-1,-1,-1,-1],"loss_changes":[3.9637997E1,3.3321144E1,0E0,1.9153494E1,5.947773E0,0E0,0E0,0E0,0E0],"parents":[2147483647,0,0,1,1,3,3,4,4],"right_children":[2,4,-1,6,8,-1,-1,-1,-1],"split_conditions":[-1.13690086E-1,6.946804E1,5.4657992E-2,5E0,4.2479508E-2,-3.721386E-2,1.48489205E-2,-6.5673545E-2,-9.177066E-3],"split_indices":[3,0,0,6,4,0,0,0,0],"split_type":[0,0,0,0,0,0,0,0,0],"sum_hessian":[1.5127892E2,1.26348206E2,2.4930706E1,9.367492E1,3.2673283E1,2.238164E1,7.129328E1,2.6639847E1,6.0334373E0],"tree_param":{"num_deleted":"0","num_feature":"7","num_nodes":"9","size_leaf_vector":"1"}},{"base_weights":[-5.520242E-2,5.830205E-1,-4.381609E-1,-6.5983315E-3,8.564974E-1,-2.1056707E-1,-6.459435E-2,-2.1806907E-2,4.6210967E-2,1.7764054E-2,5.2466404E-2,-2.8970769E-2,1.2772595E-2],"categories":[],"categories_nodes":[],"categories_segments":[],"categories_sizes":[],"default_left":[0,0,0,0,0,0,0,0,0,0,0,0,0],"id":18,"left_children":[1,3,5,7,9,11,-1,-1,-1,-1,-1,-1,-1],"loss_changes":[3.52549E1,8.734041E0,1.7228346E1,7.6574464E0,3.2019424E0,1.257655E1,0E0,0E0,0E0,0E0,0E0,0E0,0E0],"parents":[2147483647,0,0,1,1,2,2,3,3,4,4,5,5],"right_children":[2,4,6,8,10,12,-1,-1,-1,-1,-1,-1,-1],"split_conditions":[-2.393531E0,2E0,8.017998E1,4.6055548E-2,-3.0918628E-1,3E0,-6.459435E-2,-2.1806907E-2,4.6210967E-2,1.7764054E-2,5.2466404E-2,-2.8970769E-2,1.2772595E-2],"split_indices":[2,5,0,4,3,5,0,0,0,0,0,0,0],"split_type":[0,0,0,0,0,0,0,0,0,0,0,0,0],"sum_hessian":[1.4219803E2,5.31305E1,8.906753E1,1.7143919E1,3.598658E1,7.1305046E1,1.7762482E1,1.2094278E1,5.04964E0,1.0788072E1,2.519851E1,3.9666313E1,3.1638733E1],"tree_param":{"num_deleted":"0","num_feature":"7","num_nodes":"13","size_leaf_vector":"1"}},{"base_weights":[9.303407E-2,-2.146278E-1,7.257922E-1,-4.1822308E-1,6.283164E-1,6.630936E-2,3.875864E-1,-7.0413495E-3,-4.5608845E-2,4.139939E-2,1.43754855E-2,-2.0040145E-4,4.351915E-2],"categories":[],"categories_nodes":[],"categories_segments":[],"categories_sizes":[],"default_left":[0,0,0,0,0,0,0,0,0,0,0,0,0],"id":19,"left_children":[1,3,5,7,9,-1,11,-1,-1,-1,-1,-1,-1],"loss_changes":[2.8418257E1,1.715937E1,9.176592E0,1.0819624E1,1.0925126E0,0E0,6.0421295E0,0E0,0E0,0E0,0E0,0E0,0E0],"parents":[2147483647,0,0,1,1,2,2,3,3,4,4,6,6],"right_children":[2,4,6,8,10,-1,12,-1,-1,-1,-1,-1,-1],"split_conditions":[4E0,-1.312243E-1,-2.8341398E0,6.519949E1,5.062702E1,6.630936E-2,-3.3118975E-1,-7.0413495E-3,-4.5608845E-2,4.139939E-2,1.43754855E-2,-2.0040145E-4,4.351915E-2],"split_indices":[5,3,2,0,0,0,3,0,0,0,0,0,0],"split_type":[0,0,0,0,0,0,0,0,0,0,0,0,0],"sum_hessian":[1.4417735E2,9.745383E1,4.6723534E1,7.8900856E1,1.855297E1,1.5783268E1,3.0940266E1,5.1349148E1,2.7551706E1,1.079747E1,7.7555017E0,1.763129E1,1.3308974E1],"tree_param":{"num_deleted":"0","num_feature":"7","num_nodes":"13","size_leaf_vector":"1"}},{"base_weights":[-2.0820858E-2,-4.17459E-1,4.5287797E-1,-6.3576186E-1,5.492408E-1,7.595487E-1,-6.345248E-3,1.3197161E-3,-4.8118647E-2,4.0886443E-2,4.669757E-3,1.6302017E-2,5.5284817E-2,-2.6618257E-2,1.872763E-2],"categories":[],"categories_nodes":[],"categories_segments":[],"categories_sizes":[],"default_left":[0,0,0,0,0,0,0,0,0,0,0,0,0,0,0],"id":20,"left_children":[1,3,5,7,9,11,13,-1,-1,-1,-1,-1,-1,-1,-1],"loss_changes":[2.6556183E1,1.6577768E1,9.0791445E0,1.3692932E1,1.723144E0,5.4381237E0,5.5674076E0,0E0,0E0,0E0,0E0,0E0,0E0,0E0,0E0],"parents":[2147483647,0,0,1,1,2,2,3,3,4,4,5,5,6,6],"right_children":[2,4,6,8,10,12,14,-1,-1,-1,-1,-1,-1,-1,-1],"split_conditions":[3E0,-1.13690086E-1,-1.7119694E0,3.693025E1,5.062702E1,4.56472E-3,1E1,1.3197161E-3,-4.8118647E-2,4.0886443E-2,4.669757E-3,1.6302017E-2,5.5284817E-2,-2.6618257E-2,1.872763E-2],"split_indices":[5,3,2,0,0,4,6,0,0,0,0,0,0,0,0],"split_type":[0,0,0,0,0,0,0,0,0,0,0,0,0,0,0],"sum_hessian":[1.39335E2,7.5900566E1,6.343444E1,6.219733E1,1.3703238E1,3.7642605E1,2.5791838E1,2.0848743E1,4.1348587E1,8.124264E0,5.578974E0,1.7574526E1,2.0068079E1,1.0665342E1,1.5126495E1],"tree_param":{"num_deleted":"0","num_feature":"7","num_nodes":"15","size_leaf_vector":"1"}},{"base_weights":[2.699481E-2,-1.6841313E-1,9.2128325E-1,3.9324725E-1,-5.611246E-1,5.634098E-2,2.24658E-2,-2.3230623E-2,3.3308193E-2,-3.6787827E-2,3.328131E-2],"categories":[],"categories_nodes":[],"categories_segments":[],"categories_sizes":[],"default_left":[0,0,0,0,0,0,0,0,0,0,0],"id":21,"left_children":[1,3,5,7,9,-1,-1,-1,-1,-1,-1],"loss_changes":[2.5403255E1,2.6560556E1,2.0220032E0,1.1951693E1,1.5633774E1,0E0,0E0,0E0,0E0,0E0,0E0],"parents":[2147483647,0,0,1,1,2,2,3,3,4,4],"right_children":[2,4,6,8,10,-1,-1,-1,-1,-1,-1],"split_conditions":[2.11E2,3.9920567E1,-2.039942E0,-6.088573E-1,-1.08791225E-1,5.634098E-2,2.24658E-2,-2.3230623E-2,3.3308193E-2,-3.6787827E-2,3.328131E-2],"split_indices":[1,0,2,3,3,0,0,0,0,0,0],"split_type":[0,0,0,0,0,0,0,0,0,0,0],"sum_hessian":[1.4348038E2,1.1841713E2,2.5063248E1,4.8726536E1,6.96906E1,1.6493166E1,8.570082E0,1.1590785E1,3.713575E1,6.1356537E1,8.334059E0],"tree_param":{"num_deleted":"0","num_feature":"7","num_nodes":"11","size_leaf_vector":"1"}},{"base_weights":[4.622898E-2,-8.9481974E-1,2.6930857E-1,-6.847066E-4,-5.8843423E-2,-4.0577012E-1,4.5593515E-1,-3.992527E-2,1.6507383E-2,6.615871E-3,4.152414E-2],"categories":[],"categories_nodes":[],"categories_segments":[],"categories_sizes":[],"default_left":[0,0,0,0,0,0,0,0,0,0,0],"id":22,"left_children":[1,3,5,-1,-1,7,9,-1,-1,-1,-1],"loss_changes":[2.9690485E1,6.7221527E0,1.456898E1,0E0,0E0,7.563073E0,1.078861E1,0E0,0E0,0E0,0E0],"parents":[2147483647,0,0,1,1,2,2,5,5,6,6],"right_children":[2,4,6,-1,-1,8,10,-1,-1,-1,-1],"split_conditions":[4E0,-2.2808683E0,-6.691719E-1,-6.847066E-4,-5.8843423E-2,4E0,1.8324934E-2,-3.992527E-2,1.6507383E-2,6.615871E-3,4.152414E-2],"split_indices":[6,2,3,0,0,5,4,0,0,0,0],"split_type":[0,0,0,0,0,0,0,0,0,0,0],"sum_hessian":[1.3928331E2,2.6113552E1,1.1316976E2,6.58632E0,1.9527233E1,2.4255787E1,8.891397E1,1.5760093E1,8.495693E0,4.842604E1,4.048793E1],"tree_param":{"num_deleted":"0","num_feature":"7","num_nodes":"11","size_leaf_vector":"1"}},{"base_weights":[2.7285801E-2,-2.846086E-1,6.304876E-1,1.9234563E-4,-8.2846826E-1,9.8157537E-1,1.6939948E-1,-8.8854395E-3,4.097962E-2,-5.9905734E-2,-1.1907829E-2,5.914968E-2,3.3716448E-2,-1.591397E-2,1.987601E-2],"categories":[],"categories_nodes":[],"categories_segments":[],"categories_sizes":[],"default_left":[0,0,0,0,0,0,0,0,0,0,0,0,0,0,0],"id":23,"left_children":[1,3,5,7,9,11,13,-1,-1,-1,-1,-1,-1,-1,-1],"loss_changes":[2.6242958E1,1.4251356E1,7.5277634E0,9.093925E0,6.6148167E0,8.5920525E-1,2.546676E0,0E0,0E0,0E0,0E0,0E0,0E0,0E0,0E0],"parents":[2147483647,0,0,1,1,2,2,3,3,4,4,5,5,6,6],"right_children":[2,4,6,8,10,12,14,-1,-1,-1,-1,-1,-1,-1,-1],"split_conditions":[4E0,6.519949E1,-1.9557278E0,6.943419E-2,-3.5570025E-1,-2.8732507E0,-1.4274936E0,-8.8854395E-3,4.097962E-2,-5.9905734E-2,-1.1907829E-2,5.914968E-2,3.3716448E-2,-1.591397E-2,1.987601E-2],"split_indices":[5,0,2,4,3,2,2,0,0,0,0,0,0,0,0],"split_type":[0,0,0,0,0,0,0,0,0,0,0,0,0,0,0],"sum_hessian":[1.3753604E2,9.100747E1,4.6528584E1,6.0385345E1,3.062212E1,2.577433E1,2.0754251E1,5.025708E1,1.0128264E1,1.8197454E1,1.2424665E1,1.3846696E1,1.1927635E1,6.4882913E0,1.426596E1],"tree_param":{"num_deleted":"0","num_feature":"7","num_nodes":"15","size_leaf_vector":"1"}},{"base_weights":[2.2922369E-2,2.4680817E-1,-6.325399E-1,-3.6053964E-1,4.621531E-1,-9.016404E-1,-1.362917E-1,-3.358585E-2,3.2124307E-2,1.0390978E-2,3.6248427E-2,-5.6001425E-2,-1.8164901E-2,2.0984633E-2,-2.660774E-2],"categories":[],"categories_nodes":[],"categories_segments":[],"categories_sizes":[],"default_left":[0,0,0,0,0,0,0,0,0,0,0,0,0,0,0],"id":24,"left_children":[1,3,5,7,9,11,13,-1,-1,-1,-1,-1,-1,-1,-1],"loss_changes":[2.056406E1,1.3818342E1,4.6428843E0,9.13461E0,5.0293674E0,2.2926483E0,3.2443664E0,0E0,0E0,0E0,0E0,0E0,0E0,0E0,0E0],"parents":[2147483647,0,0,1,1,2,2,3,3,4,4,5,5,6,6],"right_children":[2,4,6,8,10,12,14,-1,-1,-1,-1,-1,-1,-1,-1],"split_conditions":[6.946804E1,5E0,3E0,-1.6943736E-1,4E0,-3.5570025E-1,8.017998E1,-3.358585E-2,3.2124307E-2,1.0390978E-2,3.6248427E-2,-5.6001425E-2,-1.8164901E-2,2.0984633E-2,-2.660774E-2],"split_indices":[0,6,5,3,5,3,0,0,0,0,0,0,0,0,0],"split_type":[0,0,0,0,0,0,0,0,0,0,0,0,0,0,0],"sum_hessian":[1.3806729E2,1.03379486E2,3.4687798E1,2.6883736E1,7.649575E1,2.1961712E1,1.2726088E1,2.0770296E1,6.113439E0,3.978524E1,3.671051E1,1.4855004E1,7.106707E0,5.267607E0,7.45848E0],"tree_param":{"num_deleted":"0","num_feature":"7","num_nodes":"15","size_leaf_vector":"1"}},{"base_weights":[8.232565E-2,6.175137E-1,-2.2203182E-1,2.8511646E-1,5.9782196E-2,-5.656657E-3,-7.9390013E-1,3.9181348E-2,-1.5416334E-2,-2.7794395E-2,1.1353342E-2,-5.344249E-2,-5.5584223E-3],"categories":[],"categories_nodes":[],"categories_segments":[],"categories_sizes":[],"default_left":[0,0,0,0,0,0,0,0,0,0,0,0,0],"id":25,"left_children":[1,3,5,7,-1,9,11,-1,-1,-1,-1,-1,-1],"loss_changes":[2.2869148E1,9.432264E0,1.1094654E1,1.018305E1,0E0,8.588306E0,4.501899E0,0E0,0E0,0E0,0E0,0E0,0E0],"parents":[2147483647,0,0,1,1,2,2,3,3,5,5,6,6],"right_children":[2,4,6,8,-1,10,12,-1,-1,-1,-1,-1,-1],"split_conditions":[-2.393531E0,5.0611913E-2,6.946804E1,4.1727516E1,5.9782196E-2,5E0,-9.895304E-1,3.9181348E-2,-1.5416334E-2,-2.7794395E-2,1.1353342E-2,-5.344249E-2,-5.5584223E-3],"split_indices":[2,4,0,0,0,6,2,0,0,0,0,0,0],"split_type":[0,0,0,0,0,0,0,0,0,0,0,0,0],"sum_hessian":[1.3855585E2,4.9857155E1,8.869869E1,3.260437E1,1.7252785E1,6.508331E1,2.361538E1,1.7545303E1,1.5059068E1,1.8932451E1,4.6150864E1,1.6432241E1,7.1831393E0],"tree_param":{"num_deleted":"0","num_feature":"7","num_nodes":"13","size_leaf_vector":"1"}},{"base_weights":[-1.939779E-2,-2.5328195E-1,7.2546417E-1,1.2445909E-2,-8.141164E-1,-5.770435E-3,4.487451E-2,1.4884683E-2,-1.6129853E-2,-5.617558E-2,1.363045E-3],"categories":[],"categories_nodes":[],"categories_segments":[],"categories_sizes":[],"default_left":[0,0,0,0,0,0,0,0,0,0,0],"id":26,"left_children":[1,3,5,7,9,-1,-1,-1,-1,-1,-1],"loss_changes":[2.314259E1,1.5067486E1,4.696434E0,6.7419376E0,8.49011E0,0E0,0E0,0E0,0E0,0E0,0E0],"parents":[2147483647,0,0,1,1,2,2,3,3,4,4],"right_children":[2,4,6,8,10,-1,-1,-1,-1,-1,-1],"split_conditions":[-1.6867793E-1,6.465636E1,4E0,-1.514116E0,1E1,-5.770435E-3,4.487451E-2,1.4884683E-2,-1.6129853E-2,-5.617558E-2,1.363045E-3],"split_indices":[3,0,6,2,6,0,0,0,0,0,0],"split_type":[0,0,0,0,0,0,0,0,0,0,0],"sum_hessian":[1.3078723E2,1.0003617E2,3.075106E1,6.8539444E1,3.1496727E1,5.278512E0,2.5472548E1,3.7081013E1,3.1458431E1,2.2783392E1,8.713336E0],"tree_param":{"num_deleted":"0","num_feature":"7","num_nodes":"11","size_leaf_vector":"1"}},{"base_weights":[-5.609496E-2,4.6859163E-1,-3.502668E-1,8.1413135E-2,7.6372564E-1,-5.159429E-1,5.9988E-1,-1.4750287E-2,2.8710468E-2,5.5319905E-2,2.6451616E-2,-3.9799917E-2,5.6262678E-3,4.690634E-2,9.240333E-3],"categories":[],"categories_nodes":[],"categories_segments":[],"categories_sizes":[],"default_left":[0,0,0,0,0,0,0,0,0,0,0,0,0,0,0],"id":27,"left_children":[1,3,5,7,9,11,13,-1,-1,-1,-1,-1,-1,-1,-1],"loss_changes":[2.1413147E1,5.6381598E0,1.4285652E1,4.379649E0,1.6816368E0,1.3490574E1,1.7423491E0,0E0,0E0,0E0,0E0,0E0,0E0,0E0,0E0],"parents":[2147483647,0,0,1,1,2,2,3,3,4,4,5,5,6,6],"right_children":[2,4,6,8,10,12,14,-1,-1,-1,-1,-1,-1,-1,-1],"split_conditions":[3.288211E1,-3.6457685E-1,2.11E2,1E1,-2.0963615E-1,-2.6851544E-1,-2.039942E0,-1.4750287E-2,2.8710468E-2,5.5319905E-2,2.6451616E-2,-3.9799917E-2,5.6262678E-3,4.690634E-2,9.240333E-3],"split_indices":[0,3,1,6,3,3,2,0,0,0,0,0,0,0,0],"split_type":[0,0,0,0,0,0,0,0,0,0,0,0,0,0,0],"sum_hessian":[1.366695E2,4.8885006E1,8.7784485E1,2.169706E1,2.7187944E1,7.513949E1,1.2645002E1,1.2528567E1,9.168493E0,9.541828E0,1.7646116E1,5.179309E1,2.3346395E1,6.272963E0,6.3720393E0],"tree_param":{"num_deleted":"0","num_feature":"7","num_nodes":"15","size_leaf_vector":"1"}},{"base_weights":[6.913004E-2,-1.8429025E-1,5.8212686E-1,8.580144E-2,-7.4586403E-1,4.1574E-2,1.7427415E-1,9.204942E-3,-3.8338225E-2,-4.6281744E-2,4.1967086E-3,-1.9472478E-2,2.864617E-2],"categories":[],"categories_nodes":[],"categories_segments":[],"categories_sizes":[],"default_left":[0,0,0,0,0,0,0,0,0,0,0,0,0],"id":28,"left_children":[1,3,5,7,9,-1,11,-1,-1,-1,-1,-1,-1],"loss_changes":[1.7814503E1,1.4007283E1,4.459795E0,5.4183784E0,4.5465794E0,0E0,4.368036E0,0E0,0E0,0E0,0E0,0E0,0E0],"parents":[2147483647,0,0,1,1,2,2,3,3,4,4,6,6],"right_children":[2,4,6,8,10,-1,12,-1,-1,-1,-1,-1,-1],"split_conditions":[4E0,6.727455E1,-1.650761E0,-7.9369485E-1,4.467527E-2,4.1574E-2,-1.1851292E0,9.204942E-3,-3.8338225E-2,-4.6281744E-2,4.1967086E-3,-1.9472478E-2,2.864617E-2],"split_indices":[5,0,2,2,4,0,2,0,0,0,0,0,0],"split_type":[0,0,0,0,0,0,0,0,0,0,0,0,0],"sum_hessian":[1.3520543E2,9.092785E1,4.4277573E1,6.1970192E1,2.8957657E1,2.683345E1,1.7444122E1,5.626691E1,5.7032814E0,2.370633E1,5.2513285E0,7.235538E0,1.0208585E1],"tree_param":{"num_deleted":"0","num_feature":"7","num_nodes":"13","size_leaf_vector":"1"}},{"base_weights":[6.415846E-2,-3.39074E-1,5.1445407E-1,-2.9513054E-2,-6.9749916E-1,3.763627E-1,5.004725E-2,-2.4419723E-2,1.4480111E-2,-1.4521829E-3,-4.4941664E-2,3.4937807E-3,2.9341618E-2],"categories":[],"categories_nodes":[],"categories_segments":[],"categories_sizes":[],"default_left":[0,0,0,0,0,0,0,0,0,0,0,0,0],"id":29,"left_children":[1,3,5,7,9,11,-1,-1,-1,-1,-1,-1,-1],"loss_changes":[2.4993694E1,8.047582E0,3.9882202E0,6.0079412E0,4.5031757E0,3.3269238E0,0E0,0E0,0E0,0E0,0E0,0E0,0E0],"parents":[2147483647,0,0,1,1,2,2,3,3,4,4,5,5],"right_children":[2,4,6,8,10,12,-1,-1,-1,-1,-1,-1,-1],"split_conditions":[3E0,5.3004753E1,-1.2773842E-1,-4.7855073E-1,-2.5490353E0,1E1,5.004725E-2,-2.4419723E-2,1.4480111E-2,-1.4521829E-3,-4.4941664E-2,3.4937807E-3,2.9341618E-2],"split_indices":[5,0,3,3,2,6,0,0,0,0,0,0,0],"split_type":[0,0,0,0,0,0,0,0,0,0,0,0,0],"sum_hessian":[1.3568965E2,7.1716064E1,6.3973587E1,3.906186E1,3.2654205E1,5.1210903E1,1.2762681E1,1.580464E1,2.3257221E1,7.8234816E0,2.4830723E1,2.13919E1,2.9819006E1],"tree_param":{"num_deleted":"0","num_feature":"7","num_nodes":"13","size_leaf_vector":"1"}},{"base_weights":[7.2298944E-2,-1.4513436E-1,5.242654E-1,-2.8507048E-1,5.003102E-1,-6.529815E-3,7.300023E-1,4.256648E-3,-2.9679073E-2,6.928264E-4,3.9656196E-2,-9.5799303E-4,4.302424E-2],"categories":[],"categories_nodes":[],"categories_segments":[],"categories_sizes":[],"default_left":[0,0,0,0,0,0,0,0,0,0,0,0,0],"id":30,"left_children":[1,3,5,7,9,-1,11,-1,-1,-1,-1,-1,-1],"loss_changes":[1.35554E1,8.577955E0,6.127123E0,8.889324E0,2.4109707E0,0E0,3.3614502E0,0E0,0E0,0E0,0E0,0E0,0E0],"parents":[2147483647,0,0,1,1,2,2,3,3,4,4,6,6],"right_children":[2,4,6,8,10,-1,12,-1,-1,-1,-1,-1,-1],"split_conditions":[4E0,5.9842784E-2,-6.167647E-1,4.715332E1,-3.5616732E-1,-6.529815E-3,1.5814807E1,4.256648E-3,-2.9679073E-2,6.928264E-4,3.9656196E-2,-9.5799303E-4,4.302424E-2],"split_indices":[5,4,3,0,3,0,0,0,0,0,0,0,0],"split_type":[0,0,0,0,0,0,0,0,0,0,0,0,0],"sum_hessian":[1.3616252E2,9.239281E1,4.376971E1,7.6389465E1,1.6003344E1,1.0551009E1,3.32187E1,3.5052097E1,4.1337364E1,6.406875E0,9.596469E0,5.054064E0,2.8164637E1],"tree_param":{"num_deleted":"0","num_feature":"7","num_nodes":"13","size_leaf_vector":"1"}},{"base_weights":[7.168736E-2,-5.8164793E-1,2.5071177E-1,-8.869739E-2,-6.1871458E-2,1.1213151E-1,4.356657E-2,-2.6082272E-2,1.3463664E-2,2.6287658E-2,-6.2165363E-3],"categories":[],"categories_nodes":[],"categories_segments":[],"categories_sizes":[],"default_left":[0,0,0,0,0,0,0,0,0,0,0],"id":31,"left_children":[1,3,5,7,-1,9,-1,-1,-1,-1,-1],"loss_changes":[1.666152E1,9.805365E0,9.494756E0,3.0210986E0,0E0,9.095004E0,0E0,0E0,0E0,0E0,0E0],"parents":[2147483647,0,0,1,1,2,2,3,3,5,5],"right_children":[2,4,6,8,-1,10,-1,-1,-1,-1,-1],"split_conditions":[4E0,5.3004753E1,-1.13690086E-1,-4.9242878E-1,-6.1871458E-2,3.079421E1,4.356657E-2,-2.6082272E-2,1.3463664E-2,2.6287658E-2,-6.2165363E-3],"split_indices":[6,0,3,3,0,0,0,0,0,0,0],"split_type":[0,0,0,0,0,0,0,0,0,0,0],"sum_hessian":[1.4020447E2,2.9671547E1,1.1053293E2,1.7586805E1,1.2084742E1,9.132201E1,1.9210924E1,7.752865E0,9.833941E0,3.277256E1,5.8549442E1],"tree_param":{"num_deleted":"0","num_feature":"7","num_nodes":"11","size_leaf_vector":"1"}},{"base_weights":[-4.1504214E-3,-5.978441E-1,1.557274E-1,-4.3663777E-2,-1.2217293E-1,1.50627885E-2,7.9668146E-1,1.9820893E-2,-2.9620571E-2,9.617605E-3,-2.82253E-2,5.0836217E-2,2.1557983E-2],"categories":[],"categories_nodes":[],"categories_segments":[],"categories_sizes":[],"default_left":[0,0,0,0,0,0,0,0,0,0,0,0,0],"id":32,"left_children":[1,3,5,-1,7,9,11,-1,-1,-1,-1,-1,-1],"loss_changes":[1.303018E1,3.7089052E0,9.740865E0,0E0,3.122718E0,9.327965E0,1.1258593E0,0E0,0E0,0E0,0E0,0E0,0E0],"parents":[2147483647,0,0,1,1,2,2,4,4,5,5,6,6],"right_children":[2,4,6,-1,8,10,12,-1,-1,-1,-1,-1,-1],"split_conditions":[4E0,-3.5004592E-1,-1.13690086E-1,-4.3663777E-2,-2.1365607E-1,6.946804E1,4.9135216E1,1.9820893E-2,-2.9620571E-2,9.617605E-3,-2.82253E-2,5.0836217E-2,2.1557983E-2],"split_indices":[6,3,3,0,3,0,0,0,0,0,0,0,0],"split_type":[0,0,0,0,0,0,0,0,0,0,0,0,0],"sum_hessian":[1.3529678E2,2.8123392E1,1.07173386E2,1.7281105E1,1.0842287E1,8.872515E1,1.8448235E1,5.230712E0,5.611575E0,6.8453445E1,2.0271706E1,1.0403686E1,8.04455E0],"tree_param":{"num_deleted":"0","num_feature":"7","num_nodes":"13","size_leaf_vector":"1"}},{"base_weights":[-2.2094477E-2,6.618719E-1,-1.948769E-1,1.3141038E-1,4.9686298E-2,-5.402004E-1,1.16766706E-1,-9.2716105E-3,2.1604763E-2,-4.1464746E-2,-6.0796402E-3,1.5411384E-2,-2.4066133E-2],"categories":[],"categories_nodes":[],"categories_segments":[],"categories_sizes":[],"default_left":[0,0,0,0,0,0,0,0,0,0,0,0,0],"id":33,"left_children":[1,3,5,7,-1,9,11,-1,-1,-1,-1,-1,-1],"loss_changes":[1.5524103E1,4.5342846E0,1.1338389E1,1.161484E0,0E0,5.935257E0,6.548792E0,0E0,0E0,0E0,0E0,0E0,0E0],"parents":[2147483647,0,0,1,1,2,2,3,3,5,5,6,6],"right_children":[2,4,6,8,-1,10,12,-1,-1,-1,-1,-1,-1],"split_conditions":[-2.969027E0,4.56472E-3,-4.3964976E-1,1E1,4.9686298E-2,3E0,6.907908E1,-9.2716105E-3,2.1604763E-2,-4.1464746E-2,-6.0796402E-3,1.5411384E-2,-2.4066133E-2],"split_indices":[2,4,3,6,0,5,0,0,0,0,0,0,0],"split_type":[0,0,0,0,0,0,0,0,0,0,0,0,0],"sum_hessian":[1.292713E2,2.5499563E1,1.0377174E2,1.0350501E1,1.5149062E1,4.8878006E1,5.4893738E1,5.226475E0,5.1240263E0,2.8331154E1,2.0546852E1,4.1949474E1,1.29442625E1],"tree_param":{"num_deleted":"0","num_feature":"7","num_nodes":"13","size_leaf_vector":"1"}},{"base_weights":[-3.2779304E-3,-7.0914346E-1,1.779654E-1,-8.781005E-1,-9.282491E-3,2.1922354E-2,8.445832E-1,-2.0145627E-2,-5.406629E-2,-2.7933484E-3,4.6075117E-2,6.6183805E-2,2.4673324E-2],"categories":[],"categories_nodes":[],"categories_segments":[],"categories_sizes":[],"default_left":[0,0,0,0,0,0,0,0,0,0,0,0,0],"id":34,"left_children":[1,3,5,7,-1,9,11,-1,-1,-1,-1,-1,-1],"loss_changes":[1.6164349E1,2.1201143E0,1.0440796E1,1.422986E0,0E0,5.824935E0,2.55064E0,0E0,0E0,0E0,0E0,0E0,0E0],"parents":[2147483647,0,0,1,1,2,2,3,3,5,5,6,6],"right_children":[2,4,6,8,-1,10,12,-1,-1,-1,-1,-1,-1],"split_conditions":[-7.0696163E-1,1E1,2.11E2,4.4993557E1,-9.282491E-3,1E1,-3.3827507E-1,-2.0145627E-2,-5.406629E-2,-2.7933484E-3,4.6075117E-2,6.6183805E-2,2.4673324E-2],"split_indices":[3,6,1,0,0,5,3,0,0,0,0,0,0],"split_type":[0,0,0,0,0,0,0,0,0,0,0,0,0],"sum_hessian":[1.2436322E2,2.4813307E1,9.954991E1,1.8246788E1,6.566519E0,8.1504166E1,1.804575E1,6.359466E0,1.1887322E1,7.5880455E1,5.623709E0,6.4605436E0,1.1585206E1],"tree_param":{"num_deleted":"0","num_feature":"7","num_nodes":"13","size_leaf_vector":"1"}},{"base_weights":[6.966626E-2,-2.3908883E-1,4.3398964E-1,3.1518403E-1,-5.352295E-1,5.4361033E-1,-2.8062532E-2,-1.5846573E-2,2.5271758E-2,-3.810994E-2,1.2740376E-2,3.2525226E-2,-5.742531E-3],"categories":[],"categories_nodes":[],"categories_segments":[],"categories_sizes":[],"default_left":[0,0,0,0,0,0,0,0,0,0,0,0,0],"id":35,"left_children":[1,3,5,7,9,11,-1,-1,-1,-1,-1,-1,-1],"loss_changes":[1.4676489E1,1.1784727E1,6.82734E0,3.1995332E0,8.531405E0,3.9008274E0,0E0,0E0,0E0,0E0,0E0,0E0,0E0],"parents":[2147483647,0,0,1,1,2,2,3,3,4,4,5,5],"right_children":[2,4,6,8,10,12,-1,-1,-1,-1,-1,-1,-1],"split_conditions":[3E0,3.591144E1,-7.9907334E-1,-2.6043894E0,4.787141E-2,7.858801E1,-2.8062532E-2,-1.5846573E-2,2.5271758E-2,-3.810994E-2,1.2740376E-2,3.2525226E-2,-5.742531E-3],"split_indices":[5,0,2,2,4,0,0,0,0,0,0,0,0],"split_type":[0,0,0,0,0,0,0,0,0,0,0,0,0],"sum_hessian":[1.2855066E2,6.976786E1,5.87828E1,2.4272966E1,4.5494896E1,5.335933E1,5.42347E0,5.4614077E0,1.8811558E1,3.5368996E1,1.0125901E1,4.5917233E1,7.442096E0],"tree_param":{"num_deleted":"0","num_feature":"7","num_nodes":"13","size_leaf_vector":"1"}},{"base_weights":[9.345129E-2,4.0000975E-1,-2.9625833E-1,2.5958464E-1,4.9130943E-2,-9.24342E-2,-5.2955445E-2,-8.912255E-3,2.2813277E-2,-4.5306455E-2,4.6206857E-3],"categories":[],"categories_nodes":[],"categories_segments":[],"categories_sizes":[],"default_left":[0,0,0,0,0,0,0,0,0,0,0],"id":36,"left_children":[1,3,5,7,-1,9,-1,-1,-1,-1,-1],"loss_changes":[1.5848465E1,5.808941E0,9.005171E0,5.341443E0,0E0,7.197622E0,0E0,0E0,0E0,0E0,0E0],"parents":[2147483647,0,0,1,1,2,2,3,3,5,5],"right_children":[2,4,6,8,-1,10,-1,-1,-1,-1,-1],"split_conditions":[-1.6972561E0,2.11E2,7.644134E1,-3.5616732E-1,4.9130943E-2,-7.940201E-1,-5.2955445E-2,-8.912255E-3,2.2813277E-2,-4.5306455E-2,4.6206857E-3],"split_indices":[2,1,0,3,0,3,0,0,0,0,0],"split_type":[0,0,0,0,0,0,0,0,0,0,0],"sum_hessian":[1.3066585E2,7.312045E1,5.7545395E1,6.008406E1,1.3036389E1,4.6296673E1,1.1248722E1,1.8653467E1,4.1430595E1,7.847998E0,3.8448677E1],"tree_param":{"num_deleted":"0","num_feature":"7","num_nodes":"11","size_leaf_vector":"1"}},{"base_weights":[-1.1483834E-2,-1.5988082E-1,7.561904E-1,-3.6780116E-1,2.7884156E-1,4.6790563E-2,1.6606336E-2,-2.4597405E-2,2.4185183E-2,4.5905095E-2,5.5306195E-3],"categories":[],"categories_nodes":[],"categories_segments":[],"categories_sizes":[],"default_left":[0,0,0,0,0,0,0,0,0,0,0],"id":37,"left_children":[1,3,5,7,9,-1,-1,-1,-1,-1,-1],"loss_changes":[1.462909E1,9.913076E0,1.2739162E0,7.99708E0,3.6785343E0,0E0,0E0,0E0,0E0,0E0,0E0],"parents":[2147483647,0,0,1,1,2,2,3,3,4,4],"right_children":[2,4,6,8,10,-1,-1,-1,-1,-1,-1],"split_conditions":[-1.13690086E-1,4E0,5.086881E1,7.4661374E-2,-2.8732507E0,4.6790563E-2,1.6606336E-2,-2.4597405E-2,2.4185183E-2,4.5905095E-2,5.5306195E-3],"split_indices":[3,5,0,4,2,0,0,0,0,0,0],"split_type":[0,0,0,0,0,0,0,0,0,0,0],"sum_hessian":[1.263536E2,1.06548706E2,1.9804901E1,7.2398895E1,3.4149803E1,1.3064425E1,6.7404747E0,6.355502E1,8.843878E0,6.185988E0,2.7963818E1],"tree_param":{"num_deleted":"0","num_feature":"7","num_nodes":"11","size_leaf_vector":"1"}},{"base_weights":[-1.5131297E-2,-1.07602604E-1,5.041076E-2,2.3898561E-1,-3.8511243E-1,-1.3955337E-2,1.96271E-2,-3.3766694E-2,-2.331034E-4],"categories":[],"categories_nodes":[],"categories_segments":[],"categories_sizes":[],"default_left":[0,0,0,0,0,0,0,0,0],"id":38,"left_children":[1,3,-1,5,7,-1,-1,-1,-1],"loss_changes":[1.1753054E1,1.1033578E1,0E0,4.182921E0,7.0146246E0,0E0,0E0,0E0,0E0],"parents":[2147483647,0,0,1,1,3,3,4,4],"right_children":[2,4,-1,6,8,-1,-1,-1,-1],"split_conditions":[-6.172052E-2,3.9920567E1,5.041076E-2,-6.088573E-1,6.0121566E-3,-1.3955337E-2,1.96271E-2,-3.3766694E-2,-2.331034E-4],"split_indices":[3,0,0,3,4,0,0,0,0],"split_type":[0,0,0,0,0,0,0,0,0],"sum_hessian":[1.22053406E2,1.1275915E2,9.294253E0,5.020092E1,6.2558228E1,1.1290308E1,3.8910614E1,3.5047573E1,2.7510656E1],"tree_param":{"num_deleted":"0","num_feature":"7","num_nodes":"9","size_leaf_vector":"1"}},{"base_weights":[9.822386E-2,-1.5574199E-2,6.6653055E-1,8.729948E-2,-5.9295416E-2,4.445194E-1,5.670328E-2,-9.155026E-3,1.8844865E-2,2.8148151E-3,4.7961995E-2],"categories":[],"categories_nodes":[],"categories_segments":[],"categories_sizes":[],"default_left":[0,0,0,0,0,0,0,0,0,0,0],"id":39,"left_children":[1,3,5,7,-1,9,-1,-1,-1,-1,-1],"loss_changes":[8.068018E0,1.2719045E1,1.6558151E0,7.6842413E0,0E0,3.0940282E0,0E0,0E0,0E0,0E0,0E0],"parents":[2147483647,0,0,1,1,2,2,3,3,5,5],"right_children":[2,4,6,8,-1,10,-1,-1,-1,-1,-1],"split_conditions":[-1.13690086E-1,9.7111404E1,-2.5707333E0,3E0,-5.9295416E-2,-2.6832577E-2,5.670328E-2,-9.155026E-3,1.8844865E-2,2.8148151E-3,4.7961995E-2],"split_indices":[3,0,2,5,0,3,0,0,0,0,0],"split_type":[0,0,0,0,0,0,0,0,0,0,0],"sum_hessian":[1.2359198E2,1.03783005E2,1.9808973E1,9.62481E1,7.5349097E0,1.4753824E1,5.0551486E0,4.9964012E1,4.6284084E1,9.042771E0,5.7110534E0],"tree_param":{"num_deleted":"0","num_feature":"7","num_nodes":"11","size_leaf_vector":"1"}},{"base_weights":[5.2719086E-2,3.930368E-1,-1.9150215E-1,8.446883E-2,8.118816E-1,-4.8606124E-2,-6.147175E-2,3.4109678E-2,-1.4768438E-2,2.2842182E-2,5.410857E-2,1.3811704E-3,-4.1049216E-2],"categories":[],"categories_nodes":[],"categories_segments":[],"categories_sizes":[],"default_left":[0,0,0,0,0,0,0,0,0,0,0,0,0],"id":40,"left_children":[1,3,5,7,9,-1,11,-1,-1,-1,-1,-1,-1],"loss_changes":[1.1093558E1,7.1322346E0,7.842827E0,7.738546E0,1.762517E0,0E0,4.6109934E0,0E0,0E0,0E0,0E0,0E0,0E0],"parents":[2147483647,0,0,1,1,2,2,3,3,4,4,6,6],"right_children":[2,4,6,8,10,-1,12,-1,-1,-1,-1,-1,-1],"split_conditions":[-2.1602046E0,2.5401987E-2,-8.447703E-1,3.1887224E1,2.11E2,-4.8606124E-2,8.964712E1,3.4109678E-2,-1.4768438E-2,2.2842182E-2,5.410857E-2,1.3811704E-3,-4.1049216E-2],"split_indices":[2,4,3,0,1,0,0,0,0,0,0,0,0],"split_type":[0,0,0,0,0,0,0,0,0,0,0,0,0],"sum_hessian":[1.3157031E2,5.4715683E1,7.685462E1,3.2197254E1,2.2518429E1,1.0049238E1,6.680539E1,1.2201137E1,1.9996117E1,1.0896102E1,1.1622328E1,6.065396E1,6.151426E0],"tree_param":{"num_deleted":"0","num_feature":"7","num_nodes":"13","size_leaf_vector":"1"}},{"base_weights":[2.6472373E-2,-5.2203196E-1,1.7835811E-1,-8.244168E-1,1.1725844E-3,-1.9498283E-2,5.1996166E-1,-6.0486477E-2,-2.5586445E-2,-1.7398447E-2,1.0632142E-2,5.3098556E-2,1.778312E-2],"categories":[],"categories_nodes":[],"categories_segments":[],"categories_sizes":[],"default_left":[0,0,0,0,0,0,0,0,0,0,0,0,0],"id":41,"left_children":[1,3,5,7,-1,9,11,-1,-1,-1,-1,-1,-1],"loss_changes":[1.0964409E1,4.729039E0,6.9676332E0,1.5975256E0,0E0,5.1179E0,2.9876394E0,0E0,0E0,0E0,0E0,0E0,0E0],"parents":[2147483647,0,0,1,1,2,2,3,3,5,5,6,6],"right_children":[2,4,6,8,-1,10,12,-1,-1,-1,-1,-1,-1],"split_conditions":[4E0,-3.6841604E-1,1.8324934E-2,2E0,1.1725844E-3,3E0,-3.4098837E0,-6.0486477E-2,-2.5586445E-2,-1.7398447E-2,1.0632142E-2,5.3098556E-2,1.778312E-2],"split_indices":[6,3,4,6,0,5,2,0,0,0,0,0,0],"split_type":[0,0,0,0,0,0,0,0,0,0,0,0,0],"sum_hessian":[1.2949216E2,2.7553022E1,1.01939125E2,1.73975E1,1.0155524E1,6.5148254E1,3.6790874E1,6.5085125E0,1.0888987E1,2.6770327E1,3.8377926E1,7.2872396E0,2.9503635E1],"tree_param":{"num_deleted":"0","num_feature":"7","num_nodes":"13","size_leaf_vector":"1"}},{"base_weights":[2.8549505E-2,-5.667134E-1,1.8377112E-1,-9.0180284E-1,-1.4154861E-2,2.6521996E-1,-3.1685673E-2,-2.5544062E-2,-6.3965976E-2,1.4513314E-2,-1.5211864E-2,3.2548074E-2,6.671294E-3],"categories":[],"categories_nodes":[],"categories_segments":[],"categories_sizes":[],"default_left":[0,0,0,0,0,0,0,0,0,0,0,0,0],"id":42,"left_children":[1,3,5,7,9,11,-1,-1,-1,-1,-1,-1,-1],"loss_changes":[1.2239162E1,5.0621195E0,7.15438E0,1.8620377E0,1.0917246E0,4.7999425E0,0E0,0E0,0E0,0E0,0E0,0E0,0E0],"parents":[2147483647,0,0,1,1,2,2,3,3,4,4,5,5],"right_children":[2,4,6,8,10,12,-1,-1,-1,-1,-1,-1,-1],"split_conditions":[4E0,-3.5004592E-1,-7.9369485E-1,-6.691719E-1,3.879866E1,-2.969027E0,-3.1685673E-2,-2.5544062E-2,-6.3965976E-2,1.4513314E-2,-1.5211864E-2,3.2548074E-2,6.671294E-3],"split_indices":[6,3,2,3,0,2,0,0,0,0,0,0,0],"split_type":[0,0,0,0,0,0,0,0,0,0,0,0,0],"sum_hessian":[1.3033466E2,2.6408623E1,1.03926025E2,1.604585E1,1.0362773E1,9.5124054E1,8.801974E0,9.03908E0,7.0067706E0,5.056108E0,5.306665E0,2.3220854E1,7.19032E1],"tree_param":{"num_deleted":"0","num_feature":"7","num_nodes":"13","size_leaf_vector":"1"}},{"base_weights":[-1.835438E-2,-5.180085E-1,1.7067893E-1,-6.3596465E-2,-8.77396E-1,8.18346E-2,5.359866E-2,-1.6708469E-2,1.778408E-2,-5.695493E-2,-2.0030847E-2,-2.557654E-3,3.62489E-2],"categories":[],"categories_nodes":[],"categories_segments":[],"categories_sizes":[],"default_left":[0,0,0,0,0,0,0,0,0,0,0,0,0],"id":43,"left_children":[1,3,5,7,9,11,-1,-1,-1,-1,-1,-1,-1],"loss_changes":[1.1627607E1,5.461092E0,7.0701017E0,1.93361E0,1.8875427E0,7.0891294E0,0E0,0E0,0E0,0E0,0E0,0E0,0E0],"parents":[2147483647,0,0,1,1,2,2,3,3,4,4,5,5],"right_children":[2,4,6,8,10,12,-1,-1,-1,-1,-1,-1,-1],"split_conditions":[5E0,3.879866E1,1E1,2.8318993E1,-3.5004592E-1,-1.13690086E-1,5.359866E-2,-1.6708469E-2,1.778408E-2,-5.695493E-2,-2.0030847E-2,-2.557654E-3,3.62489E-2],"split_indices":[6,0,5,0,3,3,0,0,0,0,0,0,0],"split_type":[0,0,0,0,0,0,0,0,0,0,0,0,0],"sum_hessian":[1.21170876E2,3.2781715E1,8.838916E1,1.4996719E1,1.7784998E1,8.145099E1,6.9381666E0,9.238088E0,5.758631E0,1.0585496E1,7.199502E0,6.825736E1,1.3193633E1],"tree_param":{"num_deleted":"0","num_feature":"7","num_nodes":"13","size_leaf_vector":"1"}},{"base_weights":[-8.94558E-2,-5.5991614E-1,1.0183526E-1,-5.6403566E-2,-3.6016196E-1,5.895759E-1,-5.515839E-2,6.2058163E-3,-2.9024709E-2,5.6747315E-3,4.130761E-2,3.8868499E-3,-3.067906E-2],"categories":[],"categories_nodes":[],"categories_segments":[],"categories_sizes":[],"default_left":[0,0,0,0,0,0,0,0,0,0,0,0,0],"id":44,"left_children":[1,3,5,-1,7,9,11,-1,-1,-1,-1,-1,-1],"loss_changes":[1.1411716E1,3.7504168E0,6.9657316E0,0E0,3.1202497E0,2.399104E0,5.1988487E0,0E0,0E0,0E0,0E0,0E0,0E0],"parents":[2147483647,0,0,1,1,2,2,4,4,5,5,6,6],"right_children":[2,4,6,-1,8,10,12,-1,-1,-1,-1,-1,-1],"split_conditions":[5E0,2E0,-2.8494966E0,-5.6403566E-2,-2.393531E0,-3.144769E-1,7.644134E1,6.2058163E-3,-2.9024709E-2,5.6747315E-3,4.130761E-2,3.8868499E-3,-3.067906E-2],"split_indices":[6,6,2,0,2,3,0,0,0,0,0,0,0],"split_type":[0,0,0,0,0,0,0,0,0,0,0,0,0],"sum_hessian":[1.25170525E2,3.5625732E1,8.954479E1,8.058336E0,2.7567394E1,2.113333E1,6.841147E1,8.756896E0,1.88105E1,7.506713E0,1.3626616E1,5.5955723E1,1.2455744E1],"tree_param":{"num_deleted":"0","num_feature":"7","num_nodes":"13","size_leaf_vector":"1"}},{"base_weights":[3.5752974E-2,-1.6095808E-1,4.2661786E-1,-6.8774325E-1,-1.2998759E-2,4.547608E-2,2.3742251E-1,-1.052063E-2,-4.3864045E-2,-9.426126E-3,3.1112397E-2,2.1410657E-2,-1.2332066E-2],"categories":[],"categories_nodes":[],"categories_segments":[],"categories_sizes":[],"default_left":[0,0,0,0,0,0,0,0,0,0,0,0,0],"id":45,"left_children":[1,3,5,7,9,-1,11,-1,-1,-1,-1,-1,-1],"loss_changes":[9.681945E0,6.5303316E0,3.6333866E0,1.478117E0,7.5343723E0,0E0,3.0263598E0,0E0,0E0,0E0,0E0,0E0,0E0],"parents":[2147483647,0,0,1,1,2,2,3,3,4,4,6,6],"right_children":[2,4,6,8,10,-1,12,-1,-1,-1,-1,-1,-1],"split_conditions":[4E0,-6.959645E-1,-2.8341398E0,3.591144E1,2.11E2,4.547608E-2,5.721196E1,-1.052063E-2,-4.3864045E-2,-9.426126E-3,3.1112397E-2,2.1410657E-2,-1.2332066E-2],"split_indices":[5,3,2,0,1,0,0,0,0,0,0,0,0],"split_type":[0,0,0,0,0,0,0,0,0,0,0,0,0],"sum_hessian":[1.2403052E2,8.289836E1,4.113216E1,1.7378136E1,6.5520226E1,1.0506915E1,3.0625244E1,5.538965E0,1.183917E1,5.1886734E1,1.3633491E1,2.2049826E1,8.575418E0],"tree_param":{"num_deleted":"0","num_feature":"7","num_nodes":"13","size_leaf_vector":"1"}},{"base_weights":[8.5272186E-2,-7.2884977E-1,2.76359E-1,-3.4117332E-1,-5.567317E-2,1.437837E-1,4.5417544E-2,-1.9421636E-3,-3.4651425E-2,-7.1271234E-3,1.8666228E-2],"categories":[],"categories_nodes":[],"categories_segments":[],"categories_sizes":[],"default_left":[0,0,0,0,0,0,0,0,0,0,0],"id":46,"left_children":[1,3,5,7,-1,9,-1,-1,-1,-1,-1],"loss_changes":[2.155158E1,3.5511055E0,9.243113E0,1.5231323E0,0E0,6.2092166E0,0E0,0E0,0E0,0E0,0E0],"parents":[2147483647,0,0,1,1,2,2,3,3,5,5],"right_children":[2,4,6,8,-1,10,-1,-1,-1,-1,-1],"split_conditions":[4E0,-1.5958945E0,-1.13690086E-1,5.3004753E1,-5.567317E-2,3E0,4.5417544E-2,-1.9421636E-3,-3.4651425E-2,-7.1271234E-3,1.8666228E-2],"split_indices":[6,2,3,0,0,5,0,0,0,0,0],"split_type":[0,0,0,0,0,0,0,0,0,0,0],"sum_hessian":[1.3624005E2,2.5363798E1,1.1087625E2,1.357139E1,1.1792409E1,9.266507E1,1.8211187E1,7.8966355E0,5.6747546E0,4.1401016E1,5.1264053E1],"tree_param":{"num_deleted":"0","num_feature":"7","num_nodes":"11","size_leaf_vector":"1"}},{"base_weights":[-2.5198637E-2,4.2974016E-1,-2.997589E-1,7.434603E-1,-2.9665519E-2,-4.66829E-1,5.2294445E-1,2.7097879E-2,5.6335878E-2,-2.7548162E-2,2.3266206E-2,-3.0052314E-2,2.0838743E-2,4.7544982E-2,1.399821E-3],"categories":[],"categories_nodes":[],"categories_segments":[],"categories_sizes":[],"default_left":[0,0,0,0,0,0,0,0,0,0,0,0,0,0,0],"id":47,"left_children":[1,3,5,7,9,11,13,-1,-1,-1,-1,-1,-1,-1,-1],"loss_changes":[1.4398619E1,6.278241E0,1.0117683E1,1.384325E0,5.0496287E0,7.39433E0,2.641621E0,0E0,0E0,0E0,0E0,0E0,0E0,0E0,0E0],"parents":[2147483647,0,0,1,1,2,2,3,3,4,4,5,5,6,6],"right_children":[2,4,6,8,10,12,14,-1,-1,-1,-1,-1,-1,-1,-1],"split_conditions":[-2.2293048E0,5.1700714E1,1.5E1,-2.6043894E0,4.56472E-3,2.11E2,-1.514116E0,2.7097879E-2,5.6335878E-2,-2.7548162E-2,2.3266206E-2,-3.0052314E-2,2.0838743E-2,4.7544982E-2,1.399821E-3],"split_indices":[2,0,6,2,4,1,2,0,0,0,0,0,0,0,0],"split_type":[0,0,0,0,0,0,0,0,0,0,0,0,0,0,0],"sum_hessian":[1.1324237E2,4.2408108E1,7.083427E1,2.4832273E1,1.7575834E1,5.923725E1,1.159701E1,1.7857521E1,6.974753E0,8.505352E0,9.070481E0,5.170341E1,7.533842E0,5.7253733E0,5.8716364E0],"tree_param":{"num_deleted":"0","num_feature":"7","num_nodes":"15","size_leaf_vector":"1"}},{"base_weights":[4.074059E-2,-4.2704474E-2,1.14008166E-1,-1.2162889E-1,4.1072068E-1,1.7388523E-2,-2.1020567E-2,2.6275938E-2,-1.6630251E-2],"categories":[],"categories_nodes":[],"categories_segments":[],"categories_sizes":[],"default_left":[0,0,0,0,0,0,0,0,0],"id":48,"left_children":[1,-1,3,5,7,-1,-1,-1,-1],"loss_changes":[8.085649E0,0E0,7.9857473E0,9.12694E0,4.4814644E0,0E0,0E0,0E0,0E0],"parents":[2147483647,0,0,2,2,3,3,4,4],"right_children":[2,-1,4,6,8,-1,-1,-1,-1],"split_conditions":[2E0,-4.2704474E-2,6.0121566E-3,3.1887224E1,1.5138851E-1,1.7388523E-2,-2.1020567E-2,2.6275938E-2,-1.6630251E-2],"split_indices":[6,0,4,0,4,0,0,0,0],"split_type":[0,0,0,0,0,0,0,0,0],"sum_hessian":[1.2084301E2,8.339088E0,1.1250392E2,6.303453E1,4.946939E1,2.4453356E1,3.8581173E1,4.310529E1,6.3641E0],"tree_param":{"num_deleted":"0","num_feature":"7","num_nodes":"9","size_leaf_vector":"1"}},{"base_weights":[-1.1428835E-1,-2.4503928E-1,5.79008E-1,4.7648832E-2,-5.844587E-1,-5.9674582E-3,8.7110424E-1,-1.5845492E-2,2.1721354E-2,2.110127E-3,-3.9014336E-2,6.7366146E-2,1.8000271E-2],"categories":[],"categories_nodes":[],"categories_segments":[],"categories_sizes":[],"default_left":[0,0,0,0,0,0,0,0,0,0,0,0,0],"id":49,"left_children":[1,3,5,7,9,-1,11,-1,-1,-1,-1,-1,-1],"loss_changes":[1.1471674E1,1.0544055E1,4.209959E0,8.282846E0,6.057232E0,0E0,2.998661E0,0E0,0E0,0E0,0E0,0E0,0E0],"parents":[2147483647,0,0,1,1,2,2,3,3,4,4,6,6],"right_children":[2,4,6,8,10,-1,12,-1,-1,-1,-1,-1,-1],"split_conditions":[2.11E2,-1.650761E0,2.3691261E1,3E0,2.692041E1,-5.9674582E-3,8E0,-1.5845492E-2,2.1721354E-2,2.110127E-3,-3.9014336E-2,6.7366146E-2,1.8000271E-2],"split_indices":[1,2,0,5,0,0,6,0,0,0,0,0,0],"split_type":[0,0,0,0,0,0,0,0,0,0,0,0,0],"sum_hessian":[1.2398512E2,1.04856476E2,1.9128653E1,5.6765804E1,4.8090668E1,5.815674E0,1.3312978E1,2.9315273E1,2.7450531E1,1.1636781E1,3.6453888E1,6.044685E0,7.268293E0],"tree_param":{"num_deleted":"0","num_feature":"7","num_nodes":"13","size_leaf_vector":"1"}}]},"name":"gbtree"},"name":"dart","weight_drop":[8.9893794E-1,9.0702957E-1,1E0,9.686905E-1,9.2915225E-1,9.0702957E-1,9.836066E-1,9.52381E-1,9.7146326E-1,9.756098E-1,8.8332695E-1,4.8434526E-1,1E0,9.635652E-1,1E0,9.3012446E-1,4.878049E-1,3.2554352E-1,1E0,1E0,1E0,9.52381E-1,8.937002E-1,1E0,9.686905E-1,4.878049E-1,9.9290776E-1,9.9009895E-1,1E0,9.52381E-1,1E0,9.9290776E-1,3.2249397E-1,1E0,1E0,9.9009895E-1,9.756098E-1,4.878049E-1,1E0,9.836066E-1,9.52381E-1,3.246226E-1,1.9801979E-1,9.8765427E-1,1E0,1E0,1.4184397E-1,1E0,1E0,2.4691357E-1]},"learner_model_param":{"base_score":"4.9606124E-1","boost_from_average":"1","num_class":"0","num_feature":"7","num_target":"1"},"objective":{"name":"binary:logistic","reg_loss_param":{"scale_pos_weight":"1.86373627"}}},"version":[3,0,2]}