{"learner":{"attributes":{},"feature_names":["wc_track_length","wc_reco_larpid_pidScore_mu","wc_reco_larpid_pidScore_pi","wc_reco_larpid_pidScore_pr","wc_n_pion_candidate_daughters","wc_pion_candidate_daughters_total_energy","wc_n_blips_25cm","wc_n_blips_50cm","wc_n_blips_100cm"],"feature_types":["float","float","float","float","float","float","float","float","float"],"gradient_booster":{"gbtree":{"model":{"gbtree_model_param":{"num_parallel_tree":"1","num_trees":"50"},"iteration_indptr":[0,1,2,3,4,5,6,7,8,9,10,11,12,13,14,15,16,17,18,19,20,21,22,23,24,25,26,27,28,29,30,31,32,33,34,35,36,37,38,39,40,41,42,43,44,45,46,47,48,49,50],"tree_info":[0,0,0,0,0,0,0,0,0,0,0,0,0,0,0,0,0,0,0,0,0,0,0,0,0,0,0,0,0,0,0,0,0,0,0,0,0,0,0,0,0,0,0,0,0,0,0,0,0,0],"trees":[{"base_weights":[-1.9032815E-2,-6.161244E-1,1.0053718E0,-9.478976E-1,4.1621107E-1,1.5318885E0,2.4058351E-1,2.107458E-2,-5.7154205E-2,8.308085E-2,2.2087356E-3,9.469795E-2,5.6726553E-2,5.74924E-2,-1.4532474E-2],"categories":[],"categories_nodes":[],"categories_segments":[],"categories_sizes":[],"default_left":[0,0,0,0,0,0,0,0,0,0,0,0,0,0,0],"id":0,"left_children":[1,3,5,7,9,11,13,-1,-1,-1,-1,-1,-1,-1,-1],"loss_changes":[1.4710133E2,5.2425922E1,3.5294395E1,3.1292587E1,1.7368095E1,5.371025E0,1.8350273E1,0E0,0E0,0E0,0E0,0E0,0E0,0E0,0E0],"parents":[2147483647,0,0,1,1,2,2,3,3,4,4,5,5,6,6],"right_children":[2,4,6,8,10,12,14,-1,-1,-1,-1,-1,-1,-1,-1],"split_conditions":[-3.2400876E-1,4E0,-2.443099E0,2.4810814E1,-2.981873E0,-3.4303384E0,3.3282856E1,2.107458E-2,-5.7154205E-2,8.308085E-2,2.2087356E-3,9.469795E-2,5.6726553E-2,5.74924E-2,-1.4532474E-2],"split_indices":[2,7,1,0,1,1,0,0,0,0,0,0,0,0,0],"split_type":[0,0,0,0,0,0,0,0,0,0,0,0,0,0,0],"sum_hessian":[2.3848125E2,1.5091591E2,8.756534E1,1.1427263E2,3.6643284E1,5.12674E1,3.629794E1,1.4111281E1,1.0016135E2,7.631218E0,2.9012068E1,2.4854074E1,2.6413322E1,1.2956668E1,2.334127E1],"tree_param":{"num_deleted":"0","num_feature":"9","num_nodes":"15","size_leaf_vector":"1"}},{"base_weights":[-5.2641038E-2,1.1211654E0,-6.499508E-1,4.6666124E-1,1.6710374E0,-4.4263147E-2,-1.2796029E0,7.346136E-2,-7.192933E-3,9.639577E-2,6.453693E-2,-4.0134013E-2,2.4582274E-2,-7.4773885E-2,7.4364482E-3],"categories":[],"categories_nodes":[],"categories_segments":[],"categories_sizes":[],"default_left":[0,0,0,0,0,0,0,0,0,0,0,0,0,0,0],"id":1,"left_children":[1,3,5,7,9,11,13,-1,-1,-1,-1,-1,-1,-1,-1],"loss_changes":[1.7065785E2,2.8769272E1,6.1443886E1,2.4005299E1,1.8325424E0,3.4223026E1,2.459076E1,0E0,0E0,0E0,0E0,0E0,0E0,0E0,0E0],"parents":[2147483647,0,0,1,1,2,2,3,3,4,4,5,5,6,6],"right_children":[2,4,6,8,10,12,14,-1,-1,-1,-1,-1,-1,-1,-1],"split_conditions":[-2.3553925E0,-1.5658252E-1,5.558602E1,2.9408846E1,-3.5013149E0,-7.114464E-1,1.3E1,7.346136E-2,-7.192933E-3,9.639577E-2,6.453693E-2,-4.0134013E-2,2.4582274E-2,-7.4773885E-2,7.4364482E-3],"split_indices":[1,2,0,0,1,2,8,0,0,0,0,0,0,0,0],"split_type":[0,0,0,0,0,0,0,0,0,0,0,0,0,0,0],"sum_hessian":[2.4136604E2,8.1105034E1,1.6026102E2,3.787349E1,4.3231544E1,8.22305E1,7.803052E1,1.3802001E1,2.4071487E1,2.3373878E1,1.9857668E1,3.384099E1,4.838951E1,6.774472E1,1.0285791E1],"tree_param":{"num_deleted":"0","num_feature":"9","num_nodes":"15","size_leaf_vector":"1"}},{"base_weights":[2.114348E-2,-5.7404673E-1,8.94116E-1,-9.49989E-1,4.4379553E-1,1.543933E0,3.9277765E-1,-1.2339307E-2,-5.809921E-2,8.3105646E-2,6.9106193E-3,4.1022934E-2,8.254938E-2,4.9816538E-2,-2.4536988E-2],"categories":[],"categories_nodes":[],"categories_segments":[],"categories_sizes":[],"default_left":[0,0,0,0,0,0,0,0,0,0,0,0,0,0,0],"id":2,"left_children":[1,3,5,7,9,11,13,-1,-1,-1,-1,-1,-1,-1,-1],"loss_changes":[1.2441451E2,5.4910583E1,3.1014595E1,1.5263092E1,1.4323582E1,1.8930206E0,3.042154E1,0E0,0E0,0E0,0E0,0E0,0E0,0E0,0E0],"parents":[2147483647,0,0,1,1,2,2,3,3,4,4,5,5,6,6],"right_children":[2,4,6,8,10,12,14,-1,-1,-1,-1,-1,-1,-1,-1],"split_conditions":[-3.556031E-1,4E0,-2.8820133E0,3.9056957E1,-2.981873E0,5E0,5.345682E1,-1.2339307E-2,-5.809921E-2,8.3105646E-2,6.9106193E-3,4.1022934E-2,8.254938E-2,4.9816538E-2,-2.4536988E-2],"split_indices":[2,7,1,0,1,8,0,0,0,0,0,0,0,0,0],"split_type":[0,0,0,0,0,0,0,0,0,0,0,0,0,0,0],"sum_hessian":[2.3746208E2,1.4139905E2,9.606305E1,1.0330849E2,3.8090553E1,4.0930614E1,5.5132435E1,2.4431522E1,7.887697E1,6.7480135E0,3.1342539E1,6.392698E0,3.4537914E1,3.2680126E1,2.2452309E1],"tree_param":{"num_deleted":"0","num_feature":"9","num_nodes":"15","size_leaf_vector":"1"}},{"base_weights":[-6.6146143E-3,-6.2191916E-1,9.4239223E-1,-1.1645684E0,-4.5328002E-2,1.5374693E0,3.951358E-1,-2.0788332E-2,-6.8510585E-2,-2.1525657E-2,2.9360568E-2,8.286821E-2,5.0615694E-2,5.9141852E-2,-1.3989761E-2],"categories":[],"categories_nodes":[],"categories_segments":[],"categories_sizes":[],"default_left":[0,0,0,0,0,0,0,0,0,0,0,0,0,0,0],"id":3,"left_children":[1,3,5,7,9,11,13,-1,-1,-1,-1,-1,-1,-1,-1],"loss_changes":[1.3614084E2,4.4200188E1,2.9258217E1,1.0643776E1,1.721369E1,1.0667267E0,2.6445114E1,0E0,0E0,0E0,0E0,0E0,0E0,0E0,0E0],"parents":[2147483647,0,0,1,1,2,2,3,3,4,4,5,5,6,6],"right_children":[2,4,6,8,10,12,14,-1,-1,-1,-1,-1,-1,-1,-1],"split_conditions":[-3.2400876E-1,2E0,-2.8820133E0,3.9056957E1,1E0,-3.1301153E0,3.2363434E1,-2.0788332E-2,-6.8510585E-2,-2.1525657E-2,2.9360568E-2,8.286821E-2,5.0615694E-2,5.9141852E-2,-1.3989761E-2],"split_indices":[2,7,1,0,4,1,0,0,0,0,0,0,0,0,0],"split_type":[0,0,0,0,0,0,0,0,0,0,0,0,0,0,0],"sum_hessian":[2.3114285E2,1.4043446E2,9.070838E1,7.182129E1,6.8613174E1,4.258873E1,4.811965E1,1.6125576E1,5.5695713E1,4.2843185E1,2.5769989E1,3.2917576E1,9.671154E0,2.1857538E1,2.6262114E1],"tree_param":{"num_deleted":"0","num_feature":"9","num_nodes":"15","size_leaf_vector":"1"}},{"base_weights":[-4.781615E-2,-6.21608E-1,8.56039E-1,-1.0071418E0,-1.7850626E-2,1.29802E0,6.0686417E-2,-1.2717957E-2,-6.550791E-2,-3.234018E-2,3.1609327E-2,8.137353E-2,4.7756184E-2,1.973652E-2,-5.1455367E-2],"categories":[],"categories_nodes":[],"categories_segments":[],"categories_sizes":[],"default_left":[0,0,0,0,0,0,0,0,0,0,0,0,0,0,0],"id":4,"left_children":[1,3,5,7,9,11,13,-1,-1,-1,-1,-1,-1,-1,-1],"loss_changes":[1.183732E2,3.246853E1,3.1085442E1,1.9091698E1,2.3061943E1,4.877548E0,1.2316211E1,0E0,0E0,0E0,0E0,0E0,0E0,0E0,0E0],"parents":[2147483647,0,0,1,1,2,2,3,3,4,4,5,5,6,6],"right_children":[2,4,6,8,10,12,14,-1,-1,-1,-1,-1,-1,-1,-1],"split_conditions":[-3.2400876E-1,7.717873E-3,-2.3493795E0,3.7650753E1,2E0,-3.4303384E0,6.915115E1,-1.2717957E-2,-6.550791E-2,-3.234018E-2,3.1609327E-2,8.137353E-2,4.7756184E-2,1.973652E-2,-5.1455367E-2],"split_indices":[2,5,1,0,7,1,0,0,0,0,0,0,0,0,0],"split_type":[0,0,0,0,0,0,0,0,0,0,0,0,0,0,0],"sum_hessian":[2.262184E2,1.385655E2,8.765289E1,8.415779E1,5.4407707E1,5.593664E1,3.171625E1,2.468136E1,5.9476433E1,2.7654837E1,2.675287E1,2.661706E1,2.9319582E1,2.4763521E1,6.9527287E0],"tree_param":{"num_deleted":"0","num_feature":"9","num_nodes":"15","size_leaf_vector":"1"}},{"base_weights":[2.990611E-2,-5.501496E-1,8.7349975E-1,-7.9943115E-1,1.4476235E-1,1.4476527E0,4.299712E-1,1.4913148E-2,-5.032394E-2,-3.730572E-2,1.8369809E-2,8.0012195E-2,5.102085E-2,5.930508E-2,-7.4683256E-3],"categories":[],"categories_nodes":[],"categories_segments":[],"categories_sizes":[],"default_left":[0,0,0,0,0,0,0,0,0,0,0,0,0,0,0],"id":5,"left_children":[1,3,5,7,9,11,13,-1,-1,-1,-1,-1,-1,-1,-1],"loss_changes":[1.14268295E2,2.4091476E1,2.3603233E1,2.348619E1,7.6895823E0,1.0424728E0,2.4311296E1,0E0,0E0,0E0,0E0,0E0,0E0,0E0,0E0],"parents":[2147483647,0,0,1,1,2,2,3,3,4,4,5,5,6,6],"right_children":[2,4,6,8,10,12,14,-1,-1,-1,-1,-1,-1,-1,-1],"split_conditions":[-3.556031E-1,1E1,-2.8820133E0,2.4810814E1,-1.135294E0,-3.4303384E0,3.3282856E1,1.4913148E-2,-5.032394E-2,-3.730572E-2,1.8369809E-2,8.0012195E-2,5.102085E-2,5.930508E-2,-7.4683256E-3],"split_indices":[2,8,1,0,2,1,0,0,0,0,0,0,0,0,0],"split_type":[0,0,0,0,0,0,0,0,0,0,0,0,0,0,0],"sum_hessian":[2.3153722E2,1.3740515E2,9.413206E1,1.01017395E2,3.638776E1,4.0038197E1,5.4093864E1,1.5960398E1,8.5057E1,6.8052034E0,2.9582558E1,2.7478443E1,1.2559751E1,2.3012045E1,3.108182E1],"tree_param":{"num_deleted":"0","num_feature":"9","num_nodes":"15","size_leaf_vector":"1"}},{"base_weights":[-1.709488E-3,1.1621511E0,-3.8922766E-1,1.3535017E0,3.0753904E-3,5.820468E-1,-6.4650434E-1,4.9523648E-2,7.933801E-2,4.7597747E-2,-3.250552E-2,-7.478404E-2,-2.2059686E-2],"categories":[],"categories_nodes":[],"categories_segments":[],"categories_sizes":[],"default_left":[0,0,0,0,0,0,0,0,0,0,0,0,0],"id":6,"left_children":[1,3,5,7,-1,9,11,-1,-1,-1,-1,-1,-1],"loss_changes":[1.0241517E2,1.1862816E1,4.2944805E1,2.5161133E0,0E0,1.711845E1,2.2903027E1,0E0,0E0,0E0,0E0,0E0,0E0],"parents":[2147483647,0,0,1,1,2,2,3,3,5,5,6,6],"right_children":[2,4,6,8,-1,10,12,-1,-1,-1,-1,-1,-1],"split_conditions":[-2.8820133E0,-1.3840783E0,2.4810814E1,1.0632936E-2,3.0753904E-3,-9.895304E-1,-1.1430938E0,4.9523648E-2,7.933801E-2,4.7597747E-2,-3.250552E-2,-7.478404E-2,-2.2059686E-2],"split_indices":[1,3,0,5,0,1,2,0,0,0,0,0,0],"split_type":[0,0,0,0,0,0,0,0,0,0,0,0,0],"sum_hessian":[2.2507312E2,5.5721592E1,1.6935153E2,4.7273235E1,8.448354E0,3.5200348E1,1.3415117E2,2.0544823E1,2.6728415E1,2.724768E1,7.952668E0,2.489579E1,1.0925539E2],"tree_param":{"num_deleted":"0","num_feature":"9","num_nodes":"13","size_leaf_vector":"1"}},{"base_weights":[8.445656E-2,-4.4274914E-1,9.0539044E-1,-9.71843E-1,6.734101E-2,7.4311465E-2,4.5135754E-1,-1.4680604E-2,-5.9810113E-2,2.0119937E-2,-3.2919403E-2,5.284941E-2,-7.509608E-3],"categories":[],"categories_nodes":[],"categories_segments":[],"categories_sizes":[],"default_left":[0,0,0,0,0,0,0,0,0,0,0,0,0],"id":7,"left_children":[1,3,5,7,9,-1,11,-1,-1,-1,-1,-1,-1],"loss_changes":[1.0430679E2,3.9701965E1,2.4175186E1,1.0628281E1,1.86747E1,0E0,1.9946663E1,0E0,0E0,0E0,0E0,0E0,0E0],"parents":[2147483647,0,0,1,1,2,2,3,3,4,4,6,6],"right_children":[2,4,6,8,10,-1,12,-1,-1,-1,-1,-1,-1],"split_conditions":[-3.2400876E-1,2E0,-3.0441296E0,3.9056957E1,-8.46593E-1,7.4311465E-2,3.9056957E1,-1.4680604E-2,-5.9810113E-2,2.0119937E-2,-3.2919403E-2,5.284941E-2,-7.509608E-3],"split_indices":[2,7,1,0,1,0,0,0,0,0,0,0,0],"split_type":[0,0,0,0,0,0,0,0,0,0,0,0,0],"sum_hessian":[2.3907784E2,1.4586418E2,9.3213646E1,7.115403E1,7.471015E1,3.9898537E1,5.3315113E1,1.8260826E1,5.2893204E1,5.141717E1,2.329298E1,2.6190166E1,2.7124949E1],"tree_param":{"num_deleted":"0","num_feature":"9","num_nodes":"13","size_leaf_vector":"1"}},{"base_weights":[-1.5040464E-2,1.0872841E0,-3.6564624E-1,-5.540239E-3,1.2268845E0,1.9312888E-1,-7.133599E-1,4.1808866E-2,7.292276E-2,-2.593944E-2,2.595268E-2,3.5578202E-2,-4.067147E-2],"categories":[],"categories_nodes":[],"categories_segments":[],"categories_sizes":[],"default_left":[0,0,0,0,0,0,0,0,0,0,0,0,0],"id":8,"left_children":[1,3,5,-1,7,9,11,-1,-1,-1,-1,-1,-1],"loss_changes":[8.707948E1,9.230148E0,3.334473E1,0E0,3.194107E0,1.5663542E1,1.5631565E1,0E0,0E0,0E0,0E0,0E0,0E0],"parents":[2147483647,0,0,1,1,2,2,4,4,5,5,6,6],"right_children":[2,4,6,-1,8,10,12,-1,-1,-1,-1,-1,-1],"split_conditions":[-2.8820133E0,-1.0313438E0,4.342012E1,-5.540239E-3,4E0,-7.414934E-1,-1.0822677E1,4.1808866E-2,7.292276E-2,-2.593944E-2,2.595268E-2,3.5578202E-2,-4.067147E-2],"split_indices":[1,2,0,0,7,2,3,0,0,0,0,0,0],"split_type":[0,0,0,0,0,0,0,0,0,0,0,0,0],"sum_hessian":[2.2328485E2,5.337371E1,1.6991113E2,5.591576E0,4.7782135E1,6.534554E1,1.0456559E2,1.9497221E1,2.8284916E1,2.0335325E1,4.501022E1,6.4605775E0,9.810501E1],"tree_param":{"num_deleted":"0","num_feature":"9","num_nodes":"13","size_leaf_vector":"1"}},{"base_weights":[8.579239E-2,7.966634E-1,-3.9807835E-1,3.991761E-1,6.235027E-2,-9.6507484E-1,-1.4691816E-2,5.248601E-2,-3.2715555E-3,-6.2326457E-2,6.0777034E-4,-5.4389685E-2,1.3751051E-2],"categories":[],"categories_nodes":[],"categories_segments":[],"categories_sizes":[],"default_left":[0,0,0,0,0,0,0,0,0,0,0,0,0],"id":9,"left_children":[1,3,5,7,-1,9,11,-1,-1,-1,-1,-1,-1],"loss_changes":[7.757587E1,1.5845394E1,2.918179E1,1.5170984E1,0E0,1.4913036E1,2.5526144E1,0E0,0E0,0E0,0E0,0E0,0E0],"parents":[2147483647,0,0,1,1,2,2,3,3,5,5,6,6],"right_children":[2,4,6,8,-1,10,12,-1,-1,-1,-1,-1,-1],"split_conditions":[-2.170939E0,-1.31192E-1,-7.914947E-1,3.2007244E1,6.235027E-2,1.1E1,1E0,5.248601E-2,-3.2715555E-3,-6.2326457E-2,6.0777034E-4,-5.4389685E-2,1.3751051E-2],"split_indices":[1,2,2,0,0,8,7,0,0,0,0,0,0],"split_type":[0,0,0,0,0,0,0,0,0,0,0,0,0],"sum_hessian":[2.2360913E2,9.029995E1,1.3330917E2,4.8966667E1,4.1333286E1,5.316515E1,8.014403E1,1.9876364E1,2.9090302E1,4.1062946E1,1.2102204E1,1.645174E1,6.369229E1],"tree_param":{"num_deleted":"0","num_feature":"9","num_nodes":"13","size_leaf_vector":"1"}},{"base_weights":[-5.6996685E-2,-4.96984E-1,6.918006E-1,-9.13526E-1,-7.6060586E-2,6.688859E-2,4.11733E-1,9.521586E-3,-5.280721E-2,-1.8363217E-2,2.4228087E-2,6.863883E-3,5.7663586E-2],"categories":[],"categories_nodes":[],"categories_segments":[],"categories_sizes":[],"default_left":[0,0,0,0,0,0,0,0,0,0,0,0,0],"id":10,"left_children":[1,3,5,7,9,-1,11,-1,-1,-1,-1,-1,-1],"loss_changes":[7.21812E1,2.4113243E1,1.41250305E1,1.1101387E1,1.1555647E1,0E0,1.165208E1,0E0,0E0,0E0,0E0,0E0,0E0],"parents":[2147483647,0,0,1,1,2,2,3,3,4,4,6,6],"right_children":[2,4,6,8,10,-1,12,-1,-1,-1,-1,-1,-1],"split_conditions":[-3.2400876E-1,2E0,-3.4303384E0,2.4810814E1,1E0,6.688859E-2,2E0,9.521586E-3,-5.280721E-2,-1.8363217E-2,2.4228087E-2,6.863883E-3,5.7663586E-2],"split_indices":[2,7,1,0,4,0,6,0,0,0,0,0,0],"split_type":[0,0,0,0,0,0,0,0,0,0,0,0,0],"sum_hessian":[2.1704494E2,1.3692513E2,8.011982E1,6.823254E1,6.869259E1,2.3088951E1,5.7030872E1,7.767981E0,6.0464554E1,4.543645E1,2.3256134E1,4.248983E1,1.4541041E1],"tree_param":{"num_deleted":"0","num_feature":"9","num_nodes":"13","size_leaf_vector":"1"}},{"base_weights":[1.3985499E-2,-4.748102E-1,8.1536466E-1,-8.2852274E-1,4.9673045E-1,6.822502E-2,4.933661E-1,-1.7464807E-2,-6.0845938E-2,5.978254E-3,5.5387236E-2,4.417146E-2,-9.590125E-3],"categories":[],"categories_nodes":[],"categories_segments":[],"categories_sizes":[],"default_left":[0,0,0,0,0,0,0,0,0,0,0,0,0],"id":11,"left_children":[1,3,5,7,9,-1,11,-1,-1,-1,-1,-1,-1],"loss_changes":[8.838162E1,4.857898E1,1.4440689E1,1.8770508E1,8.633005E0,0E0,1.49882965E1,0E0,0E0,0E0,0E0,0E0,0E0],"parents":[2147483647,0,0,1,1,2,2,3,3,4,4,6,6],"right_children":[2,4,6,8,10,-1,12,-1,-1,-1,-1,-1,-1],"split_conditions":[-3.2400876E-1,4E0,-3.1301153E0,5.8462032E1,1.8282237E-2,6.822502E-2,5.417328E1,-1.7464807E-2,-6.0845938E-2,5.978254E-3,5.5387236E-2,4.417146E-2,-9.590125E-3],"split_indices":[2,7,1,0,5,0,0,0,0,0,0,0,0],"split_type":[0,0,0,0,0,0,0,0,0,0,0,0,0],"sum_hessian":[2.2364148E2,1.3916579E2,8.44757E1,1.021301E2,3.7035686E1,3.0028156E1,5.4447544E1,4.6569332E1,5.556076E1,2.3639338E1,1.3396351E1,3.4511154E1,1.993639E1],"tree_param":{"num_deleted":"0","num_feature":"9","num_nodes":"13","size_leaf_vector":"1"}},{"base_weights":[6.4851016E-2,-3.0258423E-1,8.3855903E-1,-4.9012673E-1,1.038425E0,6.075708E-2,2.366086E-1,-3.6124296E-2,-1.2738962E-3,3.0603653E-2,6.399336E-2,3.6682654E-2,-1.6461E-2],"categories":[],"categories_nodes":[],"categories_segments":[],"categories_sizes":[],"default_left":[0,0,0,0,0,0,0,0,0,0,0,0,0],"id":12,"left_children":[1,3,5,7,9,-1,11,-1,-1,-1,-1,-1,-1],"loss_changes":[6.2711514E1,3.8156284E1,1.580838E1,1.4233723E1,1.1402512E0,0E0,8.276047E0,0E0,0E0,0E0,0E0,0E0,0E0],"parents":[2147483647,0,0,1,1,2,2,3,3,4,4,6,6],"right_children":[2,4,6,8,10,-1,12,-1,-1,-1,-1,-1,-1],"split_conditions":[4E0,-1.31192E-1,-2.064438E0,2.3792922E-2,-7.0069835E-2,6.075708E-2,3.3907013E1,-3.6124296E-2,-1.2738962E-3,3.0603653E-2,6.399336E-2,3.6682654E-2,-1.6461E-2],"split_indices":[7,2,1,5,2,0,0,0,0,0,0,0,0],"split_type":[0,0,0,0,0,0,0,0,0,0,0,0,0],"sum_hessian":[2.1869926E2,1.4869342E2,7.0005844E1,1.3100645E2,1.7686972E1,4.2437874E1,2.7567972E1,8.696336E1,4.404309E1,7.672867E0,1.0014106E1,1.4518124E1,1.30498495E1],"tree_param":{"num_deleted":"0","num_feature":"9","num_nodes":"13","size_leaf_vector":"1"}},{"base_weights":[-2.1688566E-3,1.095343E0,-2.6775575E-1,6.654629E-2,6.473775E-1,7.26481E-3,-1.066897E0,5.4400664E-2,-2.4258033E-3,-1.4299649E-2,2.8510971E-2,4.86497E-3,-6.096552E-2],"categories":[],"categories_nodes":[],"categories_segments":[],"categories_sizes":[],"default_left":[0,0,0,0,0,0,0,0,0,0,0,0,0],"id":13,"left_children":[1,3,5,-1,7,9,11,-1,-1,-1,-1,-1,-1],"loss_changes":[6.52212E1,3.7393112E0,3.9601604E1,0E0,5.257203E0,2.2453712E1,8.304184E0,0E0,0E0,0E0,0E0,0E0,0E0],"parents":[2147483647,0,0,1,1,2,2,4,4,5,5,6,6],"right_children":[2,4,6,-1,8,10,12,-1,-1,-1,-1,-1,-1],"split_conditions":[-3.0441296E0,-3.562051E0,7.853222E1,6.654629E-2,4.320683E1,4E0,-8.442817E0,5.4400664E-2,-2.4258033E-3,-1.4299649E-2,2.8510971E-2,4.86497E-3,-6.096552E-2],"split_indices":[1,1,0,0,0,7,3,0,0,0,0,0,0],"split_type":[0,0,0,0,0,0,0,0,0,0,0,0,0],"sum_hessian":[2.2174895E2,4.2596954E1,1.79152E2,2.662431E1,1.5972646E1,1.3402043E2,4.513156E1,9.434989E0,6.5376563E0,8.844111E1,4.5579315E1,5.266379E0,3.986518E1],"tree_param":{"num_deleted":"0","num_feature":"9","num_nodes":"13","size_leaf_vector":"1"}},{"base_weights":[6.9131046E-3,-3.622927E-1,6.361376E-1,-7.0009655E-1,1.6847491E-1,2.7726743E-1,1.0147461E0,-7.0505105E-2,-2.2610998E-2,3.7490543E-2,-1.5513981E-2,1.3450647E-3,4.8179742E-2,5.725182E-2,3.188715E-2],"categories":[],"categories_nodes":[],"categories_segments":[],"categories_sizes":[],"default_left":[0,0,0,0,0,0,0,0,0,0,0,0,0,0,0],"id":14,"left_children":[1,3,5,7,9,11,13,-1,-1,-1,-1,-1,-1,-1,-1],"loss_changes":[5.0723965E1,2.4791607E1,1.0688377E1,1.4196426E1,1.53527775E1,7.3327456E0,1.1810989E0,0E0,0E0,0E0,0E0,0E0,0E0,0E0,0E0],"parents":[2147483647,0,0,1,1,2,2,3,3,4,4,5,5,6,6],"right_children":[2,4,6,8,10,12,14,-1,-1,-1,-1,-1,-1,-1,-1],"split_conditions":[-3.2400876E-1,3.1020194E-3,-1.31192E-1,-1.1794696E0,-1.3042303E0,2E0,5.6701305E1,-7.0505105E-2,-2.2610998E-2,3.7490543E-2,-1.5513981E-2,1.3450647E-3,4.8179742E-2,5.725182E-2,3.188715E-2],"split_indices":[2,5,2,2,1,6,0,0,0,0,0,0,0,0,0],"split_type":[0,0,0,0,0,0,0,0,0,0,0,0,0,0,0],"sum_hessian":[2.1635083E2,1.3661462E2,7.973621E1,8.328767E1,5.3326958E1,4.18245E1,3.791171E1,2.033949E1,6.2948174E1,2.3827652E1,2.9499304E1,3.1406782E1,1.0417721E1,2.66607E1,1.1251009E1],"tree_param":{"num_deleted":"0","num_feature":"9","num_nodes":"15","size_leaf_vector":"1"}},{"base_weights":[8.102475E-2,1.0018277E0,-1.9822764E-1,6.0269386E-1,6.5637805E-2,6.307629E-1,-4.3582806E-1,5.9560847E-2,2.1283203E-3,5.118489E-2,-3.288141E-2,-7.46695E-2,-1.4285132E-2],"categories":[],"categories_nodes":[],"categories_segments":[],"categories_sizes":[],"default_left":[0,0,0,0,0,0,0,0,0,0,0,0,0],"id":15,"left_children":[1,3,5,7,-1,9,11,-1,-1,-1,-1,-1,-1],"loss_changes":[5.7339375E1,5.6466827E0,3.4024292E1,8.046948E0,0E0,2.0203613E1,2.0810919E1,0E0,0E0,0E0,0E0,0E0,0E0],"parents":[2147483647,0,0,1,1,2,2,3,3,5,5,6,6],"right_children":[2,4,6,8,-1,10,12,-1,-1,-1,-1,-1,-1],"split_conditions":[-2.907985E0,4E0,2.4810814E1,-3.9501815E0,6.5637805E-2,-9.895304E-1,2E0,5.9560847E-2,2.1283203E-3,5.118489E-2,-3.288141E-2,-7.46695E-2,-1.4285132E-2],"split_indices":[1,7,0,3,0,1,8,0,0,0,0,0,0],"split_type":[0,0,0,0,0,0,0,0,0,0,0,0,0],"sum_hessian":[2.2121973E2,5.087562E1,1.703441E2,2.356455E1,2.7311071E1,3.7578293E1,1.3276581E2,1.0941589E1,1.2622961E1,2.8953478E1,8.624815E0,1.5391613E1,1.1737419E2],"tree_param":{"num_deleted":"0","num_feature":"9","num_nodes":"13","size_leaf_vector":"1"}},{"base_weights":[5.841643E-2,1.1148852E0,-2.1643783E-1,6.204998E-2,2.432589E-2,1.784384E-3,-1.0822976E0,-1.3653862E-2,3.1256203E-2,-6.6941135E-2,-2.051316E-2],"categories":[],"categories_nodes":[],"categories_segments":[],"categories_sizes":[],"default_left":[0,0,0,0,0,0,0,0,0,0,0],"id":16,"left_children":[1,3,5,-1,-1,7,9,-1,-1,-1,-1],"loss_changes":[6.3177505E1,2.9551163E0,3.26585E1,0E0,0E0,2.3992695E1,5.448677E0,0E0,0E0,0E0,0E0],"parents":[2147483647,0,0,1,1,2,2,5,5,6,6],"right_children":[2,4,6,-1,-1,8,10,-1,-1,-1,-1],"split_conditions":[-3.0441296E0,-1.5200901E0,8.4977646E1,6.204998E-2,2.432589E-2,4E0,2.6428103E-2,-1.3653862E-2,3.1256203E-2,-6.6941135E-2,-2.051316E-2],"split_indices":[1,3,0,0,0,7,5,0,0,0,0],"split_type":[0,0,0,0,0,0,0,0,0,0,0],"sum_hessian":[2.1574115E2,4.390921E1,1.7183194E2,3.575764E1,8.151569E0,1.3803978E2,3.379216E1,9.618772E1,4.1852062E1,2.3738602E1,1.0053558E1],"tree_param":{"num_deleted":"0","num_feature":"9","num_nodes":"11","size_leaf_vector":"1"}},{"base_weights":[-5.070525E-2,-5.3005075E-1,7.2888553E-1,-9.4748944E-1,-1.4537534E-1,6.0137212E-2,4.1201058E-1,-5.222249E-2,7.1712555E-3,1.9702911E-3,-5.049373E-2,4.3678094E-2,-1.4048681E-3],"categories":[],"categories_nodes":[],"categories_segments":[],"categories_sizes":[],"default_left":[0,0,0,0,0,0,0,0,0,0,0,0,0],"id":17,"left_children":[1,3,5,7,9,-1,11,-1,-1,-1,-1,-1,-1],"loss_changes":[8.322845E1,2.1998993E1,1.2241783E1,7.123726E0,1.1689037E1,0E0,1.065969E1,0E0,0E0,0E0,0E0,0E0,0E0],"parents":[2147483647,0,0,1,1,2,2,3,3,4,4,6,6],"right_children":[2,4,6,8,10,-1,12,-1,-1,-1,-1,-1,-1],"split_conditions":[-3.2400876E-1,2E0,-3.0441296E0,1.2E1,-5.8051753E-1,6.0137212E-2,3.9056957E1,-5.222249E-2,7.1712555E-3,1.9702911E-3,-5.049373E-2,4.3678094E-2,-1.4048681E-3],"split_indices":[2,7,1,8,1,0,0,0,0,0,0,0,0],"split_type":[0,0,0,0,0,0,0,0,0,0,0,0,0],"sum_hessian":[2.2068471E2,1.3685625E2,8.382845E1,6.4931435E1,7.192482E1,3.2472713E1,5.135574E1,5.967052E1,5.260914E0,6.0045002E1,1.1879815E1,2.4586468E1,2.6769272E1],"tree_param":{"num_deleted":"0","num_feature":"9","num_nodes":"13","size_leaf_vector":"1"}},{"base_weights":[1.26559E-2,9.412781E-1,-2.330898E-1,3.5787427E-1,6.1623026E-2,5.0285786E-1,-4.371027E-1,4.683362E-2,-1.1308256E-2,3.697122E-2,-3.7085827E-2,-4.75152E-2,-1.252086E-2],"categories":[],"categories_nodes":[],"categories_segments":[],"categories_sizes":[],"default_left":[0,0,0,0,0,0,0,0,0,0,0,0,0],"id":18,"left_children":[1,3,5,7,-1,9,11,-1,-1,-1,-1,-1,-1],"loss_changes":[4.8370228E1,7.0932274E0,2.5390747E1,5.6798124E0,0E0,1.1398505E1,1.2388939E1,0E0,0E0,0E0,0E0,0E0,0E0],"parents":[2147483647,0,0,1,1,2,2,3,3,5,5,6,6],"right_children":[2,4,6,8,-1,10,12,-1,-1,-1,-1,-1,-1],"split_conditions":[-2.9591424E0,1E0,2.4810814E1,3.2007244E1,6.1623026E-2,-7.370275E-1,1E0,4.683362E-2,-1.1308256E-2,3.697122E-2,-3.7085827E-2,-4.75152E-2,-1.252086E-2],"split_indices":[1,4,0,0,0,1,7,0,0,0,0,0,0],"split_type":[0,0,0,0,0,0,0,0,0,0,0,0,0],"sum_hessian":[2.0999818E2,4.335151E1,1.6664668E2,1.5175465E1,2.8176044E1,3.585175E1,1.3079494E2,7.3186803E0,7.8567843E0,3.0466595E1,5.385154E0,3.3796753E1,9.699818E1],"tree_param":{"num_deleted":"0","num_feature":"9","num_nodes":"13","size_leaf_vector":"1"}},{"base_weights":[-4.7221403E-3,3.4554875E-1,-6.935773E-1,-3.3784267E-2,1.0222735E0,-1.0311482E0,-2.7692556E-1,3.478975E-2,-1.4854224E-2,3.2377504E-2,6.356724E-2,-2.5308201E-2,-6.2789746E-2,-6.0579043E-2,5.018389E-3],"categories":[],"categories_nodes":[],"categories_segments":[],"categories_sizes":[],"default_left":[0,0,0,0,0,0,0,0,0,0,0,0,0,0,0],"id":19,"left_children":[1,3,5,7,9,11,13,-1,-1,-1,-1,-1,-1,-1,-1],"loss_changes":[5.034258E1,3.554237E1,9.605972E0,1.7419714E1,3.8169594E0,3.902958E0,1.1703674E1,0E0,0E0,0E0,0E0,0E0,0E0,0E0,0E0],"parents":[2147483647,0,0,1,1,2,2,3,3,4,4,5,5,6,6],"right_children":[2,4,6,8,10,12,14,-1,-1,-1,-1,-1,-1,-1,-1],"split_conditions":[-1.2421083E0,4E0,2E0,3.2007244E1,1E0,-6.5984054E0,-1.1603615E0,3.478975E-2,-1.4854224E-2,3.2377504E-2,6.356724E-2,-2.5308201E-2,-6.2789746E-2,-6.0579043E-2,5.018389E-3],"split_indices":[1,7,7,0,4,3,2,0,0,0,0,0,0,0,0],"split_type":[0,0,0,0,0,0,0,0,0,0,0,0,0,0,0],"sum_hessian":[2.0664955E2,1.3732205E2,6.93275E1,8.860516E1,4.871688E1,3.7483536E1,3.1843967E1,2.3061476E1,6.5543686E1,2.0889236E1,2.7827646E1,1.22078285E1,2.5275707E1,8.52185E0,2.3322117E1],"tree_param":{"num_deleted":"0","num_feature":"9","num_nodes":"15","size_leaf_vector":"1"}},{"base_weights":[-1.23501895E-2,9.860816E-1,-2.3365729E-1,5.9999567E-2,5.22535E-1,-4.92959E-1,3.153271E-1,5.4199684E-2,-2.1816322E-3,-4.273468E-2,-4.430807E-3,-5.378289E-4,4.5314156E-2],"categories":[],"categories_nodes":[],"categories_segments":[],"categories_sizes":[],"default_left":[0,0,0,0,0,0,0,0,0,0,0,0,0],"id":20,"left_children":[1,3,5,-1,7,9,11,-1,-1,-1,-1,-1,-1],"loss_changes":[4.615472E1,3.1311836E0,2.4488945E1,0E0,4.4146237E0,1.6962738E1,1.0694566E1,0E0,0E0,0E0,0E0,0E0,0E0],"parents":[2147483647,0,0,1,1,2,2,4,4,5,5,6,6],"right_children":[2,4,6,-1,8,10,12,-1,-1,-1,-1,-1,-1],"split_conditions":[-3.0441296E0,5.1870132E1,-3.556031E-1,5.9999567E-2,-3.9770513E0,2E0,4E0,5.4199684E-2,-2.1816322E-3,-4.273468E-2,-4.430807E-3,-5.378289E-4,4.5314156E-2],"split_indices":[1,0,2,0,3,7,7,0,0,0,0,0,0],"split_type":[0,0,0,0,0,0,0,0,0,0,0,0,0],"sum_hessian":[2.068399E2,3.690164E1,1.6993826E2,2.4162714E1,1.2738927E1,1.1549065E2,5.4447628E1,5.936845E0,6.802082E0,6.0369186E1,5.5121456E1,3.5719666E1,1.8727962E1],"tree_param":{"num_deleted":"0","num_feature":"9","num_nodes":"13","size_leaf_vector":"1"}},{"base_weights":[4.9196523E-2,-2.953069E-1,6.4980555E-1,-5.4519755E-1,3.4485534E-1,3.1785786E-1,1.0268945E0,-4.009452E-2,-6.3075568E-3,3.2388847E-3,4.4598125E-2,2.5803939E-2,-2.5627458E-2,3.9935175E-2,6.287951E-2],"categories":[],"categories_nodes":[],"categories_segments":[],"categories_sizes":[],"default_left":[0,0,0,0,0,0,0,0,0,0,0,0,0,0,0],"id":21,"left_children":[1,3,5,7,9,11,13,-1,-1,-1,-1,-1,-1,-1,-1],"loss_changes":[4.471456E1,2.2172813E1,9.530628E0,1.0572952E1,5.9485316E0,7.396544E0,9.127121E-1,0E0,0E0,0E0,0E0,0E0,0E0,0E0,0E0],"parents":[2147483647,0,0,1,1,2,2,3,3,4,4,5,5,6,6],"right_children":[2,4,6,8,10,12,14,-1,-1,-1,-1,-1,-1,-1,-1],"split_conditions":[-3.2400876E-1,4E0,-1.31192E-1,7.6222066E-3,2.018376E-2,8.4331795E1,-5.2820745E0,-4.009452E-2,-6.3075568E-3,3.2388847E-3,4.4598125E-2,2.5803939E-2,-2.5627458E-2,3.9935175E-2,6.287951E-2],"split_indices":[2,7,2,5,5,0,3,0,0,0,0,0,0,0,0],"split_type":[0,0,0,0,0,0,0,0,0,0,0,0,0,0,0],"sum_hessian":[2.1417702E2,1.3643028E2,7.774674E1,9.8232895E1,3.8197376E1,4.2328396E1,3.5418343E1,6.035064E1,3.788226E1,2.6003794E1,1.2193583E1,3.4477116E1,7.851279E0,2.0049086E1,1.5369258E1],"tree_param":{"num_deleted":"0","num_feature":"9","num_nodes":"15","size_leaf_vector":"1"}},{"base_weights":[-1.5458045E-2,9.7074646E-1,-2.1977979E-1,5.628509E-2,5.604736E-1,-6.2140614E-2,-8.4635234E-1,1.678964E-3,5.151288E-2,3.1722174E-3,-3.8892582E-2,-6.1200418E-2,-1.0322272E-4],"categories":[],"categories_nodes":[],"categories_segments":[],"categories_sizes":[],"default_left":[0,0,0,0,0,0,0,0,0,0,0,0,0],"id":22,"left_children":[1,3,5,-1,7,9,11,-1,-1,-1,-1,-1,-1],"loss_changes":[4.0962093E1,1.5872269E0,1.6574066E1,0E0,2.8260205E0,1.2235145E1,1.0761354E1,0E0,0E0,0E0,0E0,0E0,0E0],"parents":[2147483647,0,0,1,1,2,2,4,4,5,5,6,6],"right_children":[2,4,6,-1,8,10,12,-1,-1,-1,-1,-1,-1],"split_conditions":[-3.1066065E0,-3.562051E0,8.4977646E1,5.628509E-2,4E0,-5.7232255E-1,2.9924057E-2,1.678964E-3,5.151288E-2,3.1722174E-3,-3.8892582E-2,-6.1200418E-2,-1.0322272E-4],"split_indices":[1,1,0,0,7,1,5,0,0,0,0,0,0],"split_type":[0,0,0,0,0,0,0,0,0,0,0,0,0],"sum_hessian":[2.0122397E2,3.3890903E1,1.6733307E2,2.3334095E1,1.0556807E1,1.3457466E2,3.2758415E1,5.480988E0,5.075819E0,1.1526126E2,1.93134E1,2.2323296E1,1.0435121E1],"tree_param":{"num_deleted":"0","num_feature":"9","num_nodes":"13","size_leaf_vector":"1"}},{"base_weights":[1.682459E-2,6.359061E-1,-3.017744E-1,-1.4202832E-1,8.7525624E-1,-5.035137E-1,8.6591375E-1,-3.104561E-2,3.299335E-2,2.8171081E-2,5.1752638E-2,2.849007E-2,-2.905877E-2,5.727163E-2,2.7456103E-2],"categories":[],"categories_nodes":[],"categories_segments":[],"categories_sizes":[],"default_left":[0,0,0,0,0,0,0,0,0,0,0,0,0,0,0],"id":23,"left_children":[1,3,5,7,9,11,13,-1,-1,-1,-1,-1,-1,-1,-1],"loss_changes":[3.968096E1,1.2850559E1,3.1734047E1,6.9154887E0,2.0282402E0,9.827118E0,1.1367264E0,0E0,0E0,0E0,0E0,0E0,0E0,0E0,0E0],"parents":[2147483647,0,0,1,1,2,2,3,3,4,4,5,5,6,6],"right_children":[2,4,6,8,10,12,14,-1,-1,-1,-1,-1,-1,-1,-1],"split_conditions":[3.3907013E1,-7.220347E-1,-1.31192E-1,1E0,-5.2820745E0,-1.0298455E1,-3.2883446E0,-3.104561E-2,3.299335E-2,2.8171081E-2,5.1752638E-2,2.849007E-2,-2.905877E-2,5.727163E-2,2.7456103E-2],"split_indices":[0,2,2,4,3,3,1,0,0,0,0,0,0,0,0],"split_type":[0,0,0,0,0,0,0,0,0,0,0,0,0,0,0],"sum_hessian":[1.9920941E2,6.734769E1,1.3186172E2,1.594146E1,5.140623E1,1.1292132E2,1.8940409E1,1.0122249E1,5.819211E0,1.895073E1,3.24555E1,7.191735E0,1.0572958E2,8.672534E0,1.0267875E1],"tree_param":{"num_deleted":"0","num_feature":"9","num_nodes":"15","size_leaf_vector":"1"}},{"base_weights":[6.1416503E-2,8.470176E-1,-1.1586568E-1,5.404665E-2,4.4761753E-1,7.039358E-2,-8.6943907E-1,4.7990937E-2,5.0015905E-4,-4.3120872E-2,8.076324E-3,-6.747481E-2,-3.2800984E-2],"categories":[],"categories_nodes":[],"categories_segments":[],"categories_sizes":[],"default_left":[0,0,0,0,0,0,0,0,0,0,0,0,0],"id":24,"left_children":[1,3,5,-1,7,9,11,-1,-1,-1,-1,-1,-1],"loss_changes":[2.8600018E1,3.047575E0,2.3620384E1,0E0,3.5023127E0,1.1658857E1,2.530466E0,0E0,0E0,0E0,0E0,0E0,0E0],"parents":[2147483647,0,0,1,1,2,2,4,4,5,5,6,6],"right_children":[2,4,6,-1,8,10,12,-1,-1,-1,-1,-1,-1],"split_conditions":[-3.0441296E0,-3.562051E0,8.4977646E1,5.404665E-2,-3.9501815E0,2E0,9.451844E1,4.7990937E-2,5.0015905E-4,-4.3120872E-2,8.076324E-3,-6.747481E-2,-3.2800984E-2],"split_indices":[1,1,0,0,3,8,0,0,0,0,0,0,0],"split_type":[0,0,0,0,0,0,0,0,0,0,0,0,0],"sum_hessian":[2.0364742E2,3.6799187E1,1.6684822E2,2.2131254E1,1.4667933E1,1.3450859E2,3.2339638E1,6.2082515E0,8.4596815E0,1.1218263E1,1.2329033E2,8.3143835E0,2.4025255E1],"tree_param":{"num_deleted":"0","num_feature":"9","num_nodes":"13","size_leaf_vector":"1"}},{"base_weights":[5.716521E-3,-3.6539206E-1,6.4133424E-1,-6.1195195E-1,3.6402017E-1,5.6624975E-2,4.587644E-1,2.2207847E-2,-3.996284E-2,4.9265463E-2,-1.5415533E-3,3.4065504E-2,-1.2225275E-4],"categories":[],"categories_nodes":[],"categories_segments":[],"categories_sizes":[],"default_left":[0,0,0,0,0,0,0,0,0,0,0,0,0],"id":25,"left_children":[1,3,5,7,9,-1,11,-1,-1,-1,-1,-1,-1],"loss_changes":[4.9044395E1,2.383325E1,6.353037E0,1.983776E1,8.320399E0,0E0,5.90901E0,0E0,0E0,0E0,0E0,0E0,0E0],"parents":[2147483647,0,0,1,1,2,2,3,3,4,4,6,6],"right_children":[2,4,6,8,10,-1,12,-1,-1,-1,-1,-1,-1],"split_conditions":[-3.2400876E-1,4E0,-3.4303384E0,2.4810814E1,-1.6887512E0,5.6624975E-2,5.417328E1,2.2207847E-2,-3.996284E-2,4.9265463E-2,-1.5415533E-3,3.4065504E-2,-1.2225275E-4],"split_indices":[2,7,1,0,1,0,0,0,0,0,0,0,0],"split_type":[0,0,0,0,0,0,0,0,0,0,0,0,0],"sum_hessian":[2.0592471E2,1.302833E2,7.564142E1,9.749017E1,3.2793125E1,1.9087486E1,5.6553932E1,1.4479115E1,8.3011055E1,1.2161654E1,2.063147E1,3.7825104E1,1.8728828E1],"tree_param":{"num_deleted":"0","num_feature":"9","num_nodes":"13","size_leaf_vector":"1"}},{"base_weights":[-4.9720194E-2,-3.985452E-1,5.51342E-1,-7.968318E-1,-6.9780424E-2,8.354158E-1,1.3222101E-1,-5.350217E-2,-1.715805E-2,-1.7531255E-2,1.9535145E-2,5.4199982E-2,2.9596059E-2,3.366898E-2,-1.2503833E-2],"categories":[],"categories_nodes":[],"categories_segments":[],"categories_sizes":[],"default_left":[0,0,0,0,0,0,0,0,0,0,0,0,0,0,0],"id":26,"left_children":[1,3,5,7,9,11,13,-1,-1,-1,-1,-1,-1,-1,-1],"loss_changes":[4.0751602E1,1.603802E1,8.391809E0,6.5095367E0,8.986027E0,1.9232407E0,6.3824167E0,0E0,0E0,0E0,0E0,0E0,0E0,0E0,0E0],"parents":[2147483647,0,0,1,1,2,2,3,3,4,4,5,5,6,6],"right_children":[2,4,6,8,10,12,14,-1,-1,-1,-1,-1,-1,-1,-1],"split_conditions":[-3.2400876E-1,2E0,-2.3414216E0,7.717873E-3,1E0,-3.4047384E0,3.2363434E1,-5.350217E-2,-1.715805E-2,-1.7531255E-2,1.9535145E-2,5.4199982E-2,2.9596059E-2,3.366898E-2,-1.2503833E-2],"split_indices":[2,7,1,5,4,1,0,0,0,0,0,0,0,0,0],"split_type":[0,0,0,0,0,0,0,0,0,0,0,0,0,0,0],"sum_hessian":[1.9231677E2,1.21905914E2,7.0410866E1,5.4480747E1,6.742516E1,4.137457E1,2.90363E1,3.315523E1,2.1325516E1,4.2030006E1,2.5395157E1,1.8765259E1,2.2609308E1,1.1705403E1,1.7330896E1],"tree_param":{"num_deleted":"0","num_feature":"9","num_nodes":"15","size_leaf_vector":"1"}},{"base_weights":[-2.2354994E-2,-2.870094E-1,5.730422E-1,-7.964835E-1,4.6619672E-2,-1.8844519E-2,6.9325703E-1,-4.7165245E-2,1.4731889E-2,5.3728987E-2,-3.5305251E-3,5.519631E-2,2.6186317E-2],"categories":[],"categories_nodes":[],"categories_segments":[],"categories_sizes":[],"default_left":[0,0,0,0,0,0,0,0,0,0,0,0,0],"id":27,"left_children":[1,3,5,7,9,-1,11,-1,-1,-1,-1,-1,-1],"loss_changes":[3.2115295E1,2.4010063E1,7.4246655E0,9.22768E0,1.0460235E1,0E0,3.323019E0,0E0,0E0,0E0,0E0,0E0,0E0],"parents":[2147483647,0,0,1,1,2,2,3,3,4,4,6,6],"right_children":[2,4,6,8,10,-1,12,-1,-1,-1,-1,-1,-1],"split_conditions":[4E0,-6.863834E-1,-1.0895498E0,1.2E1,-6.2911236E-1,-1.8844519E-2,-3.0441296E0,-4.7165245E-2,1.4731889E-2,5.3728987E-2,-3.5305251E-3,5.519631E-2,2.6186317E-2],"split_indices":[7,2,2,8,2,0,1,0,0,0,0,0,0],"split_type":[0,0,0,0,0,0,0,0,0,0,0,0,0],"sum_hessian":[2.0176654E2,1.4003767E2,6.1728867E1,5.4866096E1,8.517157E1,6.6944513E0,5.5034416E1,4.8478317E1,6.387776E0,7.8828197E0,7.728875E1,1.4470232E1,4.0564182E1],"tree_param":{"num_deleted":"0","num_feature":"9","num_nodes":"13","size_leaf_vector":"1"}},{"base_weights":[2.6958574E-2,-1.5741345E-1,7.8938156E-1,4.6249658E-1,-3.3376822E-1,6.4067254E-3,9.274454E-1,3.812663E-2,-5.080821E-2,-6.441854E-2,-1.067772E-2,5.2751124E-2,2.5044803E-2],"categories":[],"categories_nodes":[],"categories_segments":[],"categories_sizes":[],"default_left":[0,0,0,0,0,0,0,0,0,0,0,0,0],"id":28,"left_children":[1,3,5,7,9,-1,11,-1,-1,-1,-1,-1,-1],"loss_changes":[2.8114164E1,1.7774883E1,3.4362564E0,1.6797876E1,1.4191132E1,0E0,1.2158833E0,0E0,0E0,0E0,0E0,0E0,0E0],"parents":[2147483647,0,0,1,1,2,2,3,3,4,4,6,6],"right_children":[2,4,6,8,10,-1,12,-1,-1,-1,-1,-1,-1],"split_conditions":[-1.6935353E-1,2.4810814E1,5E0,-8.46593E-1,2E0,6.4067254E-3,1.5E1,3.812663E-2,-5.080821E-2,-6.441854E-2,-1.067772E-2,5.2751124E-2,2.5044803E-2],"split_indices":[2,0,8,1,8,0,8,0,0,0,0,0,0],"split_type":[0,0,0,0,0,0,0,0,0,0,0,0,0],"sum_hessian":[1.9811794E2,1.601769E2,3.7941048E1,3.511623E1,1.2506066E2,6.8865376E0,3.1054512E1,2.959533E1,5.520899E0,1.2900681E1,1.1215998E2,2.2770632E1,8.283879E0],"tree_param":{"num_deleted":"0","num_feature":"9","num_nodes":"13","size_leaf_vector":"1"}},{"base_weights":[5.012145E-2,2.4159351E-1,-6.104614E-1,-1.0936115E-2,7.5024414E-1,-2.232125E-2,-1.0522046E0,-1.4922874E-2,2.3009289E-2,5.0363768E-2,2.265325E-2,-3.0005608E-2,4.0237203E-2,-6.705381E-2,-2.5482511E-2],"categories":[],"categories_nodes":[],"categories_segments":[],"categories_sizes":[],"default_left":[0,0,0,0,0,0,0,0,0,0,0,0,0,0,0],"id":29,"left_children":[1,3,5,7,9,11,13,-1,-1,-1,-1,-1,-1,-1,-1],"loss_changes":[2.5244349E1,1.9859844E1,1.1634626E1,1.4260285E1,3.461197E0,1.0168667E1,3.3293533E0,0E0,0E0,0E0,0E0,0E0,0E0,0E0,0E0],"parents":[2147483647,0,0,1,1,2,2,3,3,4,4,5,5,6,6],"right_children":[2,4,6,8,10,12,14,-1,-1,-1,-1,-1,-1,-1,-1],"split_conditions":[-8.36914E-1,4E0,-6.6809306E0,2.3792922E-2,-2.3493795E0,-8.41673E-1,1E0,-1.4922874E-2,2.3009289E-2,5.0363768E-2,2.265325E-2,-3.0005608E-2,4.0237203E-2,-6.705381E-2,-2.5482511E-2],"split_indices":[1,7,3,5,1,2,6,0,0,0,0,0,0,0,0],"split_type":[0,0,0,0,0,0,0,0,0,0,0,0,0,0,0],"sum_hessian":[1.9742061E2,1.5354839E2,4.387222E1,1.0326095E2,5.0287434E1,1.926851E1,2.4603708E1,6.435325E1,3.89077E1,2.5683895E1,2.4603537E1,1.1505284E1,7.763227E0,1.5094944E1,9.508764E0],"tree_param":{"num_deleted":"0","num_feature":"9","num_nodes":"15","size_leaf_vector":"1"}},{"base_weights":[-1.4959497E-2,-2.681999E-1,5.1126343E-1,-8.9301354E-1,-8.087112E-2,5.0363608E-2,3.5248938E-1,1.7914126E-2,-5.7365235E-2,-1.884446E-2,1.7271822E-2,2.9081846E-2,-2.0273592E-2],"categories":[],"categories_nodes":[],"categories_segments":[],"categories_sizes":[],"default_left":[0,0,0,0,0,0,0,0,0,0,0,0,0],"id":30,"left_children":[1,3,5,7,9,-1,11,-1,-1,-1,-1,-1,-1],"loss_changes":[2.6768642E1,1.5796014E1,4.785322E0,1.0329697E1,1.3431293E1,0E0,9.090785E0,0E0,0E0,0E0,0E0,0E0,0E0],"parents":[2147483647,0,0,1,1,2,2,3,3,4,4,6,6],"right_children":[2,4,6,8,10,-1,12,-1,-1,-1,-1,-1,-1],"split_conditions":[-2.9017043E-1,1E0,-3.4303384E0,2.7013659E1,1E0,5.0363608E-2,1.2E1,1.7914126E-2,-5.7365235E-2,-1.884446E-2,1.7271822E-2,2.9081846E-2,-2.0273592E-2],"split_indices":[2,7,1,0,4,0,8,0,0,0,0,0,0],"split_type":[0,0,0,0,0,0,0,0,0,0,0,0,0],"sum_hessian":[1.9884497E2,1.345731E2,6.427186E1,3.0171717E1,1.0440139E2,1.42890215E1,4.9982838E1,5.026882E0,2.5144835E1,6.1684814E1,4.2716576E1,3.8558445E1,1.1424393E1],"tree_param":{"num_deleted":"0","num_feature":"9","num_nodes":"13","size_leaf_vector":"1"}},{"base_weights":[8.5962685E-3,-1.5279776E-1,8.724236E-1,3.8469493E-1,-2.9641563E-1,2.261436E-2,9.6269685E-1,3.4577068E-2,-4.2902205E-2,-2.25052E-2,7.283096E-3,6.1613064E-2,3.1675696E-2],"categories":[],"categories_nodes":[],"categories_segments":[],"categories_sizes":[],"default_left":[0,0,0,0,0,0,0,0,0,0,0,0,0],"id":31,"left_children":[1,3,5,7,9,-1,11,-1,-1,-1,-1,-1,-1],"loss_changes":[2.8560951E1,1.3441959E1,7.8767014E-1,1.464201E1,9.361055E0,0E0,1.4961948E0,0E0,0E0,0E0,0E0,0E0,0E0],"parents":[2147483647,0,0,1,1,2,2,3,3,4,4,6,6],"right_children":[2,4,6,8,10,-1,12,-1,-1,-1,-1,-1,-1],"split_conditions":[-1.31192E-1,2.4810814E1,2.1152386E1,-9.895304E-1,1.1E1,2.261436E-2,4.320683E1,3.4577068E-2,-4.2902205E-2,-2.25052E-2,7.283096E-3,6.1613064E-2,3.1675696E-2],"split_indices":[2,0,0,1,8,0,0,0,0,0,0,0,0],"split_type":[0,0,0,0,0,0,0,0,0,0,0,0,0],"sum_hessian":[2.0290436E2,1.7165596E2,3.1248394E1,3.5841152E1,1.358148E2,6.589715E0,2.465868E1,2.9099653E1,6.741501E0,1.0076551E2,3.5049297E1,1.2048716E1,1.2609964E1],"tree_param":{"num_deleted":"0","num_feature":"9","num_nodes":"13","size_leaf_vector":"1"}},{"base_weights":[-1.6386125E-2,7.808062E-1,-1.7554899E-1,3.772067E-1,5.7205327E-2,-5.5694103E-1,3.2121774E-2,-1.6814442E-2,5.6394804E-2,-4.280085E-2,-3.0004266E-3,3.3443782E-2,-8.667761E-3],"categories":[],"categories_nodes":[],"categories_segments":[],"categories_sizes":[],"default_left":[0,0,0,0,0,0,0,0,0,0,0,0,0],"id":32,"left_children":[1,3,5,7,-1,9,11,-1,-1,-1,-1,-1,-1],"loss_changes":[2.546364E1,4.4662685E0,1.326095E1,9.653872E0,0E0,8.717337E0,1.4403665E1,0E0,0E0,0E0,0E0,0E0,0E0],"parents":[2147483647,0,0,1,1,2,2,3,3,5,5,6,6],"right_children":[2,4,6,8,-1,10,12,-1,-1,-1,-1,-1,-1],"split_conditions":[-3.0575361E0,4E0,-8.058588E-1,-7.0069835E-2,5.7205327E-2,1E0,2.4810814E1,-1.6814442E-2,5.6394804E-2,-4.280085E-2,-3.0004266E-3,3.3443782E-2,-8.667761E-3],"split_indices":[1,7,2,2,0,4,0,0,0,0,0,0,0],"split_type":[0,0,0,0,0,0,0,0,0,0,0,0,0],"sum_hessian":[1.9860507E2,3.240314E1,1.6620193E2,1.6315794E1,1.6087345E1,5.8000626E1,1.0820131E2,8.648152E0,7.6676416E0,3.575755E1,2.2243076E1,2.5847404E1,8.2353905E1],"tree_param":{"num_deleted":"0","num_feature":"9","num_nodes":"13","size_leaf_vector":"1"}},{"base_weights":[-3.0908003E-2,-2.980977E-1,5.099302E-1,-5.756172E-1,2.0118661E-1,-1.32781705E-2,6.330557E-1,-3.32931E-2,1.3011304E-2,4.4519562E-2,3.819903E-4,4.8417844E-2,2.2474997E-2],"categories":[],"categories_nodes":[],"categories_segments":[],"categories_sizes":[],"default_left":[0,0,0,0,0,0,0,0,0,0,0,0,0],"id":33,"left_children":[1,3,5,7,9,-1,11,-1,-1,-1,-1,-1,-1],"loss_changes":[2.7353512E1,1.7661E1,6.1466103E0,6.331848E0,6.126428E0,0E0,2.9085197E0,0E0,0E0,0E0,0E0,0E0,0E0],"parents":[2147483647,0,0,1,1,2,2,3,3,4,4,6,6],"right_children":[2,4,6,8,10,-1,12,-1,-1,-1,-1,-1,-1],"split_conditions":[4E0,-3.556031E-1,-1.0895498E0,1.3E1,3E0,-1.32781705E-2,-2.8820133E0,-3.32931E-2,1.3011304E-2,4.4519562E-2,3.819903E-4,4.8417844E-2,2.2474997E-2],"split_indices":[7,2,2,8,8,0,1,0,0,0,0,0,0],"split_type":[0,0,0,0,0,0,0,0,0,0,0,0,0],"sum_hessian":[1.8723735E2,1.2562419E2,6.161316E1,8.064566E1,4.497853E1,8.283503E0,5.332966E1,7.2970505E1,7.6751566E0,9.072324E0,3.5906208E1,1.7353851E1,3.5975807E1],"tree_param":{"num_deleted":"0","num_feature":"9","num_nodes":"13","size_leaf_vector":"1"}},{"base_weights":[6.464007E-2,8.1404436E-1,-8.443726E-2,4.5132002E-1,5.825723E-2,4.9852308E-2,-6.268291E-1,4.2591434E-2,-1.582227E-2,7.7533196E-3,-2.9196868E-2,-5.8802526E-2,1.5463333E-2],"categories":[],"categories_nodes":[],"categories_segments":[],"categories_sizes":[],"default_left":[0,0,0,0,0,0,0,0,0,0,0,0,0],"id":34,"left_children":[1,3,5,7,-1,9,11,-1,-1,-1,-1,-1,-1],"loss_changes":[2.0917162E1,3.4293785E0,1.1434497E1,5.468725E0,0E0,8.5203085E0,1.6375053E1,0E0,0E0,0E0,0E0,0E0,0E0],"parents":[2147483647,0,0,1,1,2,2,3,3,5,5,6,6],"right_children":[2,4,6,8,-1,10,12,-1,-1,-1,-1,-1,-1],"split_conditions":[-3.0441296E0,3.5839505E-2,8.4977646E1,5.618963E1,5.825723E-2,-5.7232255E-1,2.6428103E-2,4.2591434E-2,-1.582227E-2,7.7533196E-3,-2.9196868E-2,-5.8802526E-2,1.5463333E-2],"split_indices":[1,5,0,0,0,1,5,0,0,0,0,0,0],"split_type":[0,0,0,0,0,0,0,0,0,0,0,0,0],"sum_hessian":[1.8561458E2,3.005733E1,1.5555725E2,1.5908048E1,1.4149282E1,1.2541429E2,3.0142952E1,1.0382483E1,5.5255647E0,1.082065E2,1.7207798E1,1.8835527E1,1.1307425E1],"tree_param":{"num_deleted":"0","num_feature":"9","num_nodes":"13","size_leaf_vector":"1"}},{"base_weights":[2.5996447E-2,-1.2702127E-1,4.1799024E-2,3.4950617E-1,-2.5391555E-1,3.3022072E-2,-3.9814662E-2,-5.638356E-2,-7.1914718E-3],"categories":[],"categories_nodes":[],"categories_segments":[],"categories_sizes":[],"default_left":[0,0,0,0,0,0,0,0,0],"id":35,"left_children":[1,3,-1,5,7,-1,-1,-1,-1],"loss_changes":[2.332962E1,9.67112E0,0E0,1.2548341E1,1.1930922E1,0E0,0E0,0E0,0E0],"parents":[2147483647,0,0,1,1,3,3,4,4],"right_children":[2,4,-1,6,8,-1,-1,-1,-1],"split_conditions":[-1.31192E-1,2.4810814E1,4.1799024E-2,-9.895304E-1,2E0,3.3022072E-2,-3.9814662E-2,-5.638356E-2,-7.1914718E-3],"split_indices":[2,0,0,1,8,0,0,0,0],"split_type":[0,0,0,0,0,0,0,0,0],"sum_hessian":[1.8637354E2,1.5746861E2,2.890492E1,3.2745346E1,1.2472327E2,2.608914E1,6.6562057E0,1.29215E1,1.11801765E2],"tree_param":{"num_deleted":"0","num_feature":"9","num_nodes":"9","size_leaf_vector":"1"}},{"base_weights":[-1.6578764E-2,7.2536194E-1,-1.8366562E-1,3.5036045E-1,5.3194202E-2,-6.8836284E-1,-3.302568E-2,3.2030653E-2,-1.2659408E-2,-4.471283E-2,2.1217125E-2,-4.639731E-2,5.1693046E-3],"categories":[],"categories_nodes":[],"categories_segments":[],"categories_sizes":[],"default_left":[0,0,0,0,0,0,0,0,0,0,0,0,0],"id":36,"left_children":[1,3,5,7,-1,9,11,-1,-1,-1,-1,-1,-1],"loss_changes":[2.3618296E1,4.073349E0,1.1793501E1,3.3342826E0,0E0,8.552698E0,1.4836193E1,0E0,0E0,0E0,0E0,0E0,0E0],"parents":[2147483647,0,0,1,1,2,2,3,3,5,5,6,6],"right_children":[2,4,6,8,-1,10,12,-1,-1,-1,-1,-1,-1],"split_conditions":[-2.9591424E0,1.0632936E-2,1E0,6.4692924E1,5.3194202E-2,-1.9962114E-1,-1.1430938E0,3.2030653E-2,-1.2659408E-2,-4.471283E-2,2.1217125E-2,-4.639731E-2,5.1693046E-3],"split_indices":[1,5,7,0,0,2,2,0,0,0,0,0,0],"split_type":[0,0,0,0,0,0,0,0,0,0,0,0,0],"sum_hessian":[1.884438E2,3.4023396E1,1.544204E2,1.7107428E1,1.6915968E1,3.4675518E1,1.1974488E2,1.1510502E1,5.5969257E0,2.9426748E1,5.2487698E0,1.5070871E1,1.0467401E2],"tree_param":{"num_deleted":"0","num_feature":"9","num_nodes":"13","size_leaf_vector":"1"}},{"base_weights":[3.1353783E-2,7.391656E-1,-1.1427277E-1,3.7386742E-1,5.4675616E-2,-3.0149552E-1,2.545834E-1,-6.289914E-3,3.7508994E-2,-7.0182807E-3,-5.2022614E-2,4.6197247E-2,2.9240243E-4],"categories":[],"categories_nodes":[],"categories_segments":[],"categories_sizes":[],"default_left":[0,0,0,0,0,0,0,0,0,0,0,0,0],"id":37,"left_children":[1,3,5,7,-1,9,11,-1,-1,-1,-1,-1,-1],"loss_changes":[1.9388008E1,3.7449055E0,1.08626175E1,3.3510768E0,0E0,1.224392E1,8.839937E0,0E0,0E0,0E0,0E0,0E0,0E0],"parents":[2147483647,0,0,1,1,2,2,3,3,5,5,6,6],"right_children":[2,4,6,8,-1,10,12,-1,-1,-1,-1,-1,-1],"split_conditions":[-3.0441296E0,3.5839505E-2,2.018376E-2,-3.3043748E-1,5.4675616E-2,8.4977646E1,3.735853E-2,-6.289914E-3,3.7508994E-2,-7.0182807E-3,-5.2022614E-2,4.6197247E-2,2.9240243E-4],"split_indices":[1,5,5,2,0,0,5,0,0,0,0,0,0],"split_type":[0,0,0,0,0,0,0,0,0,0,0,0,0],"sum_hessian":[1.8627448E2,3.1089499E1,1.5518497E2,1.6320099E1,1.4769399E1,1.03057846E2,5.212713E1,7.2969522E0,9.023147E0,8.558577E1,1.7472073E1,1.3387094E1,3.8740032E1],"tree_param":{"num_deleted":"0","num_feature":"9","num_nodes":"13","size_leaf_vector":"1"}},{"base_weights":[-4.8730634E-2,5.620567E-1,-2.061693E-1,1.9555251E-1,4.642147E-2,3.3969462E-1,-3.608061E-1,4.3967895E-2,-1.1824596E-2,3.3139307E-2,-2.067513E-2,-4.7703933E-2,-9.024636E-3],"categories":[],"categories_nodes":[],"categories_segments":[],"categories_sizes":[],"default_left":[0,0,0,0,0,0,0,0,0,0,0,0,0],"id":38,"left_children":[1,3,5,7,-1,9,11,-1,-1,-1,-1,-1,-1],"loss_changes":[1.7491055E1,4.82672E0,1.2310557E1,6.0908012E0,0E0,8.156044E0,1.1915973E1,0E0,0E0,0E0,0E0,0E0,0E0],"parents":[2147483647,0,0,1,1,2,2,3,3,5,5,6,6],"right_children":[2,4,6,8,-1,10,12,-1,-1,-1,-1,-1,-1],"split_conditions":[-2.8820133E0,4E0,2.4810814E1,-3.9501815E0,4.642147E-2,-1.0884062E0,1E0,4.3967895E-2,-1.1824596E-2,3.3139307E-2,-2.067513E-2,-4.7703933E-2,-9.024636E-3],"split_indices":[1,7,0,3,0,1,7,0,0,0,0,0,0],"split_type":[0,0,0,0,0,0,0,0,0,0,0,0,0],"sum_hessian":[1.7968735E2,3.629807E1,1.4338928E2,1.8912516E1,1.7385553E1,3.1389261E1,1.12000015E2,6.92184E0,1.1990676E1,2.205051E1,9.338752E0,2.5105598E1,8.689442E1],"tree_param":{"num_deleted":"0","num_feature":"9","num_nodes":"13","size_leaf_vector":"1"}},{"base_weights":[6.1043617E-3,-1.2643299E-1,8.556551E-1,-3.0075663E-1,3.0659598E-1,5.3023078E-2,2.7488446E-2,4.6010748E-2,-1.9080205E-2,5.8793258E-2,3.480232E-3],"categories":[],"categories_nodes":[],"categories_segments":[],"categories_sizes":[],"default_left":[0,0,0,0,0,0,0,0,0,0,0],"id":39,"left_children":[1,3,5,7,9,-1,-1,-1,-1,-1,-1],"loss_changes":[2.0174046E1,1.1795017E1,9.317398E-1,1.131199E1,9.186995E0,0E0,0E0,0E0,0E0,0E0,0E0],"parents":[2147483647,0,0,1,1,2,2,3,3,4,4],"right_children":[2,4,6,8,10,-1,-1,-1,-1,-1,-1],"split_conditions":[-1.31192E-1,4E0,-5.848452E0,-1.0592465E1,-2.8820133E0,5.3023078E-2,2.7488446E-2,4.6010748E-2,-1.9080205E-2,5.8793258E-2,3.480232E-3],"split_indices":[2,7,3,3,1,0,0,0,0,0,0],"split_type":[0,0,0,0,0,0,0,0,0,0,0],"sum_hessian":[1.7720927E2,1.5403036E2,2.317891E1,1.10038025E2,4.399234E1,1.2405763E1,1.0773146E1,6.188974E0,1.0384905E2,8.575674E0,3.5416664E1],"tree_param":{"num_deleted":"0","num_feature":"9","num_nodes":"11","size_leaf_vector":"1"}},{"base_weights":[-6.5763935E-2,-3.0865303E-1,3.7865222E-1,-5.489436E-1,1.862954E-1,5.214911E-1,-3.522138E-2,-3.3898577E-2,2.5853587E-2,-3.990407E-2,1.8208029E-2,3.386059E-2,-2.718021E-2],"categories":[],"categories_nodes":[],"categories_segments":[],"categories_sizes":[],"default_left":[0,0,0,0,0,0,0,0,0,0,0,0,0],"id":40,"left_children":[1,3,5,7,9,11,-1,-1,-1,-1,-1,-1,-1],"loss_changes":[2.0358065E1,1.4588116E1,1.0688706E1,1.1663248E1,7.390951E0,1.0239489E1,0E0,0E0,0E0,0E0,0E0,0E0,0E0],"parents":[2147483647,0,0,1,1,2,2,3,3,4,4,5,5],"right_children":[2,4,6,8,10,12,-1,-1,-1,-1,-1,-1,-1],"split_conditions":[2.4887867E-2,4E0,-6.2028563E-1,-1.31192E-1,-1.0705038E0,1.9479537E-1,-3.522138E-2,-3.3898577E-2,2.5853587E-2,-3.990407E-2,1.8208029E-2,3.386059E-2,-2.718021E-2],"split_indices":[5,7,1,2,2,5,0,0,0,0,0,0,0],"split_type":[0,0,0,0,0,0,0,0,0,0,0,0,0],"sum_hessian":[1.8651598E2,1.208E2,6.571597E1,8.124675E1,3.9553257E1,5.851712E1,7.198853E0,7.279931E1,8.447439E0,5.5194445E0,3.4033813E1,5.1370716E1,7.146403E0],"tree_param":{"num_deleted":"0","num_feature":"9","num_nodes":"13","size_leaf_vector":"1"}},{"base_weights":[1.01678036E-1,-8.0574363E-1,2.0878483E-1,5.3254548E-3,-6.1419714E-2,8.262242E-1,7.524678E-2,5.1296737E-2,2.3898764E-2,-2.1686867E-2,1.0801437E-2],"categories":[],"categories_nodes":[],"categories_segments":[],"categories_sizes":[],"default_left":[0,0,0,0,0,0,0,0,0,0,0],"id":41,"left_children":[1,3,5,-1,-1,7,9,-1,-1,-1,-1],"loss_changes":[1.8576181E1,7.9197283E0,1.3970971E1,0E0,0E0,1.6075268E0,1.019961E1,0E0,0E0,0E0,0E0],"parents":[2147483647,0,0,1,1,2,2,5,5,6,6],"right_children":[2,4,6,-1,-1,8,10,-1,-1,-1,-1],"split_conditions":[-1.2312107E0,3.5637066E1,-3.0441296E0,5.3254548E-3,-6.1419714E-2,-3.4303384E0,1E0,5.1296737E-2,2.3898764E-2,-2.1686867E-2,1.0801437E-2],"split_indices":[2,0,1,0,0,1,7,0,0,0,0],"split_type":[0,0,0,0,0,0,0,0,0,0,0],"sum_hessian":[1.8839975E2,1.920129E1,1.6919846E2,6.3162465E0,1.2885044E1,2.916432E1,1.4003413E2,1.7298283E1,1.1866037E1,2.9889717E1,1.10144424E2],"tree_param":{"num_deleted":"0","num_feature":"9","num_nodes":"11","size_leaf_vector":"1"}},{"base_weights":[6.1860245E-2,7.256265E-1,-8.371188E-2,3.154524E-1,5.1360447E-2,-6.649151E-1,7.20855E-2,3.6971673E-2,-9.456876E-3,-1.0977631E-2,-5.5810716E-2,2.1934776E-2,-8.227961E-3],"categories":[],"categories_nodes":[],"categories_segments":[],"categories_sizes":[],"default_left":[0,0,0,0,0,0,0,0,0,0,0,0,0],"id":42,"left_children":[1,3,5,7,-1,9,11,-1,-1,-1,-1,-1,-1],"loss_changes":[1.8491613E1,3.9327507E0,1.429441E1,3.5679824E0,0E0,6.4594135E0,1.0914637E1,0E0,0E0,0E0,0E0,0E0,0E0],"parents":[2147483647,0,0,1,1,2,2,3,3,5,5,6,6],"right_children":[2,4,6,8,-1,10,12,-1,-1,-1,-1,-1,-1],"split_conditions":[-3.0441296E0,1E0,1E0,-2.2817612E0,5.1360447E-2,6.5541885E1,3.9056957E1,3.6971673E-2,-9.456876E-3,-1.0977631E-2,-5.5810716E-2,2.1934776E-2,-8.227961E-3],"split_indices":[1,4,7,3,0,0,0,0,0,0,0,0,0],"split_type":[0,0,0,0,0,0,0,0,0,0,0,0,0],"sum_hessian":[1.8974469E2,3.341184E1,1.5633286E2,1.5024038E1,1.83878E1,3.2357002E1,1.2397585E2,7.911226E0,7.1128125E0,1.7033783E1,1.532322E1,4.82983E1,7.567755E1],"tree_param":{"num_deleted":"0","num_feature":"9","num_nodes":"13","size_leaf_vector":"1"}},{"base_weights":[4.651647E-2,7.2987604E-1,-7.168039E-2,3.7386173E-1,5.5796303E-2,8.328485E-2,-5.435036E-1,3.8149342E-2,-8.635703E-3,-6.441438E-3,1.8217841E-2,-4.1402265E-2,-3.5516124E-3],"categories":[],"categories_nodes":[],"categories_segments":[],"categories_sizes":[],"default_left":[0,0,0,0,0,0,0,0,0,0,0,0,0],"id":43,"left_children":[1,3,5,7,-1,9,11,-1,-1,-1,-1,-1,-1],"loss_changes":[1.4543454E1,3.231141E0,1.1295298E1,3.3887694E0,0E0,7.003969E0,5.0732136E0,0E0,0E0,0E0,0E0,0E0,0E0],"parents":[2147483647,0,0,1,1,2,2,3,3,5,5,6,6],"right_children":[2,4,6,8,-1,10,12,-1,-1,-1,-1,-1,-1],"split_conditions":[-3.0441296E0,4E0,7.853222E1,-3.0039988E0,5.5796303E-2,6.8069696E-3,2.6428103E-2,3.8149342E-2,-8.635703E-3,-6.441438E-3,1.8217841E-2,-4.1402265E-2,-3.5516124E-3],"split_indices":[1,7,0,3,0,5,5,0,0,0,0,0,0],"split_type":[0,0,0,0,0,0,0,0,0,0,0,0,0],"sum_hessian":[1.7841023E2,2.5545113E1,1.5286511E2,1.4313587E1,1.1231526E1,1.1569111E2,3.717401E1,8.129787E0,6.1838E0,6.624235E1,4.944876E1,2.2731552E1,1.4442459E1],"tree_param":{"num_deleted":"0","num_feature":"9","num_nodes":"13","size_leaf_vector":"1"}},{"base_weights":[3.4506634E-2,-1.24762066E-1,7.013515E-1,3.9310455E-2,-1.9507442E-1,8.758967E-1,-1.3796446E-2,-3.7398018E-2,-4.7061006E-3,5.2440245E-2,2.6043726E-3],"categories":[],"categories_nodes":[],"categories_segments":[],"categories_sizes":[],"default_left":[0,0,0,0,0,0,0,0,0,0,0],"id":44,"left_children":[1,3,5,-1,7,9,-1,-1,-1,-1,-1],"loss_changes":[1.9771215E1,9.790123E0,6.3623867E0,0E0,7.77005E0,4.3160877E0,0E0,0E0,0E0,0E0,0E0],"parents":[2147483647,0,0,1,1,2,2,4,4,5,5],"right_children":[2,4,6,-1,8,10,-1,-1,-1,-1,-1],"split_conditions":[6.280835E-2,-3.562051E0,2.4066459E-1,3.9310455E-2,-1.1430938E0,7.8440765E1,-1.3796446E-2,-3.7398018E-2,-4.7061006E-3,5.2440245E-2,2.6043726E-3],"split_indices":[5,1,5,0,2,0,0,0,0,0,0],"split_type":[0,0,0,0,0,0,0,0,0,0,0],"sum_hessian":[1.8433258E2,1.4945078E2,3.4881798E1,9.979113E0,1.3947166E2,2.9683907E1,5.1978917E0,2.0544825E1,1.1892684E2,2.4308676E1,5.375231E0],"tree_param":{"num_deleted":"0","num_feature":"9","num_nodes":"11","size_leaf_vector":"1"}},{"base_weights":[-4.4237776E-3,8.437485E-1,-9.635102E-2,2.398952E-2,5.524493E-2,-5.8456E-1,4.1812185E-2,-5.054461E-3,-4.949161E-2,-3.242232E-2,7.542127E-3],"categories":[],"categories_nodes":[],"categories_segments":[],"categories_sizes":[],"default_left":[0,0,0,0,0,0,0,0,0,0,0],"id":45,"left_children":[1,3,5,-1,-1,7,9,-1,-1,-1,-1],"loss_changes":[1.4175255E1,1.1596489E0,1.1085497E1,0E0,0E0,7.00023E0,9.787068E0,0E0,0E0,0E0,0E0],"parents":[2147483647,0,0,1,1,2,2,5,5,6,6],"right_children":[2,4,6,-1,-1,8,10,-1,-1,-1,-1],"split_conditions":[-3.562051E0,2.3792922E-2,1E0,2.398952E-2,5.524493E-2,-1.5242537E0,-1.1430938E0,-5.054461E-3,-4.949161E-2,-3.242232E-2,7.542127E-3],"split_indices":[1,5,7,0,0,1,2,0,0,0,0],"split_type":[0,0,0,0,0,0,0,0,0,0,0],"sum_hessian":[1.7976096E2,1.6778126E1,1.6298283E2,8.194659E0,8.583467E0,3.523757E1,1.2774526E2,1.6638298E1,1.8599274E1,1.6750755E1,1.1099451E2],"tree_param":{"num_deleted":"0","num_feature":"9","num_nodes":"11","size_leaf_vector":"1"}},{"base_weights":[-1.6885793E-3,-2.7098897E-1,4.7509387E-1,-9.634557E-1,-1.4044017E-1,7.734834E-1,1.5152332E-1,-6.2270094E-2,-1.4335006E-2,-4.8640367E-2,-2.1304016E-3,5.2327167E-2,2.769809E-2,2.7589992E-2,-2.4104394E-2],"categories":[],"categories_nodes":[],"categories_segments":[],"categories_sizes":[],"default_left":[0,0,0,0,0,0,0,0,0,0,0,0,0,0,0],"id":46,"left_children":[1,3,5,7,9,11,13,-1,-1,-1,-1,-1,-1,-1,-1],"loss_changes":[2.5376019E1,1.1281835E1,6.7705364E0,3.4328918E0,8.707006E0,1.6303234E0,9.261587E0,0E0,0E0,0E0,0E0,0E0,0E0,0E0,0E0],"parents":[2147483647,0,0,1,1,2,2,3,3,4,4,5,5,6,6],"right_children":[2,4,6,8,10,12,14,-1,-1,-1,-1,-1,-1,-1,-1],"split_conditions":[-3.2400876E-1,-1.2312107E0,-2.4234056E0,1E0,2E0,-3.4303384E0,5.417328E1,-6.2270094E-2,-1.4335006E-2,-4.8640367E-2,-2.1304016E-3,5.2327167E-2,2.769809E-2,2.7589992E-2,-2.4104394E-2],"split_indices":[2,2,1,4,8,1,0,0,0,0,0,0,0,0,0],"split_type":[0,0,0,0,0,0,0,0,0,0,0,0,0,0,0],"sum_hessian":[1.9563338E2,1.2529487E2,7.03385E1,1.886257E1,1.06432304E2,3.5869755E1,3.4468746E1,1.2722103E1,6.1404657E0,1.0253205E1,9.617909E1,1.4306591E1,2.1563164E1,2.1203072E1,1.3265675E1],"tree_param":{"num_deleted":"0","num_feature":"9","num_nodes":"15","size_leaf_vector":"1"}},{"base_weights":[-3.6624007E-2,-2.5788537E-1,4.705819E-1,-4.861325E-1,2.0775293E-1,5.02454E-2,2.4910451E-1,-7.7353097E-3,-3.8589876E-2,4.6499994E-2,2.801201E-3,-2.756398E-3,3.3090875E-2],"categories":[],"categories_nodes":[],"categories_segments":[],"categories_sizes":[],"default_left":[0,0,0,0,0,0,0,0,0,0,0,0,0],"id":47,"left_children":[1,3,5,7,9,-1,11,-1,-1,-1,-1,-1,-1],"loss_changes":[1.9097836E1,1.2682442E1,5.8695164E0,7.430044E0,4.291923E0,0E0,4.793884E0,0E0,0E0,0E0,0E0,0E0,0E0],"parents":[2147483647,0,0,1,1,2,2,3,3,4,4,6,6],"right_children":[2,4,6,8,10,-1,12,-1,-1,-1,-1,-1,-1],"split_conditions":[4E0,-3.2400876E-1,-2.8820133E0,5.558602E1,-9.359107E0,5.02454E-2,1E0,-7.7353097E-3,-3.8589876E-2,4.6499994E-2,2.801201E-3,-2.756398E-3,3.3090875E-2],"split_indices":[7,2,1,0,3,0,4,0,0,0,0,0,0],"split_type":[0,0,0,0,0,0,0,0,0,0,0,0,0],"sum_hessian":[1.6809308E2,1.173795E2,5.0713577E1,7.873907E1,3.864043E1,1.3824334E1,3.688924E1,3.716365E1,4.1575417E1,5.81778E0,3.282265E1,2.1734226E1,1.5155017E1],"tree_param":{"num_deleted":"0","num_feature":"9","num_nodes":"13","size_leaf_vector":"1"}},{"base_weights":[2.0473925E-2,4.4911064E-2,-5.8632992E-2,3.971341E-1,-1.9597776E-1,-7.3743127E-3,4.8935182E-2,-5.3094625E-2,-5.79211E-3],"categories":[],"categories_nodes":[],"categories_segments":[],"categories_sizes":[],"default_left":[0,0,0,0,0,0,0,0,0],"id":48,"left_children":[1,-1,3,5,7,-1,-1,-1,-1],"loss_changes":[1.2542432E1,0E0,1.0465373E1,1.2420073E1,8.771847E0,0E0,0E0,0E0,0E0],"parents":[2147483647,0,0,2,2,3,3,4,4],"right_children":[2,-1,4,6,8,-1,-1,-1,-1],"split_conditions":[-3.562051E0,4.4911064E-2,2.4810814E1,1.7659935E1,2E0,-7.3743127E-3,4.8935182E-2,-5.3094625E-2,-5.79211E-3],"split_indices":[1,0,0,0,8,0,0,0,0],"split_type":[0,0,0,0,0,0,0,0,0],"sum_hessian":[1.788748E2,1.3932237E1,1.6494257E2,3.7757145E1,1.2718542E2,1.9883402E1,1.7873741E1,9.735548E0,1.17449875E2],"tree_param":{"num_deleted":"0","num_feature":"9","num_nodes":"9","size_leaf_vector":"1"}},{"base_weights":[9.6115574E-2,2.29719E-1,-4.8445272E-1,3.1452608E-1,-4.809642E-1,-1.0000689E0,-8.413697E-3,2.304522E-2,9.445329E-4,-3.8038194E-2,1.3428212E-3,-2.1004034E-2,-6.1203696E-2,-2.2858987E-2,2.6964907E-2],"categories":[],"categories_nodes":[],"categories_segments":[],"categories_sizes":[],"default_left":[0,0,0,0,0,0,0,0,0,0,0,0,0,0,0],"id":49,"left_children":[1,3,5,7,9,11,13,-1,-1,-1,-1,-1,-1,-1,-1],"loss_changes":[1.4815374E1,9.480242E0,8.775184E0,6.0015697E0,2.421272E0,1.7165241E0,5.0678587E0,0E0,0E0,0E0,0E0,0E0,0E0,0E0,0E0],"parents":[2147483647,0,0,1,1,2,2,3,3,4,4,5,5,6,6],"right_children":[2,4,6,8,10,12,14,-1,-1,-1,-1,-1,-1,-1,-1],"split_conditions":[8.4977646E1,-5.7232255E-1,-6.557228E-1,-2.8835254E0,4E0,-5.5035334E0,2.6428103E-2,2.304522E-2,9.445329E-4,-3.8038194E-2,1.3428212E-3,-2.1004034E-2,-6.1203696E-2,-2.2858987E-2,2.6964907E-2],"split_indices":[0,1,2,3,7,3,5,0,0,0,0,0,0,0,0],"split_type":[0,0,0,0,0,0,0,0,0,0,0,0,0,0,0],"sum_hessian":[1.8856892E2,1.5378374E2,3.47852E1,1.3788687E2,1.5896853E1,1.617002E1,1.861518E1,9.185003E1,4.6036846E1,9.928397E0,5.9684563E0,5.3063264E0,1.0863691E1,1.0322644E1,8.292536E0],"tree_param":{"num_deleted":"0","num_feature":"9","num_nodes":"15","size_leaf_vector":"1"}}]},"name":"gbtree"},"name":"dart","weight_drop":[8.9893794E-1,9.0702957E-1,1E0,9.686905E-1,9.2915225E-1,9.0702957E-1,9.836066E-1,9.52381E-1,9.7146326E-1,9.756098E-1,8.8332695E-1,4.8434526E-1,1E0,9.635652E-1,1E0,9.3012446E-1,4.878049E-1,3.2554352E-1,1E0,1E0,1E0,9.52381E-1,8.937002E-1,1E0,9.686905E-1,4.878049E-1,9.9290776E-1,9.9009895E-1,1E0,9.52381E-1,1E0,9.9290776E-1,3.2249397E-1,1E0,1E0,9.9009895E-1,9.756098E-1,4.878049E-1,1E0,9.836066E-1,9.52381E-1,3.246226E-1,1.9801979E-1,9.8765427E-1,1E0,1E0,1.4184397E-1,1E0,1E0,2.4691357E-1]},"learner_model_param":{"base_score":"4.974142E-1","boost_from_average":"1","num_class":"0","num_feature":"9","num_target":"1"},"objective":{"name":"binary:logistic","reg_loss_param":{"scale_pos_weight":"2.46047425"}}},"version":[3,0,2]}